-0.0275972,0.0300396,0.0416982,0.00286619,0.0178093,0.0106599,0.00705121,-0.00694703,-0.033415,-0.00128319,
-0.0143018,-0.0175159,-0.0342343,-0.0210729,-0.0172551,-0.0260583,0.0029831,0.0292036,-0.00818446,0.0023972,
-0.0112065,-0.0198348,0.00179585,-0.00824802,0.0511791,-0.00904397,0.0203187,0.0107416,0.0142784,0.00714432,
0.00147332,0.0158539,0.0122043,0.0116146,0.019881,0.0311878,-0.0309088,-0.0130873,0.00497987,0.00250511,
0.0290258,0.0114205,0.00111713,0.0238085,0.0387941,0.0125092,-0.016138,-0.00330733,-0.0146669,-0.0072223,
-0.0127934,0.00909118,-0.019374,-0.00688936,-0.0158259,-0.000997299,0.00506294,-0.00797716,0.0053103,-0.00809307,
-0.0153705,-0.00889767,0.0237453,-0.0108108,0.00051063,0.037836,-0.00276371,-0.0141564,0.0255938,0.0250848,
0.00872107,-0.00981469,0.0137972,0.0400242,-0.00122971,0.00897138,0.0316592,-0.00690811,-0.0146958,-0.0131362,
-0.00130144,0.00324274,0.027349,-0.017261,-0.0217202,-0.0293174,-0.0253562,0.0202257,0.0311871,0.0202655,
0.00524563,0.0176109,-0.0090754,-0.0310988,-0.00408021,-0.00838312,-0.00366453,-0.00547067,-0.0348142,-0.0144977,
0.0053498,-0.0358998,0.020494,0.0244755,-0.000935148,-0.00636559,-0.00517703,0.0163392,-0.0235879,0.0223689,
0.0026868,-0.0107087,0.0183017,-0.0167686,-0.00175753,-0.0217151,-0.00702471,-0.000766584,0.0101999,-0.0369816,
-0.035265,0.00956136,-0.0188237,0.0129923,0.0248208,0.00835419,0.00734446,0.0127426,-0.0150012,-0.00330765,
0.0240021,-0.00856778,-0.0285564,0.00734304,-0.0178577,-0.00713835,-0.0304086,6.91939e-05,-0.00542154,9.27136e-05,
0.0129066,0.0147243,-0.0215654,0.0260801,0.021013,-0.00276785,0.011019,-0.00413291,-0.00361737,-0.0106639,
0.014696,0.00591069,0.00545864,0.00657053,0.0200999,0.0272271,-0.0303807,0.00209319,-0.0246991,0.0260826,
-0.00930605,-0.0296742,-0.0277306,-0.00191306,0.00331951,0.0210287,-0.0258534,-0.0299248,-0.0233575,-0.0110691,
0.0025686,0.00695706,0.0235497,-0.0134222,-0.0182555,-0.0184918,-0.0112327,-0.0168382,0.0309774,-0.00679209,
0.0282464,0.0209078,0.0165892,-0.0142064,0.00410088,0.0104669,-0.0144558,0.00677056,-0.00503027,0.0103209,
0.000895954,-0.0132501,0.0165353,0.0256402,-0.0122172,0.00903579,-0.0171344,-0.017948,-0.0113214,-0.000832485,
-0.0266928,0.00251593,-0.00799733,-0.0288935,0.0140209,0.00974509,0.000620027,0.00275355,0.00897808,-0.0285298,
-0.00116466,0.017747,-0.00338373,-0.0116171,0.0233368,0.00908773,-0.0308087,-0.00959067,0.00746512,0.0114337,
-0.0183221,0.00199263,0.0277344,0.0255524,0.0177823,0.00400287,-0.00539151,0.014161,0.0187231,0.0143037,
-0.0011817,0.0140153,-0.014263,0.0132129,-0.00343849,-0.0216262,0.00456506,0.0140873,-0.0125043,-0.0156508,
-0.00807115,-0.0181347,-0.00247222,0.018789,-0.00701702,-0.0166094,-0.00855122,-0.0128817,0.0212467,-0.00998104,
-0.00104372,0.00912212,0.0136233,0.0163926,-0.00430818,-0.0133708,0.00465046,-0.0152158,0.0142349,0.0144366,
-0.026845,-0.00514851,0.00977627,-0.00354104,0.0399904,0.0373328,-0.0172754,-0.0105663,-0.017703,0.00893144,
-0.00784453,-0.014806,0.023018,0.00808242,0.0129239,0.0177496,0.0114044,0.00911563,-0.00685324,-0.00639615,
0.00354449,-0.00538639,0.00165162,0.00358599,0.0280252,0.0258857,0.00188867,0.0370335,0.0124011,0.0159299,
-0.0150336,-0.0012192,0.00418459,-0.0177863,-0.00821656,-0.0127837,0.0223772,-0.00841885,-0.0313736,-0.00852994,
0.022063,-0.0252639,-0.0159462,0.00455951,-0.0194903,-0.00939619,-0.00141189,0.010727,-0.0133647,-0.00927922,
-0.0318373,0.0353647,-0.000247325,0.000342193,0.0253095,-0.00197966,0.0311632,0.0129044,0.0207005,-0.00801972,
-0.00862226,0.0199905,-0.0298671,-0.0285931,0.00773832,-0.0108959,-0.0202191,-0.00411546,0.0279262,-0.00204827,
0.0181289,0.00453324,0.0199937,0.00660098,0.0233259,0.00120277,0.00195288,0.0149904,-0.00233433,0.0201606,
0.00564119,-0.0239178,0.0162916,-0.0150445,0.00398306,0.031422,-0.00879692,-0.0143753,0.000856242,-0.00496978,
-0.0244464,0.0228206,-0.027874,-0.0126236,-0.00407722,0.0137116,0.00556612,0.019593,0.0107809,0.0023754,
0.00457598,0.0113604,0.0264894,0.0331275,-0.00216034,0.0127323,-0.0187712,0.0168436,-0.0158195,-0.0367381,
0.00646461,0.00231175,0.00794109,0.0338586,0.00482728,-0.0213015,0.0165738,-0.00292795,-0.0491932,0.0349913,
-0.00815978,0.0242928,0.018875,-0.00418894,0.0114589,-0.0313539,0.0135117,0.0473133,0.00688991,0.00397913,
-0.0395538,0.0137656,0.0010926,-0.0204684,-0.0313293,0.0032035,-0.00511518,-0.0235949,-0.031643,0.0248528,
0.0221057,-0.0245511,0.0253832,-0.00868705,-0.00495787,-0.00282502,0.0369435,0.00890275,-0.00218161,0.0135156,
-0.0201088,-0.0357602,-0.000611903,-0.011956,-0.00101795,-0.000191222,0.057641,-0.0265515,-0.0346471,-0.0486085,
0.00967768,-0.00796962,-0.0424327,-0.0133033,-0.0229696,-0.0136673,-0.0150074,-0.0222691,0.0216809,-0.00639193,
0.020524,-0.0191916,-0.0104138,0.00648787,0.043388,-0.0195174,-0.00349687,-0.0180533,0.00148877,-0.00999197,
0.0116759,-0.0420624,-0.00133528,0.0047665,-0.0267075,0.00450076,0.00280659,0.0151775,-0.0269916,-0.0154351,
0.000397076,0.00222197,0.0267477,0.0184953,7.26561e-05,-0.00716273,-0.00718618,0.00889587,0.0304157,-0.048539,
-0.0277405,-0.00328798,-0.00916448,0.00176475,0.00354866,-0.0148098,0.0215216,-0.0118993,0.00482416,0.00978283,
0.0220859,0.0334664,-0.000951319,0.00146492,-0.0302762,0.0209911,-0.013637,0.0198529,-0.0239935,0.0344343,
0.0142901,-0.0134123,0.0390362,-0.00111127,-0.0125933,-0.00708383,-0.0241603,-0.0307342,0.0150805,0.004581,
0.013494,0.00116149,-0.00961734,-0.00159105,0.00741399,-0.0311173,-0.00570332,0.00850859,-0.00820052,0.00145878,
-0.0228605,-0.0106419,0.0417659,-0.0129865,0.000704707,-0.000609277,0.0145324,0.00214125,-0.000849083,-0.00913081,
-0.0118067,-0.0181736,-0.00516947,-0.0237469,-0.0168828,-0.0281043,0.0263088,0.0336932,0.00267503,0.0162663,
-0.00478837,-0.0355918,0.00237853,0.0299473,0.0075013,-0.00894374,0.0258026,-0.0066602,0.00373854,0.00207951,
-0.0112512,0.00878236,-0.00819848,-0.00643081,0.0120583,-0.0056935,-0.0103546,-0.00965108,0.025505,-0.0135891,
-0.0140208,0.0111348,-0.0054886,-0.0137267,-0.0223885,-0.00363313,0.00605616,0.0188146,0.00148395,-0.0178268,
0.0133848,0.00318222,0.0204173,0.0067279,-0.039214,0.0120706,-0.00993008,0.0019498,-0.00661096,-0.0175741,
-0.00475054,-0.00280397,-0.0310404,0.00970977,0.0244963,-0.0102319,0.0241382,-0.00368087,0.0141718,0.0255279,
0.037253,0.0244395,-0.0171156,0.000807997,0.00566824,-0.038182,0.0195171,0.0118759,0.00668277,-0.0218375,
-0.00376108,-0.0274817,0.0149917,0.00583265,-0.0179072,-0.0301295,0.024791,-0.0386325,0.00787991,0.0360788,
-0.00413135,0.00967076,0.0378078,0.00690635,0.0127947,0.0252281,-0.00531629,-0.0191136,-0.00248518,0.0191514,
-0.00453891,-0.00181445,0.0336624,0.00594423,0.000481232,0.00125842,0.00264287,-0.0225803,-0.0128525,0.00533557,
-0.0140203,0.0181606,0.0188393,-0.0130069,0.0153522,0.00264486,-0.0456647,-0.00952237,-0.00522294,0.00870312,
-0.00223878,-0.00103779,0.018357,0.0159593,0.0140101,0.0270465,0.0236344,0.0125668,0.0153983,-0.0211692,
0.00210521,0.0315538,0.00530603,0.000390621,0.0267876,-0.0237105,0.0231119,0.0178277,0.0183849,-0.0170563,
-0.00850776,-0.0293214,0.0273364,0.000367651,-0.0147673,0.0414875,0.00804185,-0.00845316,-0.00924304,0.00508381,
0.0178799,-0.00159307,0.0100604,8.42471e-05,0.000274814,0.000705972,-0.0110059,-0.000706122,-0.013425,-0.0207388,
-0.00364716,0.00993245,0.0436912,0.0216816,-0.0154865,-0.0071416,0.0465631,0.000225121,-0.00565034,-0.00925523,
0.0193042,0.0429157,0.00552588,-0.0250156,-0.000271142,0.0112598,-0.0249751,-0.0198239,0.0340748,-0.00768899,
-0.0202262,-0.00117848,-0.024402,0.0278938,-0.015986,-0.0268375,-0.00285779,-0.0139984,0.0186458,-0.000853031,
-0.00663556,0.0220599,0.00347132,0.0299014,0.0293062,0.0238144,0.00955052,-0.0275057,0.00613822,0.0285492,
0.00784057,-0.0227017,-0.0222954,-0.000986026,0.0122494,0.0231445,0.00718723,-0.00843323,0.0394737,-0.0169915,
-0.0144349,-0.00724142,0.0419389,-0.00129084,-0.0139736,-0.0588778,0.00283665,0.0019063,-0.0157114,0.00619368,
0.015763,-0.00179865,0.0204825,0.00998582,-0.0245415,-0.00113235,0.0276082,0.00532514,0.0228347,0.00592976,
-0.0451302,0.0158593,-0.0198154,0.0117212,-0.0218506,-0.0159813,-0.0271924,-0.0132917,0.00530455,-0.0158825,
-0.0158685,-0.0137676,0.00836497,-0.00545996,-0.0318064,0.0306009,-0.000164825,0.00656037,-0.00110885,0.00607467,
0.0213535,-0.0335227,0.0147826,0.0259169,-0.0169179,-0.0013093,0.00388265,0.0583918,-0.0276357,0.0435177,
-0.00728424,-0.0101934,0.0349505,0.00011067,-0.0290247,0.00367926,-0.0496077,0.00995108,0.0104349,0.0019071,
0.00809584,6.0446e-05,-0.00248907,-0.00171953,0.0125457,-0.0239211,0.0127899,0.0106884,0.0163082,0.00184256,
-0.0352097,0.0330819,-0.00488225,0.0307755,0.00919886,0.0170662,0.018515,0.0220103,0.0100567,-0.0109514,
-0.0147974,0.00634454,0.0369222,0.00148595,-0.00978667,-0.00647159,-0.0202269,-0.0106196,0.0349518,-2.26653e-05,
-0.0216872,-0.00650153,0.0142447,0.00549448,-0.00774216,-0.000620542,0.00681743,0.0159946,0.0111229,-0.0291177,
0.00228718,-0.00184325,0.0152664,-0.00459479,-0.0101688,-0.00754477,0.0279556,-0.00634465,0.016736,0.0100541,
-0.0142175,-0.00473542,0.0371617,-0.00697759,-0.0132578,-0.018055,0.0308561,-0.0426122,-9.34254e-05,0.0236601,
-0.0219908,-0.017144,0.0147991,-0.003567,-0.0232333,-0.023017,-0.0129553,0.00478108,0.0359084,-0.0235259,
-0.0083642,-0.0191955,-0.00163532,0.00679307,0.0199745,-0.0212868,-0.0312609,0.0134453,-0.000811596,-0.00626686,
-0.0235422,-0.0156662,-0.0189701,-0.00092618,0.025439,0.0141044,-0.0205035,0.0339559,0.00824907,0.0123549,
-0.0257156,-0.0195185,0.0292253,0.0187022,0.0152562,-0.016323,0.00639915,-0.00522603,0.00757061,0.0106048,
0.00617455,0.0368924,0.0478731,-0.00977632,-0.00700603,-0.0095881,0.0330409,-0.00317951,0.00497419,0.0159403,
0.0106717,0.0198103,0.035521,0.00642052,0.00146917,-0.0245849,0.0205447,0.0134975,0.0340192,0.019524,
0.0687047,-0.0154323,0.0128835,0.00775053,0.000577724,0.0231323,-0.0269359,0.0167763,0.000634057,0.00624244,
-0.011903,0.013927,0.027711,0.00299838,-0.0288951,-0.028792,0.0519425,0.0222034,-0.00880652,0.00273583,
-0.0424038,0.00781216,0.0380794,-0.00613384,-0.00200088,0.0158724,0.00952979,-0.00525366,0.00610111,0.00922743,
-0.0135689,-0.00242803,0.0478364,-0.00831879,-0.0171264,0.00142056,-0.0133669,0.0309642,-0.0283427,-0.0101477,
-0.0442287,-0.0223103,0.00497831,0.00108724,-0.0037459,-0.00873161,-0.0319439,-0.0209802,0.0018072,0.0172889,
-0.002743,0.00589585,0.036908,-0.00993829,-0.017773,0.00491447,-0.0150505,-0.0104345,0.00333482,-0.0109696,
-0.0167823,0.0177411,0.0356582,0.0195845,-0.0253056,0.00342896,0.00566216,-0.00906107,0.00219689,-0.0127577,
-0.0136651,-0.00324228,-0.0104104,-0.00255468,-0.0382721,-0.0173829,0.0432258,0.0119483,-0.0238953,-0.0112241,
-0.0286643,0.0177782,-0.00310222,-0.0237789,0.0263438,-0.00226865,0.00889784,0.0191345,0.0470241,-0.0245723,
-0.00761524,0.0167708,0.0323736,0.00215735,-0.0272723,-0.0060977,0.0640004,0.000707078,0.00200845,-0.00720686,
-0.00874554,0.0227895,-0.0182102,-0.00729004,0.015161,0.00927439,0.00852367,0.0254736,0.0249294,0.00699999,
0.0253405,0.011405,-0.0262147,-0.000307632,0.0162316,0.00926413,-0.0137968,-0.00125955,0.0210608,0.015017,
0.0216924,-0.0198128,0.00978042,-0.0048266,-0.0458265,-0.0180074,0.0229268,-0.0220181,-0.00999771,-0.00572614,
-0.0261316,-0.00280604,-0.00334072,-0.00107905,-0.00883128,0.00629892,-0.00212342,-0.00290688,0.0284793,-0.0106673,
-0.0192901,0.0217882,0.00863901,-0.00282085,0.0309446,-0.0279665,0.0407698,0.0106903,0.00319189,-0.0332447,
-0.0374747,0.00374481,0.0254278,0.0135955,0.01122,-0.0109276,0.014146,-0.0247646,0.00815533,0.0106301,
0.00540957,0.0159066,0.0275373,0.00655271,-0.00283758,0.000309504,0.036743,0.0321475,-0.0146418,0.00947359,
-0.0205986,-0.0419503,0.000715383,0.00554713,0.00154053,0.0108297,0.0818954,-0.0176451,-0.009489,0.0181693,
-0.0125743,0.0282589,0.000420482,0.00336339,-0.0326578,-0.0228067,0.0364612,-0.00634698,0.0074974,-0.0102254,
-0.018608,-0.00477136,0.036042,0.0392583,-0.0595011,0.00437629,-0.00892706,0.0243331,-0.00808971,0.0180425,
-0.0196179,-0.00435422,0.00449331,0.0161503,0.0180457,0.02221,-0.0177354,-0.0032565,0.0194672,0.000228757,
-0.00117484,-0.00153768,0.0314674,0.0186819,-0.0319276,0.0364666,0.0483581,-0.012821,0.0188153,-0.019289,
0.00921216,0.0107152,-0.000583203,0.0491656,-0.0267057,0.00410022,0.0297422,-0.0033276,-0.0144119,-0.0103635,
0.00225687,-0.0275406,0.00108222,0.0129491,-0.00720796,-0.00662568,0.0363184,-0.00852323,-0.036495,-0.0324156,
0.0374073,0.00709379,0.0085016,-0.0168869,0.0153653,0.0345138,0.000752268,-0.0449713,0.0027952,0.0217798,
-0.017341,-0.0447066,0.0211871,0.0229161,-0.0457709,-0.00437125,0.105147,-0.0337087,-0.0248968,0.00372061,
-0.0170785,-0.00494859,0.0311617,0.0227359,-0.0113681,0.00253129,0.0383712,0.0184623,-0.0185031,-0.019656,
0.0114163,-0.0144192,0.0294199,0.0239254,-0.000665424,-0.0109304,-0.0227929,0.0509985,0.0176732,0.0360767,
0.0381461,0.00224404,0.0028881,0.00164308,-0.000645398,-0.0194309,0.0629062,-0.000588952,0.0337908,-0.0180587,
0.0196694,0.0200239,0.012328,0.00968652,0.00206823,0.0143106,0.0298108,0.0215447,0.000795315,0.0177651,
0.0277155,-0.0227091,0.0127496,0.0372351,-0.0274328,-0.0395741,0.0477394,-0.00406868,-0.0278775,0.00219616,
0.0166417,-0.0421301,-0.0170196,0.00550283,-0.0564772,-0.0316602,0.0319821,-0.0220411,0.0139122,0.00451869,
0.0137987,0.0072352,-0.00106475,0.0123607,0.0258024,0.0209822,0.02072,-0.0170428,-0.021955,-0.0103403,
-0.0276356,-0.017178,-0.00953787,0.00594179,-0.00428681,0.0133355,0.027274,0.0427495,-0.0345721,-0.00566296,
-0.0272317,-0.0155802,-0.0183226,0.0328118,-0.0518571,-0.0248259,0.0368385,-0.00879149,-0.0218638,0.010853,
-0.00811298,-0.011296,-0.0051327,0.0252919,0.0224579,-0.0196496,0.0545075,0.00277375,0.00258702,0.013285,
0.0143727,0.0115328,-0.0146847,-0.0263233,0.0180748,-0.00439258,0.024325,-0.0137482,0.00277374,-0.034959,
-0.00373983,-0.0130725,0.0119884,-0.00705346,-0.0276613,-0.0140415,0.0295648,-0.0251932,0.00861369,0.0333685,
-0.0138256,-0.0294888,0.011404,0.00322074,-0.0187741,-0.0104201,0.0203283,-0.0124158,-0.00839901,-0.00563968,
-0.0196172,-0.0221751,-0.0212145,-0.0283706,-0.0403119,-0.0271761,0.0558653,0.00374017,-0.00442435,-0.0166872,
0.029907,0.000885133,0.0352103,-0.0117276,-0.00326618,-0.00407319,-0.0101474,0.0276862,0.00627065,0.0108739,
-0.00235759,-0.0280528,0.00201052,0.0331817,-0.0348514,0.0345792,0.103823,-0.00514698,-0.00622616,-0.0219473,
0.0155146,0.0105858,-0.0132047,0.000898887,-0.0356732,-0.0288262,0.0188002,0.00505653,-0.000121504,0.0024383,
0.0209863,-0.0283856,0.020125,-0.0496666,0.00224617,0.00864065,-0.0268519,0.0307107,0.0133664,0.0103762,
-0.0024518,-0.0131341,0.0053537,-0.00888386,-0.0112659,-0.0150636,0.0129417,0.0291789,-0.00618628,-0.0303171,
-0.0193709,0.0029606,-0.00717787,-0.0357012,-0.003805,0.0100342,0.0333617,-0.0225562,-0.0314325,-0.0258326,
-0.018606,-0.0120192,0.0162723,0.0335185,-0.00971335,0.00347964,0.030356,-0.013172,0.0138027,-0.00303583,
-0.0109358,-0.0160792,0.00907671,0.0153292,-0.0410987,-0.00985054,0.0315023,0.000396485,-0.0319045,0.0261244,
-0.00772062,-0.00330734,0.00940092,-0.00877109,0.0111626,-0.00852345,-0.0234582,-0.00537062,0.0135633,-0.00153782,
9.54253e-05,-0.00994491,0.0211097,-0.0193465,-0.0323103,-0.0520066,0.0830883,0.0185667,-0.0400822,-0.00783288,
-0.0271977,-0.0115136,-0.0411477,-0.00106237,-0.0228993,-0.0193815,0.0457148,-0.0204036,-0.0251771,-0.00727145,
-0.0194443,0.0190611,-0.0226635,-0.00316791,-0.0451372,-0.0157926,0.0734481,0.00127702,-0.000618379,-0.0119234,
-0.0110526,-0.0188105,0.0231586,0.00115078,0.00816545,0.0122746,-0.0208818,0.0104908,-0.0221434,-0.025733,
-0.0370018,0.000174792,0.0239366,0.0380907,-0.0293925,-0.00459113,0.0348842,0.0262963,-0.0105618,-0.0157965,
-0.00157194,0.00407027,-0.0125203,0.0326389,0.00229277,-0.0226349,0.0702938,-0.0251504,-0.00731809,0.0309303,
-0.00509052,-0.0245859,-0.0141893,0.00485288,0.0219964,0.0178597,0.019407,0.0338847,0.00235096,0.00540896,
-0.00510369,0.0200882,0.0263391,-0.00587806,0.0028418,-0.0089425,-0.00138707,0.0284235,-0.0211597,-0.00587089,
-0.049151,-0.0131995,-0.0352817,-0.0117943,-0.0500882,-0.0211407,0.102607,0.0271395,-0.0146677,-0.0184026,
-0.0146054,-0.0177096,-0.00742069,0.01448,0.00266818,-0.0172694,0.0115155,-0.034963,0.0078308,-0.00485003,
0.0177588,-0.0055065,0.00586016,-0.0239487,0.0254953,0.00658523,0.00176111,-0.000786927,0.00799012,-0.0343899,
-0.0222322,-0.0103237,0.00489447,0.00752056,0.00404915,-0.0399428,-0.0207433,0.00682193,0.00325644,-0.0164099,
-0.0301795,-0.040414,0.0276476,0.0177729,-0.0116186,0.00115137,0.0111718,0.0178565,0.00114458,0.0461441,
0.0331966,0.0289895,0.0203447,0.05196,0.00371725,-0.0108279,0.0604542,-0.0204342,-0.0240128,-0.0218724,
-0.0142424,0.016847,-0.00677089,-0.0144351,0.00487658,-0.0324517,0.0505881,-0.0149514,-0.00281975,0.0105223,
-0.0184606,0.0157844,-0.0114907,0.000443309,-0.0406238,-0.00152176,0.0139507,0.00247945,-0.0015395,-0.0223194,
0.0231347,0.0210991,-0.0328083,0.00923457,-0.0206838,-0.0136767,0.0685997,0.0170869,-0.0246609,-0.00737415,
0.00978726,-0.000134207,0.00634647,0.0165549,0.00968753,0.0106713,0.0560724,0.0122372,-0.0134134,0.0203751,
-0.00808566,0.00215779,-0.0289862,0.0476281,0.00608906,-0.0102565,0.054428,0.00300676,0.00118427,-0.0187234,
0.00758348,-0.0100695,-0.00816341,-0.0267989,-0.00221874,0.0108845,0.0074826,-0.00880476,-0.0104709,0.0047995,
0.012175,-0.0416817,0.0209163,-0.0235908,-0.0323342,-0.0212729,0.0290326,0.00669902,-0.0529306,0.00651886,
0.000797804,-0.015735,-0.00703853,0.0407772,-0.0190898,-0.0519353,0.0654481,0.00981377,-0.00809969,0.0227534,
0.023821,7.21863e-05,0.0144034,-0.0166525,-0.00862997,-0.0298127,0.0105942,-0.0100575,0.00599903,0.00644508,
0.0137358,0.0124713,-0.00479362,-0.000534519,-0.00813641,0.00866097,-0.00869436,-0.0244497,-0.00551181,-0.0262095,
-0.00686612,-0.0113244,0.0292129,0.0203747,-0.0266173,-0.0202388,0.0390079,0.0256048,0.0342961,0.0103898,
0.017967,0.01113,-0.0013821,0.0388425,-0.0258805,0.00599536,0.0212966,-0.00229185,-0.00962162,-0.0138596,
-0.00492541,-0.0279573,0.00571903,-0.00139161,0.0104875,-0.0128387,0.0237247,-0.0350459,0.0101827,0.0101365,
0.00564554,-0.0189631,0.0283036,-0.00458458,-0.0087532,0.016242,-0.00676,-0.0108912,-0.0164289,0.0326259,
0.00458814,0.0240497,0.0192642,-0.00171061,0.00239982,-0.00805864,-0.017558,-0.0130089,0.0130654,0.0109232,
-0.0193677,0.0338002,0.00530866,-0.0452673,0.0133557,-0.0088396,0.00741679,-0.00705424,0.00685801,0.0376888,
-0.0151533,-0.016675,0.0132004,-0.00914078,0.0178191,-0.0257817,0.00758078,-0.0459672,-0.0367541,-0.0215448,
0.00957699,0.0200359,-0.0170939,0.00221857,0.00703337,0.0082941,0.0196183,0.00761991,0.00668311,0.0195578,
-0.0361735,-0.0112017,0.00611028,0.0244634,-0.00056274,0.00134697,-0.0191413,-0.00810697,0.00324545,0.00712058,
0.00256604,0.018041,-0.0139744,0.00123285,0.0149956,-0.00767328,-0.0292683,0.0110607,0.0128689,-0.00857777,
0.0170927,9.33803e-05,-0.0255419,0.0235267,-0.00704187,-0.00582609,-0.000236786,-0.0227959,-0.0198082,0.0154166,
0.00468633,0.00827749,-0.040534,-0.0255334,0.00871109,-0.0154694,-0.0296552,-0.0335461,-0.0462376,-0.00741097,
-0.0253948,-0.00394356,0.0147733,-0.0168253,0.00879283,0.00504152,0.0197284,-0.022024,-0.0169154,0.0164625,
-0.0388937,-0.0214928,-0.0279965,0.0125642,-0.00588227,0.0142309,0.028079,-0.0104446,0.00232314,0.0467953,
0.00239761,0.0384055,0.00434245,-0.00696969,-0.0214924,0.0431162,0.0103646,0.0430947,-0.00648255,-0.0336008,
0.00360086,-0.00712979,0.0204401,-0.0136145,-0.0265837,-0.0121904,-0.0335499,0.000939285,0.00749603,-0.0232069,
-0.00230471,0.014423,0.0151208,-0.00691348,0.0258441,0.00913135,0.00476123,0.00316668,0.000383238,-0.00965288,
0.00498861,0.0611144,-0.00422372,0.0348521,-0.0208815,0.017784,0.00216902,0.00471786,-0.0107647,-0.0325603,
0.0119525,0.0106727,0.01553,-0.0177001,0.00129676,-0.0060106,0.01433,-0.00733693,-0.00682111,-0.00153898,
0.00699021,-0.00749615,-0.00457269,0.000415212,0.00901449,0.0102595,0.000996191,0.0142335,-0.00593917,-0.0205741,
0.000133591,0.0128389,-0.0154095,0.0226865,-0.0239318,0.0260526,-0.00882337,0.030508,-0.0319665,0.0232456,
0.00214527,0.0151768,-0.00333403,0.0323823,-3.04936e-05,0.00547054,0.00244156,-0.00149843,0.0347795,-0.00663506,
0.00498207,-0.0246808,0.0209934,0.0314985,-0.00740041,0.0106001,-0.0150999,-0.047857,0.0277255,-0.0216119,
0.0101036,-0.0207187,0.0204923,-0.00181806,-0.020033,-0.020538,-0.00224119,-0.02541,0.0135926,-0.0133515,
-0.00912281,-0.0455581,0.00311603,-0.0104959,0.0101765,0.0417948,0.0194877,0.0366783,-0.0259083,-0.0375017,
-0.0325477,-0.0134463,-0.000935744,0.000456167,0.00132336,0.000132551,0.0321503,-0.00965544,-0.0138303,0.0152453,
-0.00343563,-0.0217808,-0.00728007,-0.000280219,-0.000588705,-0.00547965,0.0122598,-0.0475401,-0.0256201,-0.0198838,
-0.0151469,0.0241961,-0.0241048,0.0077994,0.00319624,0.00533172,0.0273333,0.00149633,-0.0134057,0.013789,
-0.00881889,-0.00203625,-0.0138673,0.0042563,-0.00128397,0.0172712,-0.00347258,-0.0114838,0.00165287,0.0129313,
0.0118067,-0.031393,0.0204133,-0.0179711,-0.00948883,0.00629206,-0.0273236,-0.000548138,-0.0221418,-0.00964326,
0.0342156,-0.0318705,0.0137553,-0.00506443,0.0242555,-0.0209956,0.0141842,-0.0548468,0.000508521,-0.00820316,
0.00630955,-0.0118559,0.0165239,0.0170284,0.0191265,0.0063393,0.0127753,0.0262699,-0.00303599,0.00370551,
-0.0141282,0.0057053,0.00863538,-0.00416789,0.0132186,0.0479164,-0.0297497,0.0348332,0.00139196,0.0102598,
-0.00168689,0.0116938,-0.0238835,-0.0257673,0.0307566,0.0131529,-0.00561991,-0.0161803,0.0160881,0.0115636,
-0.0168038,0.0345394,7.26274e-05,-0.0139018,0.0249749,-0.027971,-0.004812,-0.00363064,0.00956758,0.0239355,
-0.00395371,0.0070374,-0.0165359,-0.00318335,-0.00624618,-0.010443,-0.0152866,-0.0179049,0.00777073,0.00487697,
-0.0136517,0.0400479,0.00903822,0.0222328,0.0333737,0.0121687,0.00086935,0.0260326,0.0236756,-0.0337168,
0.0144206,-0.0561423,-0.020658,0.0112665,-0.00664259,-0.0124234,0.0246011,0.00422585,-0.00402803,0.0400616,
0.0200929,-0.0389038,-0.00171548,0.00340098,-0.0202153,-0.0220087,0.0230695,-0.0218394,-0.00872326,-0.00985074,
0.00581376,-0.0128431,0.0114515,0.00166704,-0.00595335,-0.00259624,0.00430738,-0.0436286,-0.0186815,0.00175349,
0.0302532,-0.00706675,-0.0180638,-0.000660257,-0.00558748,0.00710692,0.0465497,-0.000807448,-0.0206764,-0.0173132,
-0.00731218,-0.0362446,0.0155059,0.00673614,0.000786112,-0.00233257,0.0104583,-0.000584812,0.00917099,0.049899,
0.00624936,-0.0162604,0.00994936,-0.0291221,0.0202995,0.00431563,-0.0070251,-0.0138787,0.0331117,0.0174798,
-0.0274257,0.035184,-0.0142462,-0.0130746,0.00073719,0.00520524,-0.0103331,0.0018885,0.0263811,-0.0259622,
0.0274836,0.00258883,-0.00195684,0.0211567,-0.0176508,0.00640845,0.0154564,0.0239076,0.00798033,0.00769984,
0.00408157,0.00367117,0.000372098,0.00269326,0.00861737,-0.00199422,0.00600166,0.0159312,-0.0274056,0.0178288,
-0.00760766,-0.00383135,-0.000801647,-0.0113173,0.0167437,-0.00771044,0.0032685,0.00769234,0.0102819,0.0244699,
-0.02244,0.0246353,-0.0227796,-0.0274214,0.047118,0.0247251,0.0323269,0.00693627,-0.0242288,-0.010547,
-0.00758378,-0.0138946,0.0151024,-0.0263124,-0.015389,-0.0283303,-0.0182826,-0.0150674,-0.0346493,-0.0337937,
0.0167324,0.00334837,-0.0227616,-0.013713,0.00362692,-0.0318614,0.0298144,0.0171997,0.0266295,0.0167805,
0.0419764,0.0158052,-0.0171524,0.0349088,-0.032657,0.0256087,0.00513712,-0.00264101,0.00856038,-0.0016955,
-0.0274717,0.0210918,0.0171713,-0.002636,-0.0365891,0.0145993,-0.00318925,0.0315022,0.0321006,0.0193997,
0.0168767,-0.0340935,0.00604272,0.00455674,0.0208387,-0.00466706,0.00548998,0.00470346,0.0117092,0.061184,
0.0324461,0.00370572,-0.0113147,0.0184711,-0.0449436,-0.00839319,-0.00303513,-0.00905279,0.00719208,0.00900925,
0.00901042,-0.0144754,0.0334337,-0.00806509,0.000896012,-0.00542376,0.00893728,0.0134756,0.0144196,0.0155983,
0.00171422,9.54128e-06,-0.00756249,0.0249892,-0.0229654,-0.0112584,0.00919086,0.0235527,0.0159215,0.00380124,
-0.0229092,-0.0113993,-0.0204423,-0.00403692,0.0398154,-0.00278797,-0.0264241,-0.00532662,0.0117948,-0.021303,
0.0107133,-0.0293091,0.0303961,0.0196714,-0.00846971,-0.0238063,-0.036089,-0.0290846,0.00964865,0.0376369,
-0.01962,-0.0146955,0.0292381,0.0333082,-0.00264563,0.0358601,0.0246666,0.00892072,-0.00746519,-0.0234822,
-0.00519857,0.0046117,-0.0225636,-0.00799794,-0.0388135,-0.00926061,0.00285329,-0.0266839,-0.0213135,0.00263916,
0.0274892,0.0144061,0.0125362,-0.0219332,-0.00436902,-0.0265928,0.00857726,0.00405449,0.0145666,-0.0109605,
-0.000224806,0.0278222,-0.0324894,0.00686338,0.0242149,-0.0179521,0.0154088,0.00057079,0.00564535,0.00435139,
-0.0245229,-0.010815,-0.0299292,-0.0167094,0.0113312,-0.0177389,0.0135604,-0.00827212,0.0096669,0.0309264,
-0.0177972,0.00927136,-0.00651504,0.00125227,-0.0271636,-0.015726,0.0288864,-0.00915916,-0.00971007,0.0264599,
0.00506451,-0.0250865,0.038731,-0.016245,-0.00346964,-0.0022688,0.0259065,-0.0031141,-0.00105622,0.0280573,
-0.032398,-0.0149253,0.00453493,-0.00484242,0.0374,-0.019216,0.00691402,0.00848966,-0.0216774,-0.0122291,
-0.0215095,0.015609,0.00367291,0.00628577,0.0194708,0.01397,0.00648842,-0.0170425,0.0298891,-0.0165412,
0.00349963,-0.0105376,0.0200214,-0.056157,-0.0173086,-0.0154194,0.0334826,0.0214597,-0.0123607,0.0116098,
0.00560749,0.0166409,0.0284969,0.0208996,0.0322879,-0.00815115,0.00138152,0.00289995,-0.0213086,0.0158286,
0.0236988,-0.0109347,0.00395863,-0.0130426,0.0183659,-0.0029776,-0.0107651,-0.00517503,0.00424994,0.048338,
-0.0187522,-0.0234474,0.00860662,-0.00418602,-0.00146634,-0.0138667,0.00178468,-0.0206029,0.0242337,-0.000682518,
0.014207,0.00859243,-0.0202304,-0.000101394,0.00622184,0.0194316,0.00061675,0.00749162,-0.0267158,0.0150314,
-0.0162509,-0.0133234,0.00628202,0.0128133,0.00455605,0.009141,-0.0121752,0.000628228,-0.00708457,-0.0185809,
0.00458357,-0.026703,0.0083898,0.00159014,0.0361814,0.00380153,-0.00525479,-0.0259413,0.0470736,0.00812181,
-0.0128239,-0.0140562,-0.0124072,-0.0137568,0.0103355,0.00942123,-0.0588403,-0.00078708,0.0123002,-0.00698464,
0.0645193,0.016532,-0.0196753,-0.0403102,0.00601853,-0.0122118,0.00402053,0.0130633,0.0181647,0.00373229,
-0.00156255,-0.0175573,-0.0120776,-0.00921692,-0.0132173,-0.00248192,-0.00189481,-0.00483701,0.00270784,0.0139024,
-0.0046177,-0.0173767,0.000365949,0.00839277,-0.0100062,0.00829257,0.000550752,-0.0164077,-0.0132962,0.00736206,
0.00452646,-0.00121268,0.0479513,-0.0169412,0.00565161,-0.0024416,0.0384675,0.0132431,-0.0250058,-0.00564552,
-0.00281115,-0.00570217,0.00230371,-0.0082067,0.00933637,0.0607492,0.0512562,0.00185039,0.0143438,-0.0499761,
0.038404,-0.0144205,0.0334299,0.00550098,0.0219027,0.0134853,0.0237063,-0.00755842,0.00971028,-0.0375776,
-0.0193719,0.0127312,-0.0240596,-0.018331,0.00869403,-0.0328813,0.0190173,-0.0312088,0.0196312,0.0412943,
0.00746277,-0.0425264,-0.0386837,-0.00350703,-0.0131965,0.00433665,-0.00937248,-0.00635184,-0.00996894,0.000999757,
-0.0115522,0.0204516,-0.00907117,-0.0148593,0.00492118,-0.0115781,0.00665546,-0.00777926,-0.00640529,0.00463205,
0.0198893,-0.0182884,-0.0289283,-0.00604025,0.0259138,-0.037348,-0.00306107,-0.0123767,0.0228958,0.0127697,
0.00729862,0.0295718,0.010888,0.0111046,-0.0147223,-0.0333696,0.0214048,-0.0039804,0.0336643,-0.0272793,
0.0272394,0.0439143,-0.00793191,-0.0078762,0.0207904,-0.00492432,0.00781985,0.0163212,-0.00245664,0.00248392,
0.00758676,0.0347879,0.018401,0.0114585,0.00740336,-0.0250649,0.00245971,-0.00124104,0.0405877,0.0300112,
-0.00206691,0.00593649,0.0495848,-0.0110483,0.0148355,-0.00949301,0.0192727,-0.0134896,-0.00112889,-0.0387096,
0.0255973,-0.0250978,0.0238329,0.00840509,0.00857923,0.0224327,-0.000290927,0.0137362,-0.0238471,-0.0105656,
0.0309871,0.0131879,0.0132121,-0.0176971,0.0272004,-0.0100523,0.00925169,-0.0236198,-0.0148907,0.0209904,
0.00496708,-0.0216868,0.00453192,-0.012269,-0.0361084,0.0121683,-0.0306239,0.00153129,-0.0199336,0.0185702,
-0.00959727,0.016294,-0.0153945,0.0124171,-0.00901415,-0.00874793,-0.0377642,0.00328538,-0.0354507,-0.0197728,
-0.00955107,-0.0111671,-0.00264658,0.00268258,0.0235188,-0.00471597,0.0140504,-0.0238273,0.0301238,-0.0148844,
-0.0240115,-0.00716697,0.0330484,-0.00539337,0.00420706,0.0128089,0.0163403,-0.0111563,-0.00277826,0.0172322,
-0.023289,-0.0109927,-0.0208219,-0.00726267,-0.0247605,0.00755718,-0.0158335,-0.0211983,0.0092764,-0.0137484,
-0.0354191,-0.00406737,0.0628897,0.0191656,-0.00219519,-0.0321809,-0.0123881,-0.00543982,-0.0232265,-0.000763458,
-0.0431246,-0.0231804,0.0129398,0.0125231,0.00272619,-0.0152122,0.00566363,0.017342,-0.0104271,-0.021745,
-0.0030205,0.00302406,-0.000846186,-0.0111507,-0.0386946,-0.00383658,0.00425697,-0.00357492,0.0368015,-0.00588528,
-0.0159619,0.00440712,0.000321634,-0.012931,-0.0234479,0.000121876,-0.0104831,-0.0146893,-0.0120857,0.0287713,
0.0182006,0.0252198,0.0153406,0.00966209,0.0274823,-0.0109465,0.0510509,-0.0128787,0.00303171,-0.010478,
-0.0190031,0.00439549,0.0100535,-0.029405,0.0078292,-0.0223391,0.0243605,-0.0191091,-0.0203474,0.0344916,
-0.0148857,0.0187658,-0.0033482,-0.0121793,-0.0164389,0.00543627,-0.016378,0.00632121,0.00232639,0.0176639,
0.00117478,-0.0256567,-0.0271944,-0.00740504,0.0366217,0.0176684,-0.0359437,-0.0107611,0.0544365,0.0276428,
-0.0373625,0.000384189,0.0527102,0.0253634,-0.0225346,-0.0236124,-0.00068676,0.00405513,-0.0326825,-0.022511,
-0.0279429,0.00885418,0.0195061,0.0228337,-0.0292235,-0.0216254,-0.0112267,-0.00860776,0.00962801,-0.0199314,
0.00233005,0.0249242,0.0380748,-0.0107998,0.00143001,-0.0121886,0.0113296,-0.00279131,-0.0265065,-0.00676006,
-0.0190159,0.0232212,0.00178548,0.02598,0.0309831,-0.00744095,-0.0205434,0.00102154,-0.00684073,-0.00742806,
-0.0260529,-0.00662619,-0.0095437,-0.00077794,0.0469546,-0.0063957,0.0413499,0.0096006,-0.0340664,-0.0188299,
-0.0513802,-0.0162313,0.0537866,0.0256532,0.0154655,-0.0231105,-0.0175702,0.0234821,-0.021471,0.0220492,
-0.0209155,0.0135607,0.0119457,-0.00551747,-0.0353141,-0.00272177,0.00634377,-0.0290897,-0.0299126,-0.0336011,
0.00532354,0.00897219,-0.0207123,0.018699,0.005513,0.0152857,0.000759359,0.00295984,0.00497835,0.0340084,
-0.0165034,0.0363244,0.0743586,0.0341372,0.0205188,0.00673541,0.00955749,0.00319709,-0.0483636,0.00115914,
-0.0254231,-0.00126163,-0.0023309,0.015747,-0.0162396,-0.0246779,-0.00418198,-0.019245,-0.0183406,0.0129303,
-0.0370515,-0.011376,-0.0329187,-0.0374631,-0.0020437,-0.00434702,0.0168952,-0.0267798,-0.0433747,-0.00585464,
0.0242319,-0.0113089,0.0664812,-0.014405,0.00551575,-0.0452851,0.0119838,0.0137449,-0.0154223,-0.00279623,
-0.00462546,0.00683627,0.000634732,-0.0206154,0.0322794,-0.0282652,-0.0247877,-0.00300497,-0.0294737,-0.0246792,
0.00508195,0.00155436,0.0284028,0.0312857,0.0267178,-0.0129981,-0.00695355,0.0375768,-0.00517696,0.000591516,
0.00304293,0.030585,-0.00421395,-0.0185566,0.0129825,-0.0356112,-0.0461474,-0.0209284,-0.0107533,-0.0136007,
0.0211089,0.0305447,0.0112649,-0.0017497,0.0170543,-0.00305098,-0.0158578,0.0371081,-0.0363761,-0.0204335,
-0.0134323,-0.00755303,0.050861,0.0321458,0.0317328,-0.0226209,0.0112374,0.00612412,-0.0587591,-0.0336712,
-0.0100062,0.00785453,0.022894,0.00247052,-0.0112643,-0.0010991,-0.0206961,-0.0189837,0.00601776,-0.0573405,
-0.0165515,-0.0103463,0.0720464,0.0387842,0.000212777,-0.0175102,-0.000153053,0.0133654,-0.0292888,-0.0212136,
0.00154615,-0.033339,-0.0187548,-0.0188022,-0.00113523,0.0203766,-0.0113468,0.0129217,-0.0106837,0.0303792,
-0.0123284,-0.00569987,0.050488,-0.0127844,0.0397316,0.00194395,-0.0021,-0.00984118,0.0121947,-0.0151525,
-0.0496268,0.0115637,0.0715247,0.00725316,0.0241794,0.0112002,0.00661067,-0.0378067,-0.0410534,-0.0206162,
0.0102284,0.0101769,0.0631406,0.0169482,-0.0185928,-0.0357731,0.0721507,-0.0494004,-0.043818,-0.0242593,
-0.0325392,-0.00857517,-0.0100204,0.00402376,0.00663118,0.0164956,-0.0116165,-0.0309372,0.0161792,0.00998759,
-0.0245648,0.00382433,0.115198,0.0338099,-0.0456522,-0.0469374,-0.0357068,-0.0395016,-0.00479573,-0.0293374,
-0.0241106,0.00215401,0.053821,0.0281176,-0.0172118,-0.019842,0.0247981,-0.00150391,-0.0252289,-0.00418342,
-0.00779921,-0.0231697,-0.0133912,0.00689222,0.000108124,0.00829266,-0.0285632,0.00421067,-0.0051241,0.00576995,
-0.0560248,-0.0240979,0.0584864,0.0292388,-0.0589578,-0.0256667,0.0155916,-0.0128434,-0.035581,0.0325435,
-0.00662052,-0.0121484,0.0297877,0.0190766,-0.0190537,0.0183869,-0.00901616,-0.00401388,0.0202127,0.0231259,
0.0244501,-0.0138058,0.0266181,0.00014897,-0.00259101,-0.0134242,-0.0283902,-0.0349299,-0.0177008,-0.0198868,
-0.0447525,0.00190834,0.00880543,0.0311341,0.0372693,-0.00626602,-0.00881806,0.00443284,-0.0321253,0.0022266,
-0.0107513,0.0121007,0.0209369,-0.00371814,0.00354266,-0.00722529,0.018677,0.0204938,-0.0115656,-0.00918885,
-0.0234186,0.0288116,0.0559871,0.00237499,-0.051892,-0.0192387,0.0550519,-0.00417842,-0.0103245,-0.045648,
-0.012078,-0.00811008,0.0538759,-0.00600829,-0.0097382,-0.038633,-0.0268742,-0.0328286,0.00395565,-0.02228,
-0.0215921,-0.00368536,0.0534566,0.0244679,-0.0183871,-0.0454033,-0.0291855,0.00611289,-0.00469819,-0.0104869,
-0.00177659,-0.000890796,-0.00761248,0.00267298,0.0442074,0.00790125,-0.020347,0.00299848,0.0157056,-0.0241795,
0.0306522,0.019107,0.0150402,-0.0145598,0.0110217,-0.0246049,0.0135306,-0.00734003,-0.000731922,0.0105484,
-0.0258351,0.0266285,0.0875595,0.0514746,-0.0479684,-0.0192518,0.0120598,-0.0149551,-0.0312703,-0.00383948,
0.0131259,-0.00375624,0.0132744,0.0536704,-0.0137428,-0.0450307,0.00148432,-0.00729377,0.00548083,-0.0319701,
-0.000799765,0.0110404,-0.0204506,0.0278084,0.0274727,-0.00483093,-0.0225094,0.0251119,0.0270046,-0.00911484,
0.0326034,0.019849,0.103896,0.00733768,-0.0601471,-0.0525165,0.0110566,-0.00453583,0.0413454,-0.0682736,
0.0316549,0.0228321,0.036219,0.00103049,-0.0413658,-0.0351317,0.0164863,-0.00155618,0.0033791,-0.0488107,
-0.00552222,-0.0353501,-0.0208118,-0.0266877,-0.00842295,0.0116542,-0.0447258,0.0217999,0.0388669,0.0396323,
-0.0197638,0.00403126,0.06646,0.0304338,-0.0674631,-0.0100155,0.0670825,-0.0183715,-0.0246427,-0.013975,
-0.0113151,0.0309237,0.0271722,-0.0257989,-0.00078396,0.0116893,0.0195696,0.0146681,0.00266663,0.000189641,
0.0116889,0.0176566,0.0504886,0.00138949,-0.00122254,-0.0155849,-0.0369536,-0.0155353,0.0259326,-0.0411334,
-0.0138172,0.00333964,0.0347007,0.00589015,-0.00312508,-0.0309307,-0.0294036,-0.0083325,0.0237381,-0.0399863,
0.00980679,0.0257658,0.0424563,0.0386766,-0.013012,-0.0381421,0.0264059,-0.0506185,0.00925752,-0.0308421,
0.0252578,0.00924537,0.10929,0.0335681,-0.0464158,-0.0113501,0.0189848,-0.0511787,-0.00971183,-0.0317654,
0.026278,0.0519083,0.0780577,0.037835,0.00409501,-0.0190792,-0.0312927,-0.0508507,0.0153679,-0.0575238,
0.0466402,0.000776089,0.0892254,-0.0157781,-0.0226493,0.000726185,-0.0119792,-0.00658831,0.0211235,-0.0643269,
-0.0250079,-0.0150178,0.0125248,-0.015712,-0.00104331,-0.00892309,0.0160002,0.0155189,0.0106957,0.00920826,
0.00191592,0.00659739,0.0694612,0.0117519,0.0112766,-0.0400998,0.0114947,-0.0116473,0.024173,-0.00313613,
0.0103779,0.0310551,0.139004,0.0475736,-0.0619304,0.00977974,-0.00319436,-0.0123872,-0.0172555,-0.0717864,
-0.0105283,0.00452444,-0.033346,0.000604813,-0.0171495,-0.0457383,0.0843304,-0.0263066,-0.0218737,-0.0796275,
-0.00439387,-0.00943354,0.0138359,0.0102204,0.0263572,-0.0021255,-0.0249093,-0.0102726,-0.00617438,-0.0187535,
0.0615619,0.0681934,0.105117,0.00388505,-0.0341739,-0.00520227,0.00768372,-0.0820816,0.0213231,-0.106383,
0.0126798,-0.0128236,-0.00205527,-0.00245554,-0.0331452,0.00411481,0.10089,-0.00182194,-0.0238159,-0.0644784,
0.0130513,-0.000211602,0.0161263,-0.0149392,0.0412309,0.00120854,0.0227661,0.0240285,-0.00380395,0.0111954,
0.00493309,0.0118247,0.0534969,0.0375938,-0.0422518,-0.00802841,0.0645894,-0.000618262,-0.0182608,-0.0136573,
0.0222729,0.0587679,0.00634643,-0.0163017,0.0299452,-0.0205125,-0.0544968,0.0285223,0.0157358,-0.0357267,
0.0309118,0.0241714,0.0424791,0.0220196,0.0113338,-0.0342441,-0.0845704,-0.00926257,0.0772277,-0.00207576,
0.0140173,0.0222248,0.0443563,-0.00419942,-0.00789211,-0.0264343,-0.0389543,0.0115711,0.0275259,-0.0377358,
0.0166351,-0.0041657,0.0135144,0.00817284,-0.0178653,-0.0264559,-0.0330009,-9.41257e-05,0.0340959,0.0270887,
0.0356181,0.0274652,0.024491,0.0173592,-0.0132452,-0.0206832,0.058639,-0.0474007,0.00331321,-0.062289,
0.0307427,0.00609753,0.0753682,-0.00273638,-0.0582762,-0.0253206,-0.0326551,-0.0199505,0.0383484,-0.0776916,
0.0805158,0.00163868,0.0759553,0.000731213,0.00241043,-0.0388771,-0.0498217,-0.0454954,0.0599352,-0.0770751,
-0.0322661,0.00197178,-0.0400053,0.011155,-0.0110545,0.0190494,-0.0234635,0.00622189,0.00239741,0.0125808,
0.0229655,-0.00329389,0.0362747,-0.000212936,0.00946267,-0.0148547,-0.0325106,-0.00665874,0.0241257,-0.0622546,
0.0281408,-0.0198118,0.0732018,0.0205803,-0.0560963,-0.0567236,0.0249096,-0.0657163,0.00822765,-0.0850889,
-0.0291772,0.0216852,-0.00261998,0.00521835,0.0224433,-0.0346288,0.0958952,-0.029335,-0.00384577,-0.0336265,
-0.0294656,0.00895391,-0.0218967,-0.00756122,0.0304229,-0.0180993,-0.00804141,-0.0029152,0.00282731,0.0128022,
0.025284,0.0433434,0.0632441,-0.0158213,-0.042367,-0.00461502,0.127612,-0.070183,0.0566106,-0.109489,
0.0166422,0.0168455,-0.0133497,-0.00588749,-0.00394444,-0.0219024,0.108143,-0.0419992,-0.0328891,-0.0142072,
-0.0239097,-0.00517128,-0.0223171,0.000575474,0.0279577,-0.00854036,-0.0497165,0.0137557,-0.0364494,0.00234166,
-0.0407504,-0.0168132,0.00855194,0.0456914,-0.0222113,-0.0216223,0.160865,-0.00977972,-0.0219271,-0.01559,
0.00526839,0.0384173,-0.00738785,0.0358844,-0.0310645,-0.0313449,-0.000749951,0.00204796,-0.0153458,0.0109858,
-0.0170354,0.030843,0.0394599,-0.023866,-0.0161509,-0.00567387,0.0121393,-0.0677569,0.0413818,-0.0153856,
0.0464358,-0.0475888,0.0320262,0.0100348,0.0459454,-0.0132744,0.00530067,-0.0574802,0.00540656,-0.0535015,
-0.00508417,0.0361323,-0.0117755,-0.0099137,0.0106189,-0.0212473,0.0308274,0.000571443,0.0300289,-0.0153291,
-0.0137506,-0.00940182,0.0156468,-0.0326435,7.75455e-05,-0.00246857,0.165132,-0.0254478,0.0316524,-0.10482,
0.0196732,0.011831,0.0255285,-0.00899628,-0.0654094,0.0167269,0.06703,-0.0205133,0.0460333,-0.0504856,
-0.00605659,0.00858341,0.0620567,-0.0234621,0.0023846,0.0176354,0.00230398,-0.0429151,0.0817475,-0.0498091,
0.0110044,-7.51641e-05,-0.0300594,-0.00858127,-0.00132167,0.00596181,-0.0308214,0.0151354,0.0173281,0.00143749,
0.0312246,0.0383345,0.0323594,0.0226374,-0.00359688,0.00195758,0.00203122,-0.0236906,-0.00421044,-0.0584221,
-0.0101637,0.00112099,0.0482147,0.0263514,-0.0375818,0.0298315,0.114791,-0.0397089,0.0278895,-0.0616109,
-0.0269658,0.0379398,0.00388274,-0.0173198,0.0569503,0.00285685,0.050559,-0.00306278,-0.040735,0.00236691,
0.0166038,-0.00557171,-0.0118412,0.00929552,-0.00081593,-0.0258077,-0.0186796,-0.0280334,-0.00550716,-0.0147127,
0.0520318,0.0583391,0.0284789,-0.101856,0.00795169,0.0126241,0.0837019,-0.0411372,0.0477002,-0.0621875,
-0.00369461,-0.00880996,-0.0275184,-0.0281193,-0.0163872,-0.0517836,0.0449234,-0.0334108,0.0229016,-0.0143017,
-0.00396098,0.0238322,0.0191154,-0.0050327,0.00762897,-0.0224771,0.00802691,-0.0154938,-0.00287678,0.0277878,
-0.0701463,0.00468345,-0.00328664,0.0204137,0.00689437,-0.0210777,0.123183,-0.0103755,-0.0544461,-0.0713391,
-0.0100829,0.0283948,-0.0186032,0.0222821,-0.00609209,0.0187426,-0.00182596,-0.00709715,0.0195412,-0.0348469,
0.0167255,0.0222853,0.0151021,-0.0416624,-0.00183325,0.034252,0.0292188,-0.0465478,0.0522192,-0.0242801,
-0.00688098,0.00966481,0.042364,0.0163463,0.047951,-0.013644,0.022421,-0.0362774,0.0378886,-0.0451467,
0.02923,0.0163007,0.0245226,-0.0105834,0.0164392,-0.00232466,0.00331589,0.00485266,-0.0206756,-0.0221617,
-0.0198179,0.0469307,0.0321196,-0.0730233,0.0140588,0.0251119,0.100082,-0.0267269,0.00157289,-0.0530681,
0.00601413,0.0203972,-0.00878337,-0.0534728,0.0207859,0.000932984,0.0663836,-0.0186744,0.033633,-0.0492054,
0.00596401,-0.0023009,0.0414291,0.00234021,0.0333786,0.0315933,0.0280967,-0.0548835,0.0178499,-0.0449915,
0.0236065,-0.0473813,-0.0376946,-0.0026286,-0.0156486,0.0449606,0.039542,0.0186767,-0.00781511,-0.00190054,
0.00963084,0.0158162,0.028041,-0.0279083,-0.0343573,0.0238092,-0.0118811,-0.0507032,0.0151914,-0.0310093,
-0.0109324,0.0270724,-0.0105295,-0.0485729,-0.0159522,0.00357824,0.110868,-0.0118556,0.00894237,-0.049697,
0.0140812,-0.00755164,-0.0214495,-1.90855e-05,-0.00415598,-0.00537749,-0.001265,0.00302635,0.0098608,-0.0312198,
0.00089134,0.0324563,-0.0219146,-0.019002,0.0230525,0.00442093,-0.0335474,-0.0175015,0.0402205,-0.0155987,
0.0446486,0.041029,-0.00626551,-0.114144,0.0318244,0.0469229,0.028972,-0.0370972,-0.0181347,-0.100113,
-0.0218892,0.037558,0.0223459,-0.0304986,0.0366151,-0.0112162,0.00684992,-0.0166101,0.0260233,0.00955952,
0.0128662,0.0165053,-0.0314311,0.0134488,0.00882616,-0.000958172,-0.00336982,0.0144207,-0.00609123,0.00381453,
0.00576982,-0.0340145,0.0118201,-0.0312135,0.00333249,0.0224177,0.0610974,0.0135218,0.000485717,-0.0219239,
-0.00299084,0.0431874,0.0146452,-0.0254619,-0.0216439,0.0646434,0.00905862,0.0285411,-0.01122,0.0458873,
0.0154182,0.0342754,-0.0116488,-0.0561555,0.0470056,0.027289,0.050437,-0.0530413,0.0103021,-0.021905,
0.0160686,0.0106396,0.00918781,-0.0478419,0.0160774,0.0505636,0.0296907,-0.00586998,0.0335923,-0.0207473,
-0.012907,0.012297,-0.0306094,-0.0368826,0.0134071,0.0483517,0.0154374,-0.029728,-0.0149677,-0.0171495,
-0.0154186,0.0282161,-0.0159666,-0.0634244,0.0110804,0.0327021,0.0234782,0.0207554,-0.0306961,-0.0523283,
0.0228253,0.0477391,0.0248919,-0.0537019,0.0262505,0.0438217,0.0278539,0.0138784,-0.0202629,-0.0081156,
0.00553542,0.0536798,0.0292205,-0.0733431,0.0519827,0.0184713,-0.00623789,-0.0192736,-0.068777,-0.00484638,
0.0120588,0.0104161,0.0326702,0.0059709,0.0176116,-0.0229034,0.0149769,0.0122355,0.00555772,-0.0130038,
-0.00314745,0.00690974,0.00969131,-0.0825682,0.0120478,-0.0046611,0.049821,0.0115486,0.00159111,0.00141185,
0.00273189,0.0332186,0.0123779,-0.0905582,0.00103925,0.014997,0.0807915,-0.00348819,0.00634456,-0.042859,
-0.00577722,0.0147971,-0.0131368,-0.00671769,0.00619052,0.0151539,-0.0159223,0.00337589,0.0114003,-0.00941809,
0.00542626,-0.0118048,0.00596433,-0.021676,-0.0175755,-0.0203739,0.0245748,-0.0107508,0.00609675,0.00295694,
0.0071925,0.00751083,-0.0510595,-0.0459846,0.0241062,0.0470501,0.0207473,0.032142,0.0108783,-0.0488341,
0.0123569,0.0113575,0.0111228,0.000732203,0.0133698,-0.00972754,0.0282902,0.00807699,-0.00271299,-0.00877091,
-0.0102777,-0.000165191,0.00902498,0.0178931,0.0285215,0.009837,0.0286316,0.0266061,0.0122185,1.29734e-05,
0.0300168,-0.0141157,0.00190174,-0.00173973,-0.00336412,0.0243141,0.00578198,0.00475547,-0.00218751,-0.00827534,
0.00839882,0.0245619,0.0130138,0.000631083,0.0105829,0.0149232,0.0127104,0.0242535,-0.0147533,0.00818832,
0.00649609,0.0515312,-0.0154768,-0.0220563,0.00399046,0.0310147,0.0311014,0.00514153,-0.0430049,0.0142756,
0.0334317,0.0319713,0.00896865,-0.0485018,0.0412873,0.0130342,0.0255363,-0.00332047,0.00970355,-0.00807754,
-0.00777805,-0.0008629,0.0250761,0.0161038,0.0446794,0.000778377,0.0442468,0.0376137,0.0304496,-0.00430246,
-0.0356242,0.0304792,-0.0257293,-0.0125553,0.0258181,0.00795861,0.0175424,0.00203877,0.00365136,0.0167906,
-0.00578116,0.0106183,-0.00408875,-0.0291369,0.0258025,-0.0175754,-0.0172058,0.0152803,-0.0312269,-0.00411485,
-0.0263578,0.0153278,-0.0292565,-0.0333887,0.0536024,0.0158404,-0.0143317,0.00262172,-0.0246616,0.00908055,
-0.000766009,0.0239497,0.0242513,-0.0251384,0.0301889,-0.0146416,-0.00627362,0.0135146,-0.028745,0.0183431,
0.0108823,0.0399604,-0.0207212,-0.0332982,0.0118556,-0.00572632,0.0290749,0.0241667,-0.00102865,-0.0123638,
0.000985326,0.0306384,-0.0437165,-0.036634,0.0390064,0.0182598,-0.0235997,0.0164593,-0.0288017,-0.0232031,
-0.00726952,-0.0107227,-0.0015904,-0.012446,-0.0071127,-0.00281527,-0.029342,-0.00794674,-0.00568647,0.0324685,
-0.00472658,0.0124385,0.0129355,-0.0227303,0.00979986,0.00584487,-0.0111767,0.0380932,0.00785078,0.0136546,
0.0604654,-0.00695255,0.0339168,-0.0300414,0.0409484,0.0111478,0.00139675,0.00910559,-0.0201839,-0.035659,
-0.0282503,0.0157959,-0.00459747,0.0209354,-0.0264985,0.0137172,0.0182965,-0.0161638,0.0136279,0.0322772,
-0.0325695,-0.00384356,-0.0286345,0.0221636,0.0247593,-0.0249832,-0.0205644,0.00810862,-0.00803799,0.0136642,
0.0347699,0.0230598,-0.030894,-0.0657913,0.00612186,0.00868051,0.0178691,-0.0170875,0.00915074,-0.00193196,
4.47709e-05,0.0165274,-0.0112097,-0.0258351,-0.0102637,0.0245425,0.0227613,-0.0453108,0.0323202,-0.0105534,
-0.0147266,0.00729201,0.0142416,0.015903,-0.00203184,-0.0232183,0.0374029,0.0272874,-0.00948635,-0.0435482,
-0.0122069,-0.0136973,-0.0236624,-0.00809177,-0.00775743,0.0462107,-0.0241231,-0.00134164,-0.0141551,-0.0255053,
0.00620066,-0.0318226,0.00788645,-0.0129333,-0.0192751,-0.00935005,0.0245783,-0.0280423,0.000642081,-0.0284667,
-0.00210791,-0.00385512,-0.00948551,-0.0221027,0.0123807,-0.000351141,0.00670304,-0.0265862,-0.0374074,-0.00227695,
0.0113514,-0.00312209,-0.00301095,0.0163955,0.0255459,0.0150414,-0.0198583,0.00279072,0.0042961,0.0178697,
-0.0139537,0.0417455,0.026059,0.0139706,0.0315551,-0.0188955,0.0388435,0.0201308,0.020371,0.0429055,
0.00703402,-0.0220295,0.0229729,-0.0227296,-0.0240262,-0.0305726,0.0249947,0.00701258,-0.0506727,0.011874,
0.0248068,0.011899,-0.0067279,0.00736401,-0.0078057,0.0401538,0.000190668,0.00358302,0.00274915,-0.0140968,
-0.0168031,-0.0166113,0.0199971,0.0289744,0.0126916,0.00155387,-0.0209322,-0.00431182,-0.00106167,0.0271447,
-0.00798642,-0.0144041,0.00494276,0.000253738,-0.00860982,-0.0101543,0.000144585,0.00628439,-0.0109378,-0.00558894,
-0.0134123,0.0109748,0.00479446,-0.00796557,-0.00617647,-0.015682,0.0184651,0.013252,0.0091695,-0.0198701,
0.00145526,-0.0031438,0.0230606,0.0231134,-0.000631393,-0.00169865,-0.00891538,0.0302478,0.0186847,-0.0186919,
0.00230525,-0.0204463,0.00542639,-0.0209031,-0.00626902,-0.0139094,0.0406197,-0.0124985,-0.0262152,0.0315073,
0.00905452,0.012642,-0.0041018,0.0130416,-0.00337825,0.0118705,-0.0284628,-0.0220546,-0.011682,-0.0139491,
-0.0316598,-0.0224474,0.0165168,1.60334e-05,0.0041889,-0.0610091,0.0111579,-0.00788304,0.00488118,-0.00456805,
-0.0236427,0.044475,-0.0206555,0.017962,0.0185421,0.0102221,-0.000676507,0.00447529,-0.014915,0.0331382,
0.0189772,0.0227151,0.0342776,0.00398074,-0.0272763,-0.0110564,-0.0213971,-0.0317518,-0.0216388,-0.0270707,
0.0168617,-0.0395061,-0.00940905,0.0115387,0.0263692,0.01553,-0.0240982,-0.0181355,-0.0220017,-0.00527786,
-0.0193157,-0.0287488,-0.00360304,0.0264859,-0.00916824,-0.0254004,0.00573317,-0.0352596,-0.00581149,-0.0198376,
-0.00348273,-0.0178473,0.00570029,-0.0319679,0.0140884,-0.00865554,0.0108068,-0.034302,-0.00952796,0.0358285,
0.000484121,-0.0366468,-0.0270884,0.0207307,0.00540362,-0.0257482,-0.00435612,-0.00114787,-0.0121859,-0.00922157,
-0.0234924,-0.00293655,-0.00457866,0.0387459,0.00439343,-0.0109903,-0.00798938,0.0132991,-0.0236971,-0.00818447,
0.0174256,0.0374617,0.021808,-0.0340498,-0.0591638,-0.00937107,-0.0278839,-0.0136643,0.0295733,0.0163063,
0.0107661,-0.0110789,-0.0132708,-0.0363372,-0.00227918,-0.0109491,-0.0142394,-0.000827731,0.0158299,0.0320916,
-0.0146882,0.0163583,-0.0193604,0.00868973,0.0265384,-0.00505824,-0.019591,0.00533191,-0.0060752,0.00417024,
0.022755,-0.0556951,-0.0141093,0.00786902,-0.00993311,-0.0170077,-0.00675611,0.00673527,0.0103171,-0.00218082,
-0.0135093,-0.0210147,-0.0138835,-0.0133675,-0.0285837,-0.01066,-0.00617478,0.0104514,-0.012944,0.0175726,
0.0358903,0.00968699,0.0130338,0.00749613,0.0331999,-0.00168657,-0.00770311,-0.0337907,0.00410361,-0.0529762,
-0.0156971,0.000590268,0.00746804,0.00147454,0.0427034,0.0217719,0.0188453,0.00866871,0.0139363,0.0380417,
-0.0119301,-0.0465363,0.0136672,-0.0164911,0.00866842,0.0153772,-0.00196224,-0.0144324,0.0179381,0.00916117,
0.0255361,-0.0166972,0.0244082,-0.00049969,0.00929953,0.011075,0.0275303,-0.00321612,-0.00447609,0.0151351,
-0.0331158,-0.00409037,-0.0163929,0.0169219,0.0211003,-0.0223392,0.00378173,0.000726496,-0.0258789,-0.0118016,
0.0105338,-0.00216905,-0.000324752,0.0300725,-0.00977663,0.0158271,-0.00591218,-0.010288,0.0342941,0.00273682,
-0.0358836,0.00866474,-0.00722267,-0.0158731,0.00412189,-0.0293547,-0.0154062,-0.0159444,0.015066,-0.0318754,
-0.00300903,0.031752,0.0223104,-0.0071214,0.0360985,0.0226031,0.0173966,-0.00984816,-0.0188578,-0.00543778,
-0.0262199,-0.0374132,0.0283558,0.0146357,0.015864,0.0184494,-0.00472594,0.0358348,0.0181022,0.0369071,
0.00108483,-0.00940492,0.0135533,0.00952717,0.00293035,-0.019396,0.0138206,-0.00870494,-0.00345258,-0.00613533,
-0.0344223,-0.000750118,0.0096104,-0.0316628,0.00213162,-0.0239641,0.0124264,0.00534651,0.00622007,-0.0104099,
0.0458556,-0.00514305,-0.0341184,-0.02161,0.00528216,-0.0476229,-0.00104233,0.00871877,-0.0322307,-0.00542053,
-0.0221315,0.0298489,-0.0291881,0.0261289,-0.00840552,-0.0250532,0.00693926,0.0158549,0.0252377,-0.0145727,
-0.00908159,0.00793064,0.0384374,0.0118862,-0.0184086,-0.0214916,0.0113014,-0.00328466,-0.0128363,0.00237885,
-0.0303502,-0.02921,0.0318752,-0.000959719,-0.0147181,-0.00755037,0.0116824,-0.00377749,0.00444625,-0.0129948,
-0.027394,0.0239939,-0.0235167,-0.0234042,-0.000270732,-0.00946046,0.038766,-0.00188556,0.0138599,-0.00588348,
-0.0198571,-0.0310182,0.0418306,0.0867829,-0.0153039,-0.0507182,-0.00679228,0.0133832,-0.0216189,-0.0106194,
-0.0166437,0.00281162,0.0370549,0.0435703,-0.0461544,0.00548434,-0.0168268,-0.0229263,-0.0379972,-0.00230359,
0.0289809,0.0152434,-0.0210374,-0.00402759,-0.0239693,-0.00343731,-0.00742902,-0.00407745,-0.0009948,0.0337339,
0.00627113,-0.0193939,0.0398252,-0.0053096,0.0128028,-0.0234498,-0.00331667,-0.0206446,-0.00300072,-0.00881154,
0.00719537,-0.00186396,0.0283106,0.0273423,0.0250567,-0.0106204,-0.0121771,-0.0204616,-0.0175174,0.00829447,
-0.0420059,-0.00262194,0.0164067,0.0283467,0.0105319,0.00793954,0.00922301,0.0205054,-0.00965863,-0.0356641,
-0.0191692,0.0413647,0.0312917,-0.0163745,-0.0125291,-0.0239688,6.37636e-05,0.0221876,0.00297034,0.0170681,
0.0239672,-0.00105474,-0.01811,-0.0203378,-0.0199001,-0.0114337,-0.00379257,0.000475062,0.0244977,-0.0250925,
-0.03351,0.0143132,0.025801,0.064206,-0.000820436,-0.0428914,-0.000212466,0.0501723,-0.00827703,-0.0216496,
-0.023037,-0.00609586,0.0513014,0.0576628,-0.0199017,-0.0274355,-0.00609536,0.0403552,-0.0517198,-0.0150136,
-0.0135976,-0.0153754,0.0161634,0.0321839,0.0142228,0.0122789,0.0197584,-0.0018941,-0.0266146,-0.0288633,
-0.0246542,-0.00707444,-0.00695893,-0.00129869,-0.00351482,-0.023279,0.0327585,-0.0204269,-0.00696486,-0.0102926,
-0.0131258,-0.00686938,0.0135627,0.0417023,0.00649119,-0.0181731,0.0321794,0.0288994,-0.0111378,-0.0111663,
-0.0103132,-0.012467,0.0149284,0.0209294,-0.0251011,-0.0400183,-0.00451182,0.0301676,-0.017736,-0.0511336,
-0.00814638,-0.0137326,0.0180745,0.0273973,0.00666246,-0.0013518,-0.01634,0.00829313,-0.024551,-0.0257738,
-0.0209346,0.00816583,0.00123513,-0.0237202,0.0192542,0.0103514,0.0216348,-0.0164606,0.00744228,0.00082464,
-0.0389502,-0.00203927,0.0290166,0.0837951,-0.00122025,0.022142,-0.0475276,0.0494511,-0.0229648,-0.0311608,
-0.0804037,0.00658156,0.0476453,0.0354173,0.0100865,-0.0194123,0.0246394,0.0171419,-0.0529853,-0.0312146,
0.0352895,-0.000317174,-0.0169649,0.0118181,-0.0221459,-0.00639609,-0.0243979,-0.0256863,0.0260243,0.00826753,
-0.0340303,-0.00972471,0.0666362,0.0254789,0.00340477,-0.0301415,-0.00719905,-0.00676989,-0.0375227,-0.0359181,
-0.0197966,0.0260892,0.0141444,0.0453189,-0.0140552,-0.0136405,0.00426639,-0.016588,-0.0158372,-0.0224164,
0.0223002,-0.0190723,-0.00414237,0.0329126,-0.00116848,0.0300849,-0.0215054,0.00713371,-0.0180614,-0.0305743,
-0.012465,0.0199173,0.0108341,-0.00290341,-0.0127635,0.00128392,0.0153643,0.0376157,0.00795388,0.00115219,
-0.0200388,-0.0325285,0.000184374,0.0107415,0.0182489,0.00880842,-0.0219481,-0.0212066,-0.0397639,0.034117,
-0.0646456,-0.025248,0.0226331,0.0833758,0.015704,0.0544097,-0.0130988,0.0393522,-0.00767133,-0.0215507,
-0.0283247,-0.0481881,0.0668215,0.072045,0.0128809,0.0167982,-0.0130412,-0.00222129,-0.0423041,-0.00167495,
-0.0142037,-0.00731513,0.0114934,0.00957714,-0.0409607,0.00629979,-0.000690179,0.0304702,0.0041503,-0.019864,
-0.00962172,0.00177804,-0.0042925,0.00881492,0.00841012,-0.00904859,-0.0334227,0.0269833,-0.0182652,-0.0119728,
-0.0420427,0.00547237,0.0210631,-0.000830889,-0.0236334,-0.024784,-0.0434583,-0.000399348,-0.00731887,0.012121,
-0.0303947,-0.0129535,0.0459768,0.0742223,0.0355041,-0.0340295,0.0168705,0.0477863,-0.0588386,-0.0135714,
-0.0452249,-0.0689874,0.0234505,0.0274414,0.029615,0.0134815,0.0134855,-0.00692008,0.00993673,-0.00103786,
0.0344832,0.0219433,-0.00303844,-0.0338468,-0.0167011,-0.0269779,0.0130687,-0.0307865,0.00547312,-0.0195075,
-0.0146106,-0.0374443,0.0132307,0.105466,-0.0268591,-0.00486038,-0.024194,0.0173241,0.030342,-0.0359337,
-0.0163851,-0.00459362,0.0282152,0.0466618,0.0138224,-0.00054683,-0.0217118,-0.01295,-0.037375,-0.0669117,
0.0269817,0.00565713,-0.00792779,-0.00797368,-0.00382682,0.017022,0.0232568,-0.000630614,0.0303441,0.000218595,
0.0270866,-0.066701,0.0474104,0.10853,0.0162545,-0.0296496,-0.0364808,0.0749216,-0.0126364,-0.0378922,
-0.00622994,-0.0242677,-0.00585166,0.02264,0.0273173,-0.0295052,-0.0118061,0.0191923,-0.0247193,-0.023804,
-0.0305538,-0.0396835,0.00391326,0.0317681,-0.0143702,-0.00951512,0.0426209,-0.00362974,-0.00100113,-0.00835315,
-0.0102663,-0.0253173,0.0110505,0.0347221,0.0293257,0.0203509,-0.0162546,-0.0171818,0.0136935,-0.00549679,
0.00160708,-0.0788976,-0.0105485,0.0195293,-0.0275233,-0.00998678,0.0236965,-0.0338152,0.0352982,0.00295433,
-0.0405959,-0.0796017,0.0551919,0.101967,0.0181543,0.0253228,0.0115882,-0.00965555,0.00258439,-0.0258276,
-0.0249913,-0.0582824,0.0131988,0.070548,-0.0210111,0.00864763,-0.0216728,-0.00496553,-0.0220904,-0.00872156,
-0.00659769,0.00795496,0.0343535,0.0561218,-0.0484513,-0.0337369,-0.0258813,0.0124624,0.00695175,-0.0122073,
-0.00062986,0.0104882,-0.00159932,0.0161121,0.0181425,-0.00490301,0.0043008,0.0165764,-0.00780893,-0.0035301,
-0.0261859,-0.0181143,0.00277589,0.0284685,0.0496729,-0.00573786,0.00171518,0.0134406,-0.0113485,-0.0833037,
-0.0050067,-0.0602957,0.0471423,0.0724647,-0.00356859,-0.00533424,-0.0324974,0.0153043,-0.0229468,-0.043598,
-0.0202376,0.0308538,0.128172,0.0501169,0.00805377,-0.0552373,-0.0597432,-0.0409101,0.00781527,-0.0435056,
-0.0237474,0.0160527,0.0125053,-0.0352672,-0.000240455,-0.0102949,-0.0283389,0.0465762,0.0260415,-0.0066584,
-0.00830949,-0.0649719,0.0129958,0.0743098,-0.0697801,-0.0340083,-0.0323296,-0.0172833,0.0254974,-0.0311244,
-0.032265,-0.0219738,0.0462454,0.0620762,0.00643359,-0.0401413,0.0266086,-0.0410508,0.0174438,-0.0219973,
-0.000171589,-0.035022,-0.00758231,0.0146821,0.00238173,-0.00844986,-0.0105921,0.0055914,0.0244726,0.000901913,
-0.0135331,-0.0162671,0.0700294,0.123763,-0.0317112,-0.0728392,0.00290248,-0.03202,0.00558321,-0.00608397,
0.0334511,-0.00773209,0.00633511,0.0703978,0.000476563,0.0116657,0.00327068,0.00699081,-0.023601,-0.00872919,
0.0509125,-0.0272508,0.0188328,0.0269798,-0.0203501,-0.0016495,-0.0524948,-0.0115863,0.0222547,0.0268688,
-0.0247075,-0.0347513,0.0247175,0.0746492,-0.00587182,0.0134375,-0.0126542,0.00719018,-0.0182969,-0.0160968,
-0.0227635,0.00528951,-0.000426663,-0.00314486,-0.0147897,-0.0335289,-0.0213256,0.0100492,0.0266049,0.024508,
-0.00334547,-0.055678,0.0567632,0.0593246,-0.0785369,-0.0179823,-0.0537654,-0.0545323,0.0191098,-0.0221152,
-0.0108643,-0.0523017,0.0665173,0.0719933,-0.0608771,0.00172669,-0.0635683,-0.0128681,0.0368261,0.0345265,
-0.0149853,-0.0239683,0.0281983,0.0504175,-0.0283417,0.0184408,-0.00600665,0.0315603,0.0311466,0.0187165,
0.0261337,-0.00814568,-0.0283575,-0.00923535,0.0101917,0.00766265,-0.0373561,-0.0138748,-0.00302162,0.0129941,
-0.0130774,0.011383,0.007707,0.000293264,0.0471047,0.0136763,0.0166567,-0.0257371,-0.00884725,-0.0296097,
-0.0182292,-0.0431595,0.090442,0.0751703,-0.0452124,-0.00617706,-0.00686913,-0.0234376,0.00232103,0.0289909,
0.0391241,0.030075,0.0682373,-0.00143924,0.0026239,-0.0382895,-0.0580358,-0.0714909,0.039347,-0.00202119,
-0.0340489,-0.00778479,-0.00371692,-0.00288195,0.0339025,0.032765,-0.0426632,-0.00819683,-0.00833992,0.0302188,
0.0788662,-0.0720222,0.0766649,0.00091833,-0.109618,-0.0589055,-0.0472994,-0.054289,0.0666627,0.159937,
0.0466553,-0.0206136,0.0643963,0.0231904,-0.0538715,-0.00749572,-0.0366992,-0.0269345,0.0280801,0.0223914,
-0.0300492,0.0241328,-0.0158636,-0.00897724,0.0230464,-0.00880358,0.0125192,0.0110601,-0.00094882,0.0480459,
0.0196961,-0.0146706,0.154501,0.0468129,-0.0777816,-0.0509906,-0.119607,-0.0569879,0.132425,-0.0326694,
-0.00726683,-0.01493,0.0213788,-0.00818677,-0.0114089,0.00325426,0.00275293,0.0186224,0.00638677,0.00922118,
-0.00928033,-0.051627,-0.0228922,0.0299012,-0.0792208,-0.00697964,0.0105348,6.66556e-05,0.0292801,0.109072,
-0.0253784,0.00188388,0.00542874,0.0409953,-0.00735894,0.0147099,-0.0031254,-0.0341304,-0.0015823,0.0219475,
-0.0146594,-0.0365368,-0.0167141,-0.022576,-0.0149795,0.000329132,-0.021622,0.0206984,-0.0242178,-0.000988337,
0.0471096,-0.021774,0.0500163,0.0377879,-0.0942241,-0.0797435,-0.0469145,-0.0930144,0.0435737,0.0899942,
0.00608758,-0.0596036,0.0563485,0.0736261,-0.0873224,-0.0665255,-0.0238831,-0.0125594,0.038721,0.133149,
-0.0341365,-0.0267148,0.0601155,0.0482773,-0.0834614,0.0103607,-0.0664156,-0.0243481,0.0264621,0.10983,
0.0125424,-0.0382902,0.0323822,-0.0100206,0.0237439,0.0151711,-0.0125298,0.0130872,-0.00020494,-0.00637549,
0.00183417,0.00104974,-0.00797433,0.0288798,-0.0384504,-0.00354871,-0.0184025,0.0113897,-0.0455461,0.0116563,
0.0526464,0.0141563,0.117811,0.0769247,-0.133121,-0.0460238,-0.0686975,-0.069685,0.0266678,0.0837892,
0.0346553,0.0270916,0.0548149,0.0322912,0.00680334,-0.0864381,-0.00926674,-0.0662271,0.054729,-0.0850936,
-0.0157732,0.0424071,-0.0210848,-0.0397788,0.0396211,0.0427256,0.0315377,4.26972e-05,-0.0381924,0.0116421,
0.0884431,-0.116309,0.0512538,0.0473904,-0.0935582,-0.0300957,-0.0240236,-0.0344969,0.000855724,0.178402,
0.0519296,-0.00449227,0.0642354,0.00772692,-0.0441279,-0.0106935,0.0257069,-0.0461488,0.0206623,-0.033518,
-0.0603436,0.0205383,-0.0215702,-0.00760653,0.0473877,-0.0215098,0.0156146,0.0197839,-0.0264456,-0.0293554,
0.0628914,-0.0113599,0.164767,-0.0175509,-0.109202,-0.0168046,-0.0463172,-0.0598748,0.112945,-0.037252,
0.00785908,-0.0117873,0.0216152,0.0053193,-0.0259915,-0.0153055,-0.0203278,0.00623481,-0.00388382,0.0338983,
0.0340539,-0.0355946,0.0354218,0.00578644,-0.0824206,-0.0339597,-0.0633828,0.0357458,0.0290957,0.129467,
0.0116999,0.0346068,0.0238548,0.0601801,-0.0286322,-0.0454431,-0.0566532,0.0108863,-0.00952066,0.0385236,
-0.027343,-0.00457474,-0.0105397,-0.00272333,0.0045519,-0.0412556,-0.00627667,0.0260536,-0.00186948,0.0863781,
0.0568733,-0.0757843,0.0415906,0.0138188,-0.0995366,-0.0534851,0.00173083,-0.0798509,0.0460763,0.0922465,
0.05129,-0.0786663,0.0343682,0.0328661,-0.0690338,-0.0413581,-0.0584551,-0.0471641,0.037969,0.154165,
0.0288663,-0.0700077,-0.00403677,-0.00653938,-0.084423,-0.00639451,-0.0407516,0.0245127,0.039868,0.16502,
0.00247639,-0.00693012,0.00989506,0.00666396,-0.00274413,-0.0201728,-0.028556,0.00321757,0.00560788,0.00150841,
0.039915,-0.0303928,0.00599794,0.0298047,-0.00482636,-0.0394457,-0.0172934,-0.0400768,-0.0181504,0.0504302,
0.112919,-0.0263358,0.0956728,0.0325346,-0.119407,-0.079308,-0.0565412,-0.0522271,0.0683646,0.0798736,
-0.0370297,0.0351534,0.0518312,0.0156423,0.0896137,-0.0587779,-0.0341762,-0.0652777,0.0634196,-0.0648015,
-0.00345663,0.0118646,0.0144443,-0.01644,0.0115183,0.013963,0.0234512,-0.00272419,-0.02996,0.00227926,
0.0533428,-0.0316033,0.00412655,0.0467601,-0.0536644,-0.0284851,-0.03714,-0.0305936,0.00510655,0.073911,
0.0140956,0.033137,0.00250365,0.0305361,-0.0301153,-0.018806,0.000393072,-0.00257038,0.0172304,-0.0469926,
-0.057522,-0.0139895,0.00729424,-0.0468357,0.0178925,0.00596057,0.00131532,0.0390121,-0.0378937,0.0128749,
0.0342104,0.00213766,0.0704334,-0.0540173,-0.0741738,0.064257,0.0636459,-0.119159,0.0550681,-0.0296819,
0.0428733,0.0157517,0.026244,0.00697625,-0.0183493,-0.0193813,-0.0522892,-0.0152778,0.0506092,0.0300786,
0.014277,-0.0381799,0.0140858,0.0574744,0.00498311,0.0111911,-0.0212676,0.0171821,-0.00523246,0.0516995,
2.30982e-05,-0.0663724,0.0398518,0.032545,0.013503,-0.0368634,-0.048594,0.0158419,-0.0639574,0.0902059,
-0.039568,-0.0269595,-0.0155916,-0.0162082,-0.00825962,-0.0355319,-0.0167398,0.0206593,-0.00677095,0.00973554,
-0.00554774,0.017721,-0.00441394,0.00937445,-0.0231419,-0.00622995,-0.0078042,-0.0578157,0.00523701,-0.0390844,
0.00191348,-0.0399951,0.0724107,0.0405638,-0.0464298,-0.00975698,-0.0665328,-0.0399926,0.0178003,0.0403949,
0.0461391,-0.0248996,0.00102321,0.0369159,-0.0728863,-0.0260788,-0.0850042,0.0296814,-0.0296521,0.107386,
-0.0136932,0.0104912,0.0220097,-0.0145471,-0.00626217,-0.0145207,0.0139405,0.0180118,0.0136891,0.0314191,
0.0566355,-0.0526649,0.0439146,0.0578245,-0.0123752,-0.0680343,-0.0422544,-0.0152971,-0.0140864,0.00749338,
0.0744992,-0.0216894,0.0698906,0.0225978,-0.0791042,-0.0545556,-0.0354008,-0.0625535,-0.00473525,0.0248937,
0.0170953,0.00460272,0.023508,-0.0766781,0.0607796,0.00564442,-0.0335412,-0.0216187,0.0356973,-0.0709309,
0.0125351,-0.0236853,0.00085495,-0.013274,0.0188391,0.013926,-0.0448931,0.0107872,-0.0448967,0.00533692,
0.051582,0.0618081,-0.0467992,-0.00690658,0.0339234,0.0937514,-0.101389,-0.0912068,-0.0660558,-0.00207474,
-0.0105119,0.0312402,0.020932,-0.0535791,0.0290168,0.0338496,0.0240051,-0.0579803,0.0146194,-0.0925263,
0.023408,-0.0259069,-0.00230472,0.0258415,0.00259742,-0.00334308,-0.0165557,0.0197696,-0.0161743,0.0120923,
-0.00233018,0.0243576,0.019797,-0.0910573,0.0124804,0.0818539,0.098449,-0.0771521,0.0186356,-0.0904073,
0.000455599,0.016376,0.0372874,0.0350569,-0.0198837,7.42684e-05,-0.00650404,-0.0201592,0.00883385,0.0221197,
0.0160391,0.0104251,-0.00971071,0.03671,-0.0230288,0.0229516,-0.0710596,0.00417952,-0.0592765,0.00915378,
0.0328704,0.0431199,-0.00501054,0.0416968,-0.00243838,-0.0326711,-0.0761196,-0.0313546,0.0158706,-0.0160576,
-0.022009,0.0384263,0.00997862,-0.0115126,0.00742731,0.0289225,-0.0183883,0.0127177,-0.0315263,0.0172352,
0.0252458,0.0210051,0.0208349,0.00158525,0.0360023,0.0708597,0.0125391,-0.0425514,-0.0392712,-0.0707635,
0.0254648,-0.0209288,0.0333207,0.00972066,0.00558934,0.0328112,-0.0653421,-0.0377406,0.018452,-0.00702826,
-0.0061799,-0.0202673,0.00562749,0.0246833,-0.00193323,0.0225408,-0.0924582,-0.00471457,0.00642526,-0.0213818,
-0.0268624,-0.00175394,0.027645,-0.0552725,0.0122915,0.0163758,0.0322172,0.0158436,0.0042176,0.032772,
0.000359016,0.0136289,0.0216238,0.0490503,0.0149514,-0.0549565,0.0172656,-0.0169613,0.011248,-0.00891957,
0.021551,0.0289523,0.0171351,0.0149705,0.0128869,0.00331188,-0.014338,-0.0597431,0.0243488,-0.0800389,
-0.00378682,0.0224451,-0.00945458,-0.0670093,0.090312,0.0146578,0.0131729,-0.0338619,0.0116456,-0.0368895,
-0.00441094,0.0159641,-0.0190165,0.00213012,-0.0299285,-0.0321085,-0.026828,-0.0280812,-0.0105692,-0.00851318,
0.023188,-0.0183392,-0.00872324,-0.00351405,0.0891875,0.0669394,-0.081285,-0.0677394,0.0228578,-0.0685114,
0.0431855,0.0274216,0.00181924,-0.0608527,0.00111509,0.0307335,-0.0103477,-0.0213413,0.0114996,-0.0573991,
-0.0293538,0.00331337,-0.0249787,0.0104897,0.0148423,-0.00556869,-0.00711016,0.00603558,-0.0192223,0.0128661,
-0.00443971,0.0399789,-0.00256745,-0.100021,0.0234314,0.126095,0.0376999,-0.0529787,0.00620059,-0.129261,
-0.00332595,-0.0152326,0.0256041,0.00793947,0.0245858,-0.0248591,0.00320378,-0.00459792,-0.000324776,-0.0397859,
0.00298069,-0.0398495,0.0200402,0.0219232,0.0378061,0.0263105,-0.0597795,-0.00311131,0.00752751,-0.0198515,
0.0245425,0.0238437,-0.0082318,-0.0020782,0.0251849,-0.0194661,-0.0393711,-0.0276622,0.0224745,0.019783,
0.0155894,-0.0196241,0.00908058,-0.0100571,0.0190626,0.0354719,-0.00444769,-0.0271658,-0.00478691,-0.0129688,
0.0155977,0.0373035,-0.0259072,-0.0844964,0.128404,0.0752164,-0.0147137,-0.0736519,-0.00338977,-0.0800495,
0.0133063,0.00974566,-0.0132585,-0.0156734,0.0175624,0.0394084,-0.0325846,-0.0516599,0.0140971,-0.0749669,
0.0114114,-0.0122822,-0.0471201,0.041529,0.0166663,0.00721305,-0.00753632,-0.0201753,0.0235164,-0.0257161,
-0.0249496,0.022538,-0.00862703,-0.0303513,0.0138755,0.00258212,-0.0232062,0.00481502,-0.00795139,0.00974644,
0.0352909,0.0342974,0.0335298,-0.0305907,0.0234412,0.0133053,-0.0123605,-0.0417909,0.0103309,-0.0254713,
0.0162077,0.017711,0.00791686,-0.075646,0.0587922,0.0613247,-0.0146564,-0.0546327,0.040708,-0.100481,
0.00617772,0.0015681,-0.0352465,-0.0195214,-0.0291881,0.0621169,-0.00479507,-0.0139939,-0.0283909,-0.0483133,
-0.0178416,0.00920436,-0.0167942,0.0498824,-0.0137053,0.00294467,0.00707319,0.0164021,0.0269492,0.000761252,
-0.0206819,0.000718025,-0.0354465,-0.0173917,0.0329918,0.0782083,-0.0177396,-0.0681197,-0.0168164,-0.0817758,
0.0096681,0.0219341,-0.000310758,-0.00384625,0.0369377,0.0385088,-0.000451715,-0.0208897,-0.00754164,0.000707577,
-0.00393482,0.0219894,-0.0112868,0.00470421,0.00632234,-0.00438973,0.00774764,0.00715848,-0.0222927,0.0186792,
0.0241615,-0.0244604,0.00886263,-0.0579215,0.052524,0.0802278,0.00338238,-0.0191598,-0.0151889,-0.0260133,
0.00257248,-0.00273359,-0.00162205,-0.01087,0.0219043,0.00865775,0.0106924,-0.00053252,0.0223675,-0.0209779,
-0.0321251,0.00409264,-0.028003,-0.0220009,0.0510669,0.0337382,-0.00602729,0.000199754,-0.0215639,-0.051455,
-0.025623,-0.00428883,0.0128613,-0.00496281,0.0577922,0.0100994,0.0119127,0.00225595,-0.0182711,-0.0320479,
-0.00423342,-0.0059156,-0.014083,-0.0121343,0.0218983,0.00339327,-0.00153196,0.000944613,-0.00604896,-0.0141411,
-0.0111988,0.00412205,-0.00120783,-0.0466064,0.00723302,0.0751582,-0.0255501,-0.0152857,0.00324167,-0.0309559,
-0.00623698,-0.0410256,-0.041941,-0.0231355,0.0404119,0.101637,-0.00231758,-0.0191246,0.0035324,-0.0969192,
-0.0300002,-0.0104588,-0.0155422,-0.0234917,0.0291461,0.111994,-0.0216404,-0.010716,-0.012708,-0.0634434,
-0.00315179,-0.00937389,-0.0133867,-0.0269699,0.00927372,0.0119664,0.047494,-0.0166513,-0.00211306,-0.0131614,
0.00616474,0.0167894,0.000727834,-0.00396555,0.0644213,0.0249166,0.0200073,-0.00854259,-0.0215023,-0.0546796,
0.0050651,-0.0245162,-0.0435604,-0.0454975,0.0879287,0.0877264,0.0162857,-0.00387327,0.00416316,-0.0712797,
-0.01132,-0.0213252,-0.00668885,-0.00258248,0.0221285,-0.0270806,-0.0141164,-0.00960084,0.0191886,-0.0317659,
0.0154418,-0.00896908,-0.0273575,-0.0330284,0.0330588,-0.0035962,-0.00677483,-0.00427295,-0.0292748,-0.0119024,
-0.0132634,0.00644958,-0.00877655,-0.0328975,0.0294801,0.0555546,-0.0409133,-0.0258443,-0.00448452,-0.0423164,
-0.0295799,0.02262,0.0132331,0.0175012,-0.00188647,0.0272218,0.0130365,-0.00552793,0.0310957,-0.0298759,
0.000729273,-0.0123709,0.0283585,-0.00375325,-8.1673e-05,0.0122523,-0.0179985,0.0264095,-0.0195999,-0.00651354,
0.0249073,0.00956187,0.0174628,-0.0470034,0.0160122,0.0044966,-0.00516098,-0.0109594,-0.033123,-0.0315595,
-0.00922811,-0.00810556,0.0335621,-0.0206967,0.0204108,0.0217406,0.0030353,-0.00351171,-0.0106977,-0.0165599,
0.00493068,0.00790269,-0.00159893,-0.0192102,0.0370939,0.0235037,-0.0169619,-0.00865703,-0.0353407,0.00908746,
0.0281648,0.00452011,-0.029116,-0.0225308,0.0112244,0.0338219,-0.0113499,-0.00118976,-0.0137993,-0.0276503,
0.00526057,-0.0181896,-0.0166147,-0.0113934,-0.00361992,0.0253786,-0.00700014,0.0111371,-0.0105573,0.00570638,
-0.0408697,-0.0154146,0.00295991,-0.0205746,0.00864797,0.0126922,-0.0182842,-0.0197109,0.0358355,-0.02799,
0.0393348,-0.00262768,0.00879328,-0.0276626,0.0365385,0.0754063,0.00550477,-0.0110479,-0.00554616,-0.0247646,
-0.0304177,0.00858889,0.00175982,-0.0422702,0.0366407,0.0788237,0.00602484,0.0217663,-0.0245555,-0.0124692,
-0.0380993,-0.0095254,0.0193421,-0.010717,-0.0184136,0.0262137,7.03618e-07,0.00027326,0.00661062,-0.0117714,
0.00633085,0.00827442,-0.0167475,0.00419941,0.0507555,0.0133554,0.0141905,-0.0203722,0.0122767,-0.0232013,
-0.0201172,-0.0201699,-0.0202939,-0.0252504,0.0278812,0.0396807,-0.00195674,-0.0011047,-0.00197273,-0.0350798,
-0.0067512,-0.00989638,-0.0377697,0.0462577,-0.0148684,-0.00730497,-0.0129522,0.00136171,0.0120705,0.0168792,
-0.0135214,-0.00779259,-0.0156118,-0.00532263,-0.00578088,0.0132326,-0.0238602,0.00260302,0.020538,-0.0171107,
0.00244329,-0.0243327,0.00577288,0.0118316,0.0296774,-0.016487,0.0119018,0.00802185,-0.00521755,-0.0092749,
0.00967935,-0.0105686,-0.00164491,0.0531834,0.01702,0.00465667,0.00243253,-0.00688781,-0.00292567,0.00409738,
-0.00538598,0.0206743,-0.0114991,-0.0255346,-0.0230904,0.0157941,-0.00601214,0.00541168,-0.0213878,-0.00211156,
0.0151874,-0.00981988,0.00980293,-0.0236202,-0.00818689,0.034165,0.0145143,-0.0135217,0.0088365,-0.0291311,
0.0197448,0.0280547,-0.0143144,0.00280443,0.0392218,-0.000594431,-0.000837878,-0.0236542,-0.00270205,0.01396,
0.00708265,0.00070221,-0.00604514,0.0226854,-0.00899606,-0.0265254,0.0012717,0.0112833,-0.030093,-0.0400099,
0.00443169,0.00680775,0.00292783,-0.0114195,0.00718296,0.0205487,-0.0421248,0.0203779,-0.0199688,0.0160606,
0.0241384,-0.012494,0.0143753,0.0169878,0.0255704,-0.0352702,0.000577453,0.0214698,-0.0229066,0.0202165,
0.0136669,0.0326193,0.00191225,0.00928134,-0.0213442,-0.0144161,0.00604121,0.00784655,-0.00624147,-0.0306701,
-0.00346582,0.00430359,-0.013367,0.0155102,0.0208382,-0.00993328,-0.00411915,0.0147711,-0.0275134,0.0294635,
-0.0292836,-0.0239643,0.0155382,-0.0152013,0.00655446,0.0235741,0.013764,-0.0078089,0.00238231,-0.00400225,
0.0135602,0.0347457,0.00207121,-0.0166644,0.00851245,-0.00365916,-0.00518507,-0.0213752,0.00193757,0.0280403,
-0.0264382,-0.00294328,-0.00727581,0.0317202,-0.0351771,0.00751083,-0.0242123,-0.0041668,0.0209672,-0.0107313,
-0.0232477,0.0205935,0.0169319,0.0181786,-0.00963337,0.0123364,-0.0130697,0.0171962,-0.0539233,0.025982,
-0.0517972,-0.0115947,-0.0109596,0.0410187,0.0349251,-0.059216,0.011541,0.0512441,-0.0198821,-0.028313,
-0.00159184,-0.0074461,-0.008249,-0.0230647,-0.00927364,0.011594,-0.0234578,-0.0190629,0.013089,-0.0123689,
-0.0253206,-0.0184458,0.043816,0.0432136,-0.0220941,-0.0147728,0.0333188,0.042256,-0.0581152,-0.0446228,
-0.00319544,-0.014207,0.0211644,0.0276223,0.0143242,0.00433043,0.0184219,-0.010952,-0.0298643,-0.0152129,
-0.0108416,-0.00288288,-0.0213641,0.00861583,-7.94538e-05,-0.0111554,0.00163766,-0.0243475,0.000614639,0.0125368,
-0.0210279,0.00761925,0.00929496,0.0453312,0.0112783,-0.058723,-0.0323832,-0.0127757,-0.0144307,-0.0305265,
-0.038242,-0.00762685,-0.0160408,0.0145545,-0.0275397,-0.00686672,0.00439979,-0.0279046,0.0185261,-0.0140693,
-0.0242928,-0.00237411,-0.00816365,-0.0288086,-0.0103168,-0.00271155,-0.0234898,-0.00119601,0.0192871,-0.00649584,
0.0279967,-0.0367946,0.0173883,0.0034453,-0.0155638,-0.00624874,0.0229005,0.00356971,-0.00350097,0.010189,
-0.0122297,-0.0105567,0.0277608,0.00389199,0.0102959,-0.0545518,-0.0015848,-0.00809667,-0.0115696,-0.000812786,
-0.0246113,-0.0268932,0.0283214,0.0426536,0.00931361,-0.0261429,-0.0510226,0.0128684,-0.0353069,-0.0113619,
-0.014201,0.0172799,0.0416404,2.22982e-05,-0.00917034,-0.0285788,-0.00772673,0.0399992,-0.0247963,-0.0197469,
0.0348757,-0.00424471,0.0219344,0.0255306,0.0175224,-0.017803,-0.0277763,-0.00739301,-0.0182142,-0.0020785,
-0.0095133,0.0233577,-0.0199807,-0.000774902,0.00480011,0.0129332,-0.0170859,0.0021024,0.00652887,0.00730892,
0.029806,0.0128495,0.00309177,-0.0211747,-0.00920004,-0.0239422,-0.0206474,-0.018985,0.00428632,-0.0170569,
0.0174932,-0.0122852,0.00898007,0.0563878,0.016241,-0.0207824,-0.0152064,-0.0176992,0.0207629,-0.0268158,
-0.0348247,-0.027236,0.00378429,0.094554,0.00692891,-0.00161435,-0.00381707,0.0683781,0.0355478,-0.0416743,
0.0185325,-0.00954407,-0.0400835,-0.0277524,-0.00337815,-0.00466722,-0.00859693,-0.0094721,-0.0164101,-0.0101726,
-0.0231428,-0.0293625,-0.00446521,0.058292,-0.0175454,-0.0266084,-0.0635465,0.0625251,0.00249026,-0.0682737,
-0.00166317,-0.0275391,-0.00458019,0.0509788,-0.029874,-0.0316034,0.011945,0.0485592,-0.0344281,-0.0278118,
0.0143054,-0.00728284,-0.0119708,-0.0261926,-0.0155328,-0.0204948,0.0123514,-0.00316193,0.00933359,-0.0269782,
-0.0294647,-0.0653532,0.0655784,0.0567976,-0.0546132,-0.0113865,-0.0229246,0.0435518,-0.00561265,-0.00018219,
0.00179966,-0.0135355,0.000754612,0.00870196,-0.0377801,0.0200538,-0.0132882,0.00925428,0.0199713,-0.000374272,
0.002507,0.0130079,0.00994443,0.0190394,-0.0293455,0.00543374,-0.0354732,0.0294566,-0.00854143,-0.00884763,
-0.0307424,0.00372883,-0.0104025,0.0514959,-0.00308528,-0.0200948,0.000228486,-0.0238767,-0.0113593,0.0161729,
-0.0205661,-0.00972442,0.0179499,-0.00132969,0.0028414,0.00629735,0.0387827,0.0151953,0.00284194,-0.023104,
-0.030968,0.0120171,0.0249477,0.0899148,-0.0547714,-0.0150595,-0.0359931,0.0996995,4.7839e-05,-0.0485892,
-0.0410033,0.000278566,0.0242432,0.0230156,-0.0408257,-0.0212294,-0.0337154,0.0625404,-0.0143219,-0.00416205,
-0.0165572,-0.00832644,0.0333587,0.0306536,-0.0192218,-0.0024097,-0.0575609,0.0528785,0.0448828,-0.000161304,
-0.0180348,-0.00568227,-0.0157228,-0.0178894,-0.00685426,0.00734805,0.0317351,0.0110912,-0.00987435,-0.0312859,
-0.0199067,-0.0267348,0.0307373,-0.0079632,-0.0157518,-0.025976,-0.0113709,0.0482277,0.0175175,-0.0292768,
-0.0563491,-0.0550515,0.0385563,0.0560728,-0.0348599,-0.0315909,-0.0208865,0.0443493,-0.0223128,-0.0498073,
-0.0358826,-0.035708,-0.0196112,0.0169575,-0.0115737,0.06263,-0.0312515,0.0491659,0.072934,-0.021355,
-0.0164878,-0.0397181,-0.00648885,-0.0335171,-0.0353712,-0.0112757,0.00745966,0.0204784,0.0208986,0.0184338,
-0.0367289,-0.0424682,0.0584303,-0.00464845,-0.06458,0.0293325,-0.0137818,0.0688489,0.0628586,-0.0209019,
-0.0256345,-0.0518375,0.025789,0.0425328,-0.0147187,-0.00201015,0.00259911,0.0451844,-0.0146372,-0.0173704,
-0.00173414,0.00328215,-0.00854967,-0.0109287,0.0399144,-0.0041218,0.0300512,-0.0409087,0.0251363,-0.00126318,
-0.0164098,-0.0529572,0.0578908,0.0836543,-0.0214647,0.0152517,-0.0302381,0.100741,-0.0499889,-0.0325708,
-0.0319027,-0.013768,0.00383934,-0.00482722,0.00347675,-0.023201,0.0262773,0.0254864,-0.0115605,0.0302146,
-0.00952888,-0.0267384,0.0305014,-0.012641,-0.0320825,0.0260594,0.0142348,0.0523515,0.0511505,-0.0172842,
0.0150952,-0.0268933,-0.0114089,0.00205831,0.00659925,0.00361565,0.0178564,0.0186786,-0.00921337,-0.0365263,
-0.00683613,-0.00630673,0.00897535,0.00484252,-0.00249128,-0.0157122,-0.0390282,-0.00253658,0.0208117,0.00928152,
-0.00693183,-0.0772053,-0.00386941,0.018004,-0.0601717,0.0385775,-0.0294374,0.05159,0.059163,-0.0297961,
-0.023417,-0.0261718,-0.0234835,-0.0108505,-0.0638014,0.0185296,-0.00300886,0.0925949,0.0510292,0.0279103,
-0.0331031,-0.039761,0.0194676,-0.0141254,-0.0353869,-0.0228252,0.00874042,0.0314352,0.0397943,-0.0497624,
-0.00648511,0.0312562,0.0128832,-0.0167078,0.038587,-0.0282102,0.00521977,-0.00874013,0.0156374,0.0126467,
-0.0334628,-0.0287792,0.00241361,-0.00638685,-0.033513,-0.0247393,7.32833e-05,0.0247306,-0.00437393,-0.01995,
-0.0286251,-0.0333146,0.0476459,0.03819,-0.0338513,0.00900261,-0.0338706,0.105234,0.00614816,-0.0370366,
-0.0436357,-0.0645339,0.0467468,0.0355132,0.0130946,-0.00581541,-0.000200643,0.00950325,0.0232734,-0.0529984,
0.0156597,0.0213559,-0.000527962,3.00356e-05,0.0123719,-0.0035226,0.000614387,0.00861949,-0.037264,0.0614639,
-0.0221718,-0.0606507,0.00295913,-0.00482864,-0.0650851,0.0139756,-0.050796,0.0461041,0.115541,6.07119e-05,
-0.0261753,-0.0774198,0.0244331,0.0610413,-0.0306111,-0.0401375,-0.0178634,0.0196762,0.0345341,-0.0244933,
-0.0164496,0.0106123,-0.0094042,-0.0444662,0.00228928,-0.0124897,0.0208793,0.011079,-0.0358464,0.030902,
-0.0174786,-0.045338,0.0136906,0.154366,-0.0756409,-0.0195323,-0.0139028,0.0191793,0.0135976,-0.0255407,
-0.00274758,0.000557339,0.0373245,0.0131514,0.0155059,-0.0101084,0.0179125,0.0293471,-0.0296412,-0.00776049,
0.000264236,-0.00627844,0.0210707,-0.0310654,-0.03567,-0.0163741,-0.0036146,0.0726616,0.0470915,0.0394902,
-0.0420481,-0.0143113,-0.0474729,-0.0416251,-0.0108189,0.00154004,-0.0199239,0.0768485,0.0822263,-0.0578835,
0.000590388,-0.0136599,0.014424,-0.027796,-0.00366613,-0.013253,0.0014273,-0.0198894,0.0120305,0.0172063,
-0.0422036,-0.0616462,0.0339329,-0.0348101,-0.0434857,0.0618238,-0.00544554,0.0125197,0.0589024,0.0223179,
0.0218584,-0.0758615,0.00458317,-0.00650053,-0.0240169,-0.01434,-0.0353326,0.0517158,0.0464084,0.0231959,
-0.00126348,-0.0296105,-0.010327,-0.0379953,-0.0303774,-0.0541985,-0.0123594,0.0303987,0.0699442,-0.0114287,
-0.0288066,0.0279594,-0.0189043,0.0364535,0.0422956,-0.00904653,-0.0206553,0.0188156,-0.0245892,0.0118714,
0.000357138,0.0111362,-0.0351387,-0.0293617,0.0361163,0.0187064,-0.0274461,0.043793,0.0327916,-0.0403625,
-0.0311569,-0.12442,0.0296841,0.00389447,-0.0265292,0.0814126,-0.0340099,0.0878707,0.0539208,0.0100519,
0.0230229,-0.0516149,0.0283816,-0.0254657,-0.0267392,0.0155282,-0.0647939,-0.0270851,-0.00882408,0.0361709,
0.00499918,0.00797625,-0.0126862,-0.00564099,0.0265831,0.00487257,0.00311236,0.00573514,-0.0069368,0.0117544,
0.0403702,-0.085761,0.0245331,-0.0732096,-0.120862,0.0280854,-0.0778094,0.0582433,-0.0105968,0.119941,
-0.0346766,-0.0686017,0.059191,0.0243989,-0.0714264,-0.00580638,-0.0233422,0.022257,0.024452,0.0384691,
-0.0167969,0.000745393,-0.014973,-0.0687319,0.0361104,-0.00493199,0.0314189,0.00228819,-0.0194479,0.0270667,
-0.0184625,-0.0696461,0.105661,0.103587,-0.111423,0.0101558,-0.080484,0.0630949,0.0112669,0.0631087,
0.005549,0.0181581,-0.00052668,-0.00225706,-0.0102907,0.0141402,-0.0307523,0.0216522,0.0247086,-0.0340586,
0.000997111,-0.0298748,0.0669275,-0.00874773,-0.0211731,0.0236323,0.0270456,0.023024,-0.000748521,0.024797,
-0.0275027,-0.00687776,0.00879888,-0.116424,0.0554532,0.0555079,0.0310887,0.00604104,0.0154917,-0.0033931,
0.0277231,0.0234802,-0.0230527,-0.0225877,0.0272247,-0.00122427,0.022623,-0.0355494,0.0482321,0.0407639,
0.0302929,-0.0584426,0.0252288,-0.0570531,-0.0703526,0.0321287,-0.0190202,-0.00890174,-0.00429175,0.0613006,
0.013728,-0.0501678,-0.00099749,-0.0282283,-0.0683767,0.0177533,-0.0126067,0.0830767,0.00943625,0.0551475,
0.00557843,-0.0555004,0.0549702,-0.0220068,-0.0409536,-0.00187977,-0.0486922,0.0743992,0.0498131,0.0489869,
-0.0145685,0.000516472,0.00883375,0.0299155,0.0178917,0.027905,-0.0198029,0.0198519,0.000871546,0.00647318,
0.000610238,-0.0397278,0.00618837,-0.096623,0.0426135,0.0220886,0.0189498,0.0187429,0.0364851,-0.00879663,
0.0288945,-0.0842379,0.0436589,0.00133423,-0.0644328,0.0439203,0.00229997,0.0633195,0.0217287,-0.0136097,
0.0473648,-0.0028625,-0.00348975,0.0403514,-0.101657,-0.00745238,-0.0264609,-0.00123299,-0.0318322,0.0828438,
-0.0256199,0.0409957,-0.0102073,-0.0153278,0.0233493,0.000468215,-0.00943156,-0.00314308,0.00117121,0.00757157,
0.0533399,-0.00819506,0.0102023,-0.0059312,-0.190025,-0.00559369,-0.00628699,0.0821018,-0.0459319,0.169976,
0.0225781,-0.0494627,0.0627478,0.0102944,-0.110427,-0.00183916,0.0117191,-0.00212755,0.00512099,0.158473,
-0.0337573,-0.0135847,0.0220338,-0.0253315,0.0398087,0.0242961,0.0342264,0.0185954,-0.0155319,-0.025709,
0.0539448,-0.136695,0.0601735,0.0509134,-0.246562,0.0127172,-0.031791,-0.0176145,-0.00917782,0.253338,
-0.0258842,-0.0216798,-0.00437225,0.00955123,-0.0318388,0.0334709,0.00282153,0.0536776,-0.0110132,-0.00586856,
-0.0346432,-0.0225583,0.0086195,-0.0199635,-0.0408009,0.00173865,-0.0172959,0.0812032,-0.00149094,0.00520239,
-0.036285,-0.0196095,0.0194793,-0.0923073,0.0403358,0.0127797,-0.02392,0.0647254,0.0112498,-0.0133381,
-0.0178599,-0.00162883,-0.01308,-0.0112577,0.00362989,-0.0152853,0.0285593,-0.0140895,-0.040616,0.0110491,
0.0651706,-0.0138977,-0.0406515,0.00881887,-0.116494,-0.00181923,-0.0282926,-0.0148012,-0.00909776,0.124216,
0.0179965,-0.0478919,0.0227744,-0.0229782,-0.154951,0.0234655,-0.077886,0.102493,-0.0511371,0.0778109,
-0.00711981,-0.0163123,-0.0139825,0.00291815,-0.0912215,-0.00503626,0.0023306,0.102963,0.0129561,0.0524385,
-0.0187092,-0.0520145,0.00308317,0.00232067,0.0227512,0.0106375,-0.0136403,0.0161235,0.0151119,0.00495028,
-0.00732657,-0.00380211,-0.0234957,-0.058986,0.0270219,0.0404276,-0.0351251,0.0484634,-0.0158983,-0.0552233,
0.0400414,-0.0524788,0.0596792,0.00512961,-0.2094,0.0602755,-0.0240217,0.042005,-0.0633855,0.113794,
0.0458185,-0.0274018,0.0386184,0.057965,-0.0245387,-0.0554764,-0.138549,0.0456827,0.0172792,0.106981,
-0.0086169,-0.0131234,-0.00850795,-0.0417198,0.0450249,0.0251493,0.0242415,-0.00194117,-0.0291263,-0.0215121,
-0.0232856,0.0437548,-0.0551108,0.0612751,-0.107358,0.000261198,-0.075388,0.135445,-0.0465616,0.103995,
0.0267123,-0.00912291,0.00687909,0.0204416,-0.0872835,-0.0100611,-0.0164033,0.00649576,0.00100162,0.115243,
-0.0626635,0.0028453,0.0378763,-0.0261034,0.0715629,0.0797882,0.0622119,-0.026432,-0.00533174,-0.0350061,
0.0449293,-0.0955648,0.0216232,0.0487286,-0.193993,-0.0080107,-0.0306437,0.0145096,0.00592704,0.28436,
-0.0123709,0.0284082,0.00854912,0.0204637,-0.00413454,-0.000769659,-0.0108007,-0.000678515,-0.00190758,0.0371455,
-0.057191,-0.00126196,-0.0168052,-0.00644095,-0.0444177,0.0069103,-0.0145432,0.084668,0.0391213,-0.0272924,
-0.0173168,0.0669938,-0.00931313,0.00367748,0.00742048,-0.0133782,0.0146351,0.0144418,-0.0224303,0.0363236,
-0.00980401,0.0161389,-0.0402669,0.0060931,0.0366779,-0.0137544,-0.0163999,-0.00294079,-0.00975781,-0.00728458,
0.0437208,-0.0394618,-0.00711603,0.0755749,-0.0807894,-0.0710828,-0.0837213,0.0439186,-0.0707596,0.0983175,
0.0187874,0.00646294,-0.0254609,0.0409261,-0.0734141,0.000260099,-0.104311,0.0710588,-0.0388919,0.0955571,
-0.04944,0.0170105,-0.0157432,0.0301222,-0.0727773,0.0462066,-0.0307348,0.0760844,-0.0381773,0.0810082,
-0.0239133,-0.004245,0.0271066,-0.0762902,-0.00753297,0.0217822,-0.0175576,-0.0133351,0.0202875,0.033959,
0.000687545,0.00720232,-0.0457679,-0.0170965,-0.0235303,-0.0292099,0.0241786,0.0577129,-0.0435544,0.00905249,
0.087512,0.00592839,-0.0148098,0.0780907,-0.139754,-0.0536701,-0.0924437,0.0675411,-0.0372529,0.178851,
-0.00275224,0.00544704,0.0454472,0.0658419,0.0138713,-0.0155041,-0.106475,-0.0223691,0.0184344,0.0195448,
0.0060183,-0.00386245,-0.00151183,-0.016119,0.0512108,0.0334565,-0.0154953,-0.0280494,-0.00442021,-0.00483222,
0.0176283,0.0184816,-0.0656155,0.0521893,-0.0794899,-0.0135881,-0.130555,0.109149,-0.0697088,0.0449107,
0.00144481,-0.0118747,-0.0178009,0.0101804,-0.0274279,-0.00423295,-0.0373837,0.0477871,0.00484828,0.0714459,
-0.00914771,0.00476872,0.0175264,-0.0714096,0.0138137,0.0368189,0.0734203,-0.00922327,-0.0269156,-0.0124472,
0.0634738,-0.0253127,-0.0194714,0.0449737,-0.0916879,-0.00470409,-0.0273303,0.0306366,-0.000376737,0.0950942,
0.00118346,-0.00347595,0.0187319,0.0101723,-0.00721614,0.0153066,0.0103888,0.0163811,0.0410563,0.0431147,
0.0204141,-0.0376551,-0.00290772,-0.0188981,-0.035283,0.0325133,-0.0402638,0.0627376,0.0168207,-0.0137122,
0.00919881,-0.0452942,0.00493155,-0.00420587,-0.0227738,-0.0521744,-0.0740846,0.105055,0.0340379,0.0388871,
-0.0296755,0.00318569,-0.023004,-0.00130965,0.00469049,0.00672553,0.0131724,-0.003147,-0.0227147,-0.000649777,
0.0263111,0.0212861,-0.0147617,0.0672908,-0.0406865,-0.0285918,-0.127758,0.0521083,0.00826279,0.00954337,
-0.0167994,-0.0310957,-0.0257414,0.0169423,-0.0859022,0.0191414,-0.102756,0.109302,-0.0368266,0.0863757,
0.00802174,0.008051,-0.0230857,0.000708272,-0.0567696,0.0490636,-0.0699479,0.101134,0.0254811,0.0418028,
-0.0393954,-0.0382466,0.00918538,-0.0210499,0.0213591,0.0492589,0.030953,0.0180712,0.00164687,0.022913,
0.00643658,-0.00103638,0.0491663,0.00987312,-0.0496472,-0.0698638,-0.049112,0.0763303,0.0291413,0.0340909,
0.0950837,-0.0439668,-0.00416055,0.0666768,-0.082218,-0.0376736,-0.152519,0.0924175,-0.036952,0.126835,
0.0260075,0.0222767,0.00874713,0.0422293,0.0275247,0.0106717,-0.0887761,-0.0659437,0.0320257,0.0502896,
0.00698228,-0.00873212,-0.0103714,-0.0353818,-0.00749161,0.0112335,0.00892073,-0.00296928,-0.0317051,-0.0126511,
-0.00313014,0.0262548,-0.000846774,0.0452611,-0.00482731,0.11428,-0.0945263,0.069215,-0.0106702,-0.0151136,
-0.00636904,0.0303083,0.0161212,0.0230147,0.0336955,-0.0104669,-0.0390474,-0.00322791,-0.0257426,-0.00637204,
-0.0572594,-0.00926004,-0.00325086,-0.0483364,-0.00738237,-0.0251932,0.0714156,0.039983,-0.0137968,0.0319749,
0.00137138,0.03589,-0.0353463,0.0293107,-0.0324878,0.0978969,-0.111986,0.0315441,-0.0364175,-0.0060948,
0.0109563,8.71851e-05,-0.00862939,-0.037408,-0.0435637,0.00625343,-0.0312259,0.0408165,-0.0118844,0.0605924,
-0.0280565,-0.031969,-0.0243592,-0.00917656,-0.0141043,0.091099,-0.00267553,0.0441725,0.0176711,-0.0232713,
0.0304212,-0.0200313,0.00883217,0.00197587,-0.0176181,-0.0751212,-0.0423344,0.0409911,0.023077,0.0591871,
-0.00149177,0.00430842,0.00195794,-0.000410074,0.00782039,0.020099,-0.000268254,0.0159876,0.0214172,0.0189728,
-0.00925071,-0.0594677,0.0196932,0.0387305,0.0382157,0.0338199,-0.108593,0.0324776,-0.0154763,-0.0623665,
-0.0116317,-0.0220982,-0.0224317,0.0252586,-0.0276334,0.0719354,-0.0490169,0.0885147,-0.00564096,-0.00771573,
-0.0278693,-0.0878134,-0.0343092,-0.0115622,-0.0313215,0.0669063,-0.0368177,0.0565325,0.0302801,0.032131,
-0.0334791,-0.0179758,-0.034405,-0.0119575,-0.0160167,0.0347006,-0.0104426,-0.00123973,-0.00641812,0.0269955,
0.0448879,0.0242367,0.0235532,0.0334268,-0.0246383,-0.0530519,-0.0702569,0.0188801,0.0411459,0.049431,
0.00655476,0.015288,0.00874505,0.0466505,0.0335469,0.0313499,-0.167546,0.0200259,-0.0215035,-0.000205086,
0.0169622,-0.0644024,-0.0196575,0.00644317,0.040319,-0.00515971,-0.023386,-0.0226138,0.0708797,-0.06242,
0.00633125,-0.000923188,-0.0213084,-0.00876991,0.0052253,0.0163206,0.00887323,-0.0117407,-0.00230273,0.0102141,
0.0177915,-0.0669612,0.02003,0.0182487,0.0230248,0.0975041,-0.0742095,-0.00453041,0.0500779,-0.0718269,
0.0247785,-0.00868207,-0.00163646,-0.0201428,0.0517735,0.0271263,-0.026345,-0.0181387,-0.0107941,-0.0744168,
0.000432352,0.0125021,-0.0422226,-0.0245959,-0.0314306,-0.0270689,0.00245579,0.00421169,-0.0245699,0.0514353,
0.0226398,0.011374,-0.0396105,-0.0137697,0.0474209,0.178337,-0.0628738,-0.0476089,-0.0142976,-0.0804808,
0.0226945,-0.00487534,-0.0215585,0.00638041,-0.0108588,-0.00580207,-0.0359324,0.0176859,0.0219017,0.0130553,
-0.00156216,-0.0210022,-0.0347581,0.00390133,-0.00139116,0.0556302,-0.00606017,-0.0213604,0.0208293,-0.0228686,
-0.00790362,-0.025126,0.00149342,0.0290725,-0.0145355,-0.0116784,-0.0478691,-0.0214792,0.0187657,0.0249888,
-0.0312237,-0.0300599,0.00876266,0.0136915,-0.00587798,-0.0128373,0.0190988,0.0164253,0.00888814,-0.0216216,
0.0256785,-0.0427348,-0.0177379,0.0204246,0.0949204,0.104829,-0.0569677,-0.0541546,0.0861664,-0.154208,
-0.0276912,-0.0214091,0.0251414,-0.0233153,-0.027314,0.126847,-0.0296237,-0.00313293,0.0144,-0.000194217,
-0.0292962,-0.0431932,-0.000790242,0.019102,-0.020194,0.0602389,-0.0277459,-0.000258907,0.0303568,0.0236326,
0.00875736,0.0168554,-0.00773956,-0.0350416,-0.00893249,-0.00294244,0.0115202,0.0164599,-0.0175417,-0.0238733,
0.0217482,-0.0168962,0.0162471,0.053654,-0.00416521,-0.0520223,-0.0720573,-0.015982,0.01554,-0.00599009,
0.0392718,-0.0473403,0.0217639,0.0235767,0.0163994,0.071788,-0.110414,0.00697479,0.0325826,-0.111176,
0.0183611,-0.0126917,0.00651297,-0.0622158,-0.00781343,0.0963405,-0.0256194,-0.0252264,-0.0355948,-0.0408468,
-0.00479909,0.0101832,0.00731705,0.0274553,0.0139924,-0.0209824,0.0125497,0.030393,0.0115967,0.0240593,
-0.0247744,-0.0561013,-0.0671421,-0.0101469,0.00394023,0.21882,-0.0417393,-0.00919546,0.0631182,-0.0685211,
0.00669308,-0.0469971,-0.00875069,-0.0190166,0.0278828,0.0977416,-0.0412251,-0.00101507,0.0272655,-0.101388,
0.00170613,-0.0323521,-0.00946651,-0.0131959,-0.0306263,-0.0771572,0.0229514,0.0286658,-0.00871347,0.0423454,
0.0151728,-0.0282405,-0.0506183,-0.0275996,0.100011,0.151132,0.0217851,-0.0561063,-0.012995,-0.108662,
0.0547681,-0.0277233,-0.00437529,-0.00219834,-0.00918344,-0.0185435,-0.0354947,-0.011614,0.0102352,0.00520566,
0.0326619,-0.0375042,-0.0189378,0.00846586,-0.00740403,0.0511949,-0.0618346,-0.0468787,0.019533,-0.026201,
-0.0181233,-0.0489573,0.00832947,-0.00962387,0.00683249,-0.0495036,0.000471845,-0.00547091,0.0346483,-0.069936,
-0.00476498,0.029667,0.00465793,-0.043784,-0.00730133,0.00742588,-0.0192505,0.00120298,-0.0129157,0.0173576,
-0.0194114,-0.0608438,-0.0384303,-0.0373795,0.0139049,0.206041,-0.0257122,-0.0523181,0.0293644,-0.0886802,
0.0261366,-0.0075116,-0.0381819,-0.0136304,-0.0129717,0.121281,-0.0257798,-0.0117254,0.0156512,-0.0581634,
0.00076584,-0.0390046,-0.0242256,-0.0284468,0.000336167,0.0700723,-0.0469335,0.0132542,0.0443821,-0.0172289,
0.00348747,0.0396725,-0.00267617,-0.0131198,0.0123178,0.0140301,0.035371,-0.00380472,-0.00198938,0.0209551,
0.00793959,-0.030008,-0.0131236,0.0053665,0.0201247,0.00997593,-0.0103945,-0.00347522,0.0414682,-0.0288963,
0.028289,-0.0228308,-0.015602,-0.00478481,0.0236217,0.160617,-0.0210954,-0.00761438,0.0543234,-0.0964869,
-0.009408,-0.0157121,-0.00501815,-0.0203619,0.0185719,5.21132e-05,0.000773793,-0.00761359,0.00511347,-0.0446735,
0.00223282,0.0356264,-0.00213368,0.0226687,-0.0137938,0.00529737,0.00439663,-0.0108078,-0.00656678,-0.00586125,
-0.0124498,-0.00977447,-0.0131292,-0.000295568,-0.012022,0.157783,0.00438944,-0.0277115,0.00777561,-0.0502623,
0.0012716,-0.032523,-0.000189283,0.00253412,0.0141631,0.0588296,0.00124874,0.0168942,-0.00152279,-0.0809749,
0.0228769,-0.0177667,0.0185774,-0.000412669,0.00232518,0.00876102,0.0153551,-0.0135285,0.0102553,0.00234465,
-0.0263683,-0.0136566,-0.0082581,-0.0145116,0.0415812,0.148575,-0.00293057,-0.0284913,0.00503536,-0.0764012,
0.023521,-0.00939452,-0.0132646,0.0448885,-0.015347,0.0614188,-0.0010694,-0.00234686,0.00911092,0.00439115,
-0.00057608,0.000301074,-0.0458163,-0.0020888,0.0228456,0.0523822,-0.024383,0.0106778,0.0119581,-0.0135968,
0.0219685,-0.021904,-0.0173939,-0.0277959,0.00308014,0.0917193,-0.0259447,1.19373e-05,-0.00608576,-0.0311669,
-0.0168804,0.005706,-0.0113361,-0.0165452,-0.0151491,-0.00892443,0.0320423,0.00392906,-0.0444941,0.0122913,
-0.012663,-0.00632328,-0.00656112,-0.00277575,0.0014937,0.0485281,0.0394038,-0.0100897,-0.0382435,-0.00479503,
0.00879282,-0.0263417,0.0145436,-0.0305874,-0.0101459,0.0705361,-0.0262882,0.0131952,-0.0274806,-0.0499847,
0.00101357,-0.0201173,-0.0273478,-0.00403456,0.0095556,0.101727,-0.0352761,-0.00556954,-0.0124606,-0.0461078,
-2.74138e-05,-0.0050483,0.00445038,-0.00458548,0.00377391,0.0138603,0.000416204,-0.00262814,-0.0384955,0.00780515,
0.00778305,-0.00742322,0.000169532,-0.0488671,-0.00710075,0.115533,-0.0253343,-0.00570635,-0.0318985,-0.0443301,
-0.0197612,0.0494617,0.00182505,-0.0284966,-0.0307639,0.131164,0.012602,-0.052496,-0.0298423,-0.0259183,
0.0128088,-0.0257573,-0.0197278,0.00933925,0.0204065,-0.0524675,-0.00342082,0.0157995,0.000805305,-0.0328169,
0.0207332,-0.0005835,0.0123011,-0.00240425,-0.0285986,-0.0286133,-0.00699176,0.0115608,-0.00660981,-0.00864343,
0.0124865,0.00269448,-0.00102764,0.00920975,-0.00966573,0.0100735,0.0183015,0.0236474,-0.00579784,-0.0213783,
-0.0225197,0.0358205,0.0306813,0.044331,0.0455557,-0.0181765,-0.0172265,0.00979563,0.020583,0.0179174,
-0.0256833,-0.0313145,0.0200268,-0.0294312,-0.0233749,-0.00898059,-0.00375361,-0.0152111,0.0144752,0.0223867,
-0.0158804,-0.0149449,0.0234036,0.0292762,-0.0120228,-0.0242742,-0.00417604,-0.0290821,0.00481252,-0.00268981,
0.017244,-0.00358862,0.0355841,-0.000385193,0.00610288,0.0307197,0.00954183,0.00589459,-0.0210944,-0.0381539,
0.0315598,-0.0364358,0.00243232,0.0116394,-0.0124004,0.0178297,-0.00848917,0.0112886,-0.0252978,-0.0128451,
0.0182863,0.00846039,0.0042686,-0.028869,0.00118903,-0.00836273,-0.038508,-0.00199025,0.00131187,-0.00707525,
0.0179666,0.0177812,-0.00648314,-0.0269543,-0.0359891,-0.0152811,0.0243813,-0.00089143,-0.0404339,-0.0190538,
0.000240194,-0.000275501,0.0100618,0.00323003,-0.0263546,-0.0138129,-0.00963066,0.0273335,-0.0198627,-0.0128619,
-0.0101556,-0.0035831,-0.000540401,-0.00298951,-0.012108,0.00573785,-0.0147009,0.0503667,-0.0340252,-0.00464546,
0.0394232,-0.0147297,-0.0468647,-0.00181889,-0.0279228,-0.00522874,-0.0399762,0.0111661,0.0139414,-0.0202884,
-0.0469939,0.0461839,-0.0344673,0.0183741,0.00433582,-0.00737339,0.0145471,-0.016467,-0.027835,-0.014102,
0.00400619,0.0429051,0.00659222,-0.0148291,0.0143598,0.0297144,0.00629415,0.0107228,0.00405481,0.00424614,
-0.00490341,0.00136446,-0.0234151,0.0125997,-0.014537,0.00881789,-0.00599389,0.0108597,-0.0113691,-0.0359149,
-0.0442021,-0.005498,-0.00101622,0.0315154,-0.028432,-0.0506761,0.00282928,0.0538109,0.0337716,0.0311486,
0.00606664,-0.0265781,0.0249256,-0.00522676,0.00478088,-0.0037525,0.00162606,0.0080878,-0.00812601,0.0272103,
-0.0136858,0.0310618,-0.0115561,0.0349869,-0.0215507,-0.0222472,-0.062576,0.0502114,0.0013215,-0.00728836,
-0.00745625,-0.0311566,0.0176699,0.0411586,0.0110196,0.00515845,-0.0104707,0.0323353,0.00802681,0.00492515,
0.012001,-0.00377743,-0.018662,-0.0204767,-0.0125156,-0.0122558,0.0159782,0.0234743,-0.0059591,0.0217669,
-0.0146448,0.00779181,-0.0163722,0.0435429,-0.0186564,-0.00655672,-0.0360683,-0.0111851,-0.00799626,-0.0105699,
-0.0297337,-0.0178311,-0.0141683,-0.00415517,0.020758,-0.0313565,-0.00409577,0.0159132,-0.0126992,-0.00634356,
-0.00200365,0.00818363,-0.00717956,-0.0245071,-0.0297985,-0.0065723,0.0113153,0.0103055,0.053622,0.00554915,
0.00668603,0.0182886,-0.0013871,-0.0098872,-0.0167095,-0.0672019,-0.0189329,0.0141429,-0.0400889,0.0408407,
-0.00851732,-0.00590692,0.0316095,0.0459251,-0.00425249,-0.0299337,-0.00102571,0.0155469,-0.000952758,0.00435289,
-0.0203067,-0.00662374,-0.0161028,0.043495,-0.0208572,-0.00471238,-0.0418998,0.0826308,0.0178117,-0.00348753,
0.0204921,-0.0304854,0.00852879,-0.00602957,-0.02592,-0.00595651,0.000262876,0.0050275,-0.00671617,0.00811603,
0.0166477,-0.00388307,0.0208486,0.0142951,-0.0320338,0.00806096,-0.00947038,0.0389435,0.0310325,0.000631631,
-0.00346193,-0.025444,-0.0180145,-0.00945307,-0.0464022,-0.0123847,-0.00222671,0.00174514,-0.0129179,-0.000846516,
-0.0119745,0.014001,0.033267,0.00176382,-0.0126618,-0.0467962,-0.00577782,0.0151557,-0.00416969,-0.000198533,
-0.00198033,0.00399181,-0.0259248,0.0212848,-0.0194347,-0.00937157,-0.0121371,0.0225484,0.00249455,-0.0197955,
0.0036606,-0.0214161,-0.0992528,0.0178452,-0.0811519,0.0393186,-0.0207954,0.0476516,0.051665,0.00547015,
-0.0039098,-0.0327572,0.00655539,-0.00326586,-0.0215134,0.0105463,0.0391073,-0.0251722,0.0163158,0.02536,
0.00106762,0.00746743,-0.0455137,-0.0110732,-0.0516926,-0.0271421,0.00120154,0.0278061,0.0316212,0.0630479,
-0.0275274,-0.0498485,-0.00620482,0.0241776,-0.0307645,0.0142228,-0.0150372,0.0450186,0.0198073,0.0179422,
-0.00377209,0.0172498,0.00513573,-0.011962,0.0191786,0.0124634,0.0115698,-0.015991,-0.0177684,-0.0132297,
-0.0432921,-0.0246416,0.0534754,0.0726978,-0.0195844,-0.0488849,-0.0805628,0.0856775,-0.00197453,-0.0237934,
0.00778381,0.00546447,-0.0319292,0.000806455,-0.0133962,0.000407717,-0.0001572,-0.00990463,0.0164602,-0.0103363,
0.0018641,-0.0297421,-0.0103248,-0.0109526,-0.0135926,-0.0118138,0.0136979,-0.0161234,0.0375023,0.0389109,
0.00220313,0.0097735,0.00416789,0.00260617,-0.0279878,-0.00133237,-0.000831653,0.0371671,-0.0024243,-0.00275591,
-0.0288425,0.00495167,-0.0174119,-0.0100299,-0.0108903,0.0140683,0.0163883,-0.00146481,-0.0207971,-0.00263975,
0.0216262,0.000521394,-0.0462391,-0.0317655,-0.0615858,0.02264,-0.0344169,0.0823359,0.0422802,0.0404583,
-0.0372538,0.00231846,-0.0349145,-0.0437375,-0.00364502,0.0016848,-0.0429616,0.0602758,-0.00875851,0.0538159,
0.0322391,-0.0094354,-0.0269072,0.00333334,0.00118498,0.014311,-0.00645993,0.0573579,-0.0140465,0.00152063,
-0.0186343,-0.0328913,0.000899692,-0.00181094,0.00324879,-0.023253,-0.0184915,-0.0194793,-0.0045909,0.00794719,
-0.0242266,0.0135595,-0.0257069,0.0065534,0.0229452,8.42001e-05,0.0112445,-0.0128069,0.01375,-0.057153,
-0.0172081,-0.0101917,0.0114223,-0.00904793,-0.0186119,-0.015833,-0.0601498,0.0875064,0.0408664,0.0146678,
-0.0380989,-0.0578037,-0.045929,-0.082837,-0.0112153,0.0733775,-0.0063851,0.0453903,0.0854039,0.00809569,
0.0257098,0.0273803,0.0209281,0.0160347,-0.000939824,-0.00619749,-0.0381049,0.00476776,-0.0213004,-0.00323982,
-0.0432328,-0.00513696,-0.102285,-0.0815746,-0.0479794,0.0372927,0.0130857,0.0263374,0.0543458,0.0348233,
-0.0287589,0.00233987,-0.039933,0.0116287,-0.0513531,0.046263,-0.0140711,0.0787609,0.0427734,0.0074061,
-0.00257446,0.00657143,0.00153569,0.00358024,0.0181348,0.00656717,0.0280365,-0.0644302,-0.00722205,-0.00826891,
-0.0462724,-0.0373082,0.0361059,0.0286517,-0.101252,0.0285592,-0.00330981,0.115821,0.0374727,-0.0386013,
-0.00232985,0.0115896,0.0269917,-0.00542649,-0.0404179,0.00579977,-0.0437574,0.0255977,0.0129105,-0.0395486,
-0.0182856,-0.0175269,-0.0225374,-0.0211356,-0.00465534,-0.0169639,0.00519574,-0.00928968,-0.00400828,0.022693,
-0.0448392,-0.0054526,-0.0703737,-0.0035865,-0.0313052,0.00291582,-0.0123245,0.01872,-0.00769342,0.00328677,
0.00506421,-0.00717097,-0.0177411,-0.000844533,-0.0121434,-0.00535966,0.0264783,0.00544744,-0.0163795,0.0171092,
-0.0195482,-0.0608771,-0.0819309,-0.110572,-0.0301027,0.0724121,0.0211689,0.0578172,0.0686527,0.076984,
-0.014344,-0.00499897,-0.0163613,-0.0325109,-0.0160836,0.0164945,0.0530701,0.0302826,-0.000174722,0.0290176,
0.0583168,-0.0465279,-0.0370149,0.0166227,-0.0479199,-0.0177294,0.010779,-0.00216036,0.0129284,-0.00161159,
0.0430185,0.0167354,0.0126859,0.0317738,0.0361126,-0.0144729,-0.0170551,-0.00476607,-0.00262163,-0.00811468,
0.00499126,0.00458472,-0.0588901,-0.00552435,-0.010368,0.00545936,0.00833883,0.0426894,0.0629968,0.00753217,
-0.0718701,-0.0676408,-0.0750242,-0.0905274,-0.0459874,0.110245,0.0112796,0.107081,0.0697414,0.00822853,
0.0342158,-0.105835,0.0373901,-0.097963,0.0151714,0.0882364,-0.025296,0.0485233,0.0754021,0.0450989,
-0.0121283,0.0164203,-0.00264177,0.030159,-0.00268697,-0.0295852,-0.00198535,-0.0562303,-0.029715,0.011447,
0.0172687,-0.0892672,-0.115766,-0.158029,0.0603294,0.0895572,0.00254636,0.026622,0.0377715,0.104804,
-0.0166932,-0.047875,-0.0385673,-0.0926214,-0.0437218,0.0266611,-0.0196169,0.0762148,0.0418399,0.0253115,
0.000476695,0.00807429,0.0431798,0.0475198,0.01162,-0.0102465,-0.0324213,-0.0352231,-0.0449315,-0.0108444,
-0.0379566,-0.0830545,-0.0200009,-0.0234342,-0.0690921,0.0435718,-0.00188168,0.123654,0.083429,0.039986,
-0.00572602,-0.0266378,-0.0240505,-0.0258537,0.0179789,0.00409183,0.0107561,-0.000144156,0.00570235,-0.0239005,
0.00597056,-0.0122125,-0.0652792,-0.00232551,0.0120746,0.00569474,0.0147971,0.00511476,-0.00209975,0.0547509,
-0.0138281,-0.0381872,-0.0665933,-0.0434881,-0.0015713,0.0657401,-0.0110546,-0.00373748,0.06922,-0.00937956,
-0.0225468,-9.44289e-05,0.0103936,-0.0254111,0.00918167,-0.00284864,-0.04299,-0.014184,0.0187525,0.0146386,
0.0389426,-0.11567,-0.133949,-0.180857,-0.0100162,0.130138,-0.0254786,-0.00364839,0.0560594,0.0951241,
0.0580873,-0.0501998,-0.0733057,-0.0442749,0.03322,0.074984,0.000336417,0.0470429,0.0169928,0.0522826,
0.0105272,-0.0420244,-0.0621886,-0.0168111,0.052051,0.0322909,-0.00945744,0.00181156,-0.00711005,0.00555055,
0.0023552,0.0100096,0.0117211,0.0259349,-0.0455525,-0.0380935,-0.0436545,0.0073843,0.0141496,0.003717,
-0.0412929,-0.0146565,-0.106834,-0.0537392,0.0121853,0.0116261,0.043475,0.0273524,0.0874538,0.0169761,
-0.031306,-0.0343994,-0.103053,-0.156774,0.0465119,0.0936843,-0.0156274,0.0989354,0.134247,0.0300384,
0.0382061,-0.0611374,-0.0440984,-0.0834635,-0.00262539,0.0666196,-0.0217399,-0.00108344,0.00521008,-0.026243,
-0.0326704,-0.012838,-0.00817545,-0.00407316,0.0334749,-0.0276206,0.0207639,-0.0328871,-0.0474561,-0.0361182,
0.0165819,-0.0666198,-0.0806356,-0.103449,0.0678775,0.102664,-0.0234629,-0.00734692,-0.00219951,0.0790658,
0.0535475,-0.0735035,-0.0227326,-0.055917,-0.0233102,0.0412205,0.00502085,0.0476244,-0.0175227,0.0425591,
-0.0374966,-0.00869225,0.0183431,0.0431773,0.00228456,-0.0388432,0.0050215,-0.0402235,-0.0209525,-0.0229475,
0.0130335,-0.0763911,-0.0034297,-0.0923371,-0.0627477,0.0472447,-0.052324,0.066584,0.0369389,0.0967489,
0.00469769,-0.00819264,-0.0147569,-0.0271248,-0.0163014,0.0408193,-8.77639e-05,0.0194374,0.0148483,-0.0210836,
0.00381563,-0.0417601,-0.0372333,0.0053824,0.0364881,0.0164298,-0.0257044,-0.00237943,0.0436134,0.0616855,
-0.00754523,-0.0339659,-0.00568013,-0.0963296,0.082337,0.0462247,-0.00495255,-0.0361789,0.0349897,0.017878,
-0.0137212,-0.0210416,-0.0156006,-0.0254674,0.0274541,0.0192759,0.0107638,-0.00456996,-0.0116277,0.0204344,
