Name,Shape,Data
conv1.weight,"(64, 3, 7, 7)","[[[[-1.04193492e-02 -6.13560760e-03 -1.80977571e-03 ...  5.66148497e-02
     1.70833264e-02 -1.26938839e-02]
   [ 1.10827060e-02  9.52757336e-03 -1.09926917e-01 ... -2.71237552e-01
    -1.29074901e-01  3.74236982e-03]
   [-6.94335019e-03  5.90889715e-02  2.95482218e-01 ...  5.19718885e-01
     2.56324232e-01  6.35725409e-02]
   ...
   [-2.75347717e-02  1.60450842e-02  7.25949779e-02 ... -3.32849443e-01
    -4.20575589e-01 -2.57814825e-01]
   [ 3.06125693e-02  4.09597456e-02  6.28496706e-02 ...  4.13839936e-01
     3.93589228e-01  1.66058436e-01]
   [-1.37361288e-02 -3.67455627e-03 -2.40843575e-02 ... -1.50699466e-01
    -8.22297409e-02 -5.78277605e-03]]

  [[-1.13972435e-02 -2.66190711e-02 -3.46408449e-02 ...  3.25206555e-02
     6.62208884e-04 -2.57434826e-02]
   [ 4.56866063e-02  3.36034410e-02 -1.04527377e-01 ... -3.12528163e-01
    -1.60506710e-01 -1.28256797e-03]
   [-8.37297121e-04  9.84199569e-02  4.02104735e-01 ...  7.07887888e-01
     3.68871152e-01  1.24553785e-01]
   ...
   [-5.59257828e-02 -5.22390613e-03  2.70805229e-02 ... -4.61781323e-01
    -5.70803106e-01 -3.65522057e-01]
   [ 3.28604244e-02  5.55744171e-02  9.96695608e-02 ...  5.46364546e-01
     4.82761741e-01  1.98674709e-01]
   [ 5.30512584e-03  6.69381162e-03 -1.72543116e-02 ... -1.48223922e-01
    -7.72484839e-02  7.21829361e-04]]

  [[-2.03150185e-03 -9.16166510e-03  2.12094728e-02 ...  8.91766623e-02
     3.36553939e-02 -2.01015621e-02]
   [ 1.53981987e-02 -1.86480097e-02 -1.25907555e-01 ... -2.53420591e-01
    -1.29799217e-01 -2.79753171e-02]
   [ 9.84544959e-03  4.90468368e-02  2.16993466e-01 ...  3.48717779e-01
     1.04332238e-01  1.84127670e-02]
   ...
   [-2.83560958e-02  1.84042398e-02  9.86470878e-02 ... -1.17399871e-01
    -2.57603168e-01 -1.54506922e-01]
   [ 2.07663588e-02 -2.62859208e-03 -3.78245153e-02 ...  2.41411939e-01
     2.43448958e-01  1.17957450e-01]
   [ 7.46839854e-04  7.76774716e-04 -1.00502959e-02 ... -1.48649633e-01
    -1.17536455e-01 -3.83497998e-02]]]


 [[[-4.41544922e-03 -4.06447472e-03  3.15890298e-03 ... -3.70264687e-02
    -2.51577571e-02 -4.79449034e-02]
   [ 5.13104387e-02  5.34019992e-02  8.04356337e-02 ...  1.44799873e-01
     1.42872006e-01  1.23124696e-01]
   [-7.33367167e-03  2.17552902e-03  3.75804007e-02 ...  6.15173243e-02
     8.03241059e-02  1.17152534e-01]
   ...
   [-2.67537534e-02 -1.22973405e-01 -1.36528090e-01 ... -1.40680373e-01
    -1.11554153e-01 -4.95556854e-02]
   [ 2.35237014e-02 -1.72883514e-02 -1.11224009e-02 ... -1.88255329e-02
    -2.33195107e-02 -2.94735525e-02]
   [ 2.86887418e-02  2.16587912e-02  4.78883348e-02 ...  2.54977681e-02
     3.53457108e-02  1.12798279e-02]]

  [[ 4.69187129e-04  1.21525778e-02  4.20348495e-02 ...  4.64027524e-02
     4.04228829e-02 -1.44389598e-02]
   [ 4.34633493e-02  6.87785372e-02  1.32675707e-01 ...  2.86058962e-01
     2.69051641e-01  2.09349096e-01]
   [-5.76209389e-02 -2.26417035e-02  3.05469763e-02 ...  1.37627378e-01
     1.65376350e-01  1.79464340e-01]
   ...
   [-1.08164437e-01 -2.52273858e-01 -2.97422051e-01 ... -2.85028785e-01
    -2.14933053e-01 -1.03198312e-01]
   [ 4.07091565e-02 -3.27706002e-02 -6.34504855e-02 ... -9.23602581e-02
    -6.98757172e-02 -4.98408936e-02]
   [ 8.29421282e-02  8.75795111e-02  1.01114720e-01 ...  5.27144223e-02
     6.09681867e-02  4.11979072e-02]]

  [[-1.63907371e-02 -1.38701471e-02  5.28098177e-03 ...  4.36979905e-02
     2.27074679e-02 -4.59831804e-02]
   [ 3.32022607e-02  4.20135558e-02  9.34995189e-02 ...  2.61617213e-01
     2.29698762e-01  1.66935205e-01]
   [-4.59871292e-02 -1.63650718e-02  2.68111173e-02 ...  1.49513558e-01
     1.32159531e-01  1.35789618e-01]
   ...
   [-7.21294358e-02 -1.89023703e-01 -2.33891174e-01 ... -1.90375045e-01
    -1.56090751e-01 -7.59736374e-02]
   [ 5.11608273e-02 -2.58150715e-02 -6.93574846e-02 ... -5.89988343e-02
    -6.15504868e-02 -4.45553176e-02]
   [ 1.11741364e-01  7.89792091e-02  6.58485889e-02 ...  3.16172168e-02
     2.52212957e-02  7.42566772e-03]]]


 [[[-7.08255925e-08 -6.43061711e-08 -7.38059782e-08 ... -9.79999797e-08
    -1.09046582e-07 -8.34209501e-08]
   [-6.11253714e-09  2.06126383e-09 -8.09221667e-09 ... -4.98404695e-08
    -4.38357937e-08 -3.05376502e-09]
   [ 7.19528899e-08  7.56161072e-08  5.92821792e-08 ... -9.75090675e-09
    -1.09507414e-09  4.24423625e-08]
   ...
   [ 9.58887085e-08  1.00390203e-07  7.98171769e-08 ... -1.74907768e-08
    -4.76658819e-08 -1.32652547e-08]
   [ 1.29039933e-07  1.47616902e-07  1.74766029e-07 ...  1.32325141e-07
     1.06284297e-07  9.33156841e-08]
   [ 1.25584677e-07  1.36442040e-07  1.84310352e-07 ...  2.13986411e-07
     1.77096226e-07  1.71659892e-07]]

  [[-1.26900616e-07 -9.61386348e-08 -1.03717625e-07 ... -1.18081722e-07
    -1.33090793e-07 -1.08195458e-07]
   [-5.74124250e-08 -2.50548187e-08 -3.01148120e-08 ... -7.29221199e-08
    -6.70224978e-08 -2.25741150e-08]
   [ 2.18129550e-08  4.86084524e-08  3.12216315e-08 ... -1.86939424e-08
    -7.95906097e-09  3.97501196e-08]
   ...
   [ 5.60132492e-08  7.55256622e-08  4.44957315e-08 ... -4.41277557e-08
    -5.99301160e-08 -1.82472188e-08]
   [ 7.76138194e-08  9.83476696e-08  1.04548796e-07 ...  6.32717629e-08
     4.17807478e-08  4.59011034e-08]
   [ 5.98335106e-08  7.10060988e-08  9.04370125e-08 ...  1.16542104e-07
     8.75504895e-08  9.88368924e-08]]

  [[-4.38100969e-08  1.32701627e-08  7.82754750e-09 ... -5.88044857e-09
    -2.62172293e-08 -1.56494835e-08]
   [ 4.16999981e-08  1.07775193e-07  1.09462299e-07 ...  7.64030332e-08
     7.14500743e-08  9.76147021e-08]
   [ 1.04358712e-07  1.65855937e-07  1.59331947e-07 ...  1.35172414e-07
     1.34871996e-07  1.64485272e-07]
   ...
   [ 9.87634934e-08  1.50724290e-07  1.25466215e-07 ...  6.83155363e-08
     6.83818513e-08  1.13668818e-07]
   [ 9.14345080e-08  1.35758540e-07  1.37933682e-07 ...  1.16783120e-07
     1.17228772e-07  1.43941719e-07]
   [ 6.21827638e-08  8.81841871e-08  1.04564080e-07 ...  1.39408755e-07
     1.33325230e-07  1.58439391e-07]]]


 ...


 [[[-6.18959889e-02 -3.02062165e-02  1.92251690e-02 ...  4.36647572e-02
    -2.21139006e-02 -4.22141068e-02]
   [-3.80606875e-02  6.07736176e-03  4.57970276e-02 ...  9.60289463e-02
     5.92543483e-02  2.99581569e-02]
   [-2.96724383e-02  2.77664955e-03  2.04570945e-02 ...  5.98279424e-02
     4.14222479e-02  2.31343303e-02]
   ...
   [ 1.19159855e-02  4.57008369e-02  4.48921397e-02 ...  4.74194251e-02
     2.22736206e-02 -5.49928332e-03]
   [-3.24675888e-02 -1.22095039e-02  2.20228154e-02 ...  5.80613390e-02
    -7.50331115e-03 -5.97356446e-02]
   [-4.33138832e-02 -2.81623844e-02 -5.91259729e-03 ...  8.84601623e-02
     8.44061840e-03 -5.00187576e-02]]

  [[-6.12921007e-02 -1.40039856e-02  1.72292739e-02 ...  1.83485411e-02
    -3.27079184e-02 -4.10595760e-02]
   [-3.15064266e-02  2.44596470e-02  4.55163121e-02 ...  6.68062270e-02
     4.66866978e-02  3.32477652e-02]
   [-3.22164223e-02  2.07181312e-02  2.33427119e-02 ...  3.52654569e-02
     3.64779048e-02  3.12914699e-02]
   ...
   [ 1.77394412e-02  6.10403121e-02  4.82467413e-02 ...  3.77850793e-02
     2.88937818e-02  1.39844017e-02]
   [-1.08897937e-02  2.20786426e-02  4.27373610e-02 ...  6.02471195e-02
     1.61973611e-02 -1.24926353e-02]
   [-2.22842228e-02  1.32196667e-02  3.08968853e-02 ...  1.04033783e-01
     4.01190370e-02 -5.33097656e-03]]

  [[-8.53216648e-02 -4.26034331e-02  6.81449426e-03 ...  3.07509620e-02
    -3.48184444e-02 -4.99447323e-02]
   [-2.92147808e-02  1.81646701e-02  5.10917716e-02 ...  9.02002379e-02
     5.34377545e-02  4.01689932e-02]
   [-3.99319753e-02 -1.11000857e-03  9.61759035e-03 ...  2.41135377e-02
     2.62980182e-02  2.54888162e-02]
   ...
   [-3.18897632e-03  3.04543786e-02  1.63163170e-02 ...  5.50542399e-03
    -6.26886589e-03 -8.46376922e-03]
   [-2.29949225e-02 -2.82112625e-03  2.32031066e-02 ...  3.58882472e-02
    -1.42963966e-02 -3.24192196e-02]
   [-9.88942105e-03  7.05419807e-03  1.06591685e-02 ...  7.04952031e-02
     1.29961446e-02 -8.34174082e-03]]]


 [[[-7.86986947e-03  1.99110340e-02  3.42082307e-02 ...  2.86937729e-02
     1.28200939e-02  1.81421936e-02]
   [ 8.79424438e-03 -3.28754634e-02 -3.57130840e-02 ...  7.25334212e-02
     4.58892770e-02  5.23831472e-02]
   [-3.61219235e-02 -1.18783817e-01 -1.37665018e-01 ...  3.38111594e-02
     3.78059186e-02  2.69435700e-02]
   ...
   [ 1.73219480e-02  3.95891396e-03 -8.22687801e-03 ...  2.75430735e-03
     1.83131695e-02  1.60573144e-02]
   [-9.50069749e-04  1.64283551e-02  1.71559546e-02 ...  3.36719025e-03
     2.28573643e-02  6.57825207e-04]
   [ 6.17269706e-03  2.71449108e-02  1.43402126e-02 ...  7.58674741e-03
     1.87701210e-02  1.56242484e-02]]

  [[-1.34233981e-02 -5.06963348e-04  8.09592940e-03 ... -6.09628158e-03
     9.23413783e-03  1.57506131e-02]
   [-1.83428340e-02 -6.79823384e-02 -7.06852525e-02 ...  2.98554841e-02
     2.62637381e-02  2.37733498e-02]
   [-5.43590896e-02 -1.46625280e-01 -1.62112728e-01 ...  1.17812213e-02
     3.24773267e-02  1.19799618e-02]
   ...
   [ 8.36862251e-04 -1.75638851e-02 -1.95349175e-02 ... -4.13817493e-03
     2.46576872e-02  1.28927017e-02]
   [-6.31829374e-04  1.17881205e-02  2.48103458e-02 ...  6.11054245e-03
     3.92103046e-02  9.66964010e-03]
   [-7.18314108e-03  6.69179251e-03  5.27234608e-03 ... -7.60772778e-03
     2.72529256e-02  1.77347101e-02]]

  [[-2.37525732e-04 -4.93425271e-03  2.29912158e-03 ... -4.79575321e-02
    -2.61544343e-02 -2.35251077e-02]
   [-3.30529147e-04 -5.15019782e-02 -5.99774159e-02 ... -1.73687786e-02
    -2.33372916e-02 -3.73122953e-02]
   [-2.26742327e-02 -9.94124413e-02 -1.11760668e-01 ... -1.17246499e-02
    -8.37444142e-03 -4.06151451e-02]
   ...
   [ 1.14366515e-02 -8.03133566e-03 -1.49554946e-03 ... -3.41327079e-02
    -8.72666948e-03 -2.35259868e-02]
   [ 2.95217149e-03  6.77699863e-04  1.99329928e-02 ... -2.20019575e-02
     1.48137799e-02 -1.44867664e-02]
   [-1.90853141e-02 -2.94298362e-02 -2.32837927e-02 ... -4.85872105e-02
    -1.30492402e-02 -2.43681818e-02]]]


 [[[-3.62960026e-02  7.19964923e-03  1.91004705e-02 ...  1.96015965e-02
     1.48704471e-02 -1.72981713e-02]
   [-1.10605936e-02  8.56652185e-02  1.26670912e-01 ...  1.37441559e-02
    -5.50358673e-05 -3.01621687e-02]
   [ 1.13218442e-01  1.86340690e-01  5.06582409e-02 ... -1.73326597e-01
    -7.20410421e-02 -6.24741353e-02]
   ...
   [-5.30620553e-02 -2.57809967e-01 -2.67472982e-01 ...  2.67807007e-01
     1.43442497e-01  5.51452339e-02]
   [-2.10086573e-02 -2.99689230e-02  1.02446362e-01 ...  2.08431229e-01
    -4.15184209e-03 -3.81182134e-02]
   [-2.21554693e-02  1.23802889e-02  8.43015537e-02 ... -4.49915268e-02
    -1.46874920e-01 -9.08901840e-02]]

  [[-5.39685274e-03  3.27991173e-02  1.54856332e-02 ... -7.74509693e-03
     3.02292476e-03  1.12164102e-03]
   [ 6.17226921e-02  1.48987576e-01  1.46449983e-01 ... -2.88972668e-02
    -2.02270858e-02 -9.18778591e-03]
   [ 1.61458209e-01  2.08861113e-01 -2.55890042e-02 ... -2.72777557e-01
    -1.07354373e-01 -6.29712045e-02]
   ...
   [-1.37226492e-01 -4.08630282e-01 -3.85510594e-01 ...  4.08456713e-01
     2.62018144e-01  1.34911031e-01]
   [-5.93877137e-02 -6.11872971e-02  1.41966507e-01 ...  3.57799590e-01
     9.08933952e-02 -1.73917355e-03]
   [ 7.86126684e-03  5.84031455e-02  1.53385386e-01 ...  4.70448919e-02
    -1.00952394e-01 -9.79195312e-02]]

  [[-5.67989750e-03  1.34250745e-02 -2.64611989e-02 ...  4.48813755e-03
     2.06658174e-03  1.39018288e-02]
   [ 6.59430120e-03  4.51813675e-02  6.02603815e-02 ...  1.43675376e-02
    -5.07247448e-03  4.05052630e-03]
   [ 5.52570038e-02  1.23974383e-01  4.31931019e-02 ... -1.44855112e-01
    -7.44885206e-02 -5.75329512e-02]
   ...
   [-3.15132923e-02 -1.63338572e-01 -1.57948330e-01 ...  2.29039595e-01
     1.20172620e-01  7.19984472e-02]
   [-1.04558002e-02 -1.12477632e-03  8.45818743e-02 ...  1.57484815e-01
     2.21423395e-02 -1.00825056e-02]
   [-4.86388523e-03 -5.00652753e-03  3.63407098e-02 ... -2.43614614e-02
    -7.11945146e-02 -6.67875111e-02]]]]"
bn1.weight,"(64,)","[ 2.3487274e-01  2.6625794e-01 -5.1095959e-08  5.1869971e-01
  3.4404020e-09  2.2238529e-01  4.2288706e-01  1.3153240e-07
  2.5093165e-01  1.5152026e-06  3.1687164e-01  2.5049183e-01
  3.7892610e-01  1.0861835e-05  2.7526399e-01  2.3674104e-01
  2.4202177e-01  3.9531481e-01  4.6934628e-01  2.9089570e-01
  2.7268419e-01  2.7802828e-01  2.9069209e-01  2.0692749e-01
  2.5899038e-01  2.7871057e-01  2.9114953e-01  3.1601375e-01
  3.8889149e-01  3.0411190e-01  2.6775721e-01  2.1092516e-01
  2.8708413e-01  3.3242643e-01  4.2672804e-01  3.7326056e-01
  7.4803758e-08  1.9067812e-01  1.4740126e-08  2.2302982e-01
  1.7907941e-01  2.4860077e-01  2.7399528e-01  2.5922865e-01
  2.9420221e-01  2.9923642e-01  2.2368884e-01  2.6279947e-01
  2.2001148e-08  2.6609808e-01  2.2089030e-01  2.8428552e-01
  3.3072332e-01  2.2680953e-01  3.6538091e-01  2.1229881e-01
  2.3965302e-01  2.4949576e-01  5.2583069e-01  2.4824758e-01
  2.9565275e-01  2.5877666e-01  4.8325640e-01  2.6670444e-01]"
bn1.bias,"(64,)","[ 2.3071715e-01  2.5382248e-01 -1.0542981e-06 -6.6438890e-01
 -1.6570555e-08  1.6152193e-01  4.5450395e-01 -4.3019500e-07
  3.0051374e-01 -8.0052396e-06  3.4941807e-01  3.1148061e-01
 -2.4952976e-01 -3.4748900e-05  1.0772631e-01  2.1897066e-01
  3.8141260e-01 -5.2988213e-01 -6.2864411e-01  5.7139808e-01
  2.9984692e-01  5.8430374e-01  4.8202154e-01  3.2852635e-01
  1.9671701e-01  1.9496180e-01  1.5214542e-01  8.5522361e-02
  5.1314282e-01  1.5236735e-02  1.6644177e-01  3.3239439e-01
  2.4921124e-01  4.4336668e-01 -2.8016928e-01 -2.0384802e-02
 -2.4506875e-07  3.2134050e-01 -4.9151744e-08  2.3776731e-01
  2.3290773e-01  3.1527463e-01  4.2776239e-01  2.9312754e-01
  2.6379424e-01  6.7597586e-01  4.2910039e-01  3.4566274e-01
 -8.6909019e-08  2.4729437e-01  3.0316085e-01  6.1577278e-01
  3.9834857e-01  3.3206734e-01 -4.1218781e-01  3.7806904e-01
  1.7895341e-01  2.5747788e-01 -4.4907972e-01  2.1305895e-01
  5.6933904e-01  5.7274300e-01 -4.0238348e-01  2.3406373e-01]"
layer1.0.conv1.weight,"(64, 64, 3, 3)","[[[[ 5.75934201e-02 -9.51143578e-02 -2.02723220e-02]
   [-7.45558813e-02 -7.99308002e-01 -2.12835982e-01]
   [ 6.55706897e-02 -9.65336710e-02 -1.21106114e-02]]

  [[-6.99444208e-03  1.42659554e-02  5.58240572e-04]
   [ 4.12380472e-02 -1.61253259e-01 -2.32077949e-02]
   [ 3.28868325e-03  7.17785861e-03  7.16863573e-02]]

  [[-2.36272957e-09 -3.92696933e-08 -3.29712115e-08]
   [ 2.17368665e-08  8.32994651e-09  1.25426221e-08]
   [ 1.13815046e-08  8.80957973e-09  1.55057229e-08]]

  ...

  [[-3.69205624e-02  1.82939693e-02 -2.93581858e-02]
   [-9.86146554e-02 -4.36452292e-02 -5.27168550e-02]
   [-7.96350837e-02  2.93956567e-02  4.14791657e-03]]

  [[ 1.69476271e-02  1.39781917e-02  9.67274886e-03]
   [ 1.42972823e-02 -6.69846428e-04 -2.20768396e-02]
   [ 1.23980548e-02  3.54540795e-02 -2.23198123e-02]]

  [[-2.26000585e-02 -2.53305454e-02 -2.35475749e-02]
   [ 6.08603396e-02 -9.67791677e-02  2.40574460e-02]
   [-1.27502624e-02  9.22368318e-02  4.01519518e-03]]]


 [[[ 2.21600421e-02  4.21767831e-02 -1.64281689e-02]
   [-2.96666697e-02  5.68646416e-02  2.54864376e-02]
   [ 4.38474398e-03  5.11883534e-02  1.04364576e-02]]

  [[ 2.53418591e-02  5.43737970e-02  5.38882874e-02]
   [-2.83343568e-02 -2.01388508e-01 -5.63582294e-02]
   [ 5.67742810e-02  7.41876811e-02  2.15852540e-02]]

  [[-3.14577129e-08  3.53353862e-08  5.37908100e-08]
   [-2.68960179e-08  5.15296001e-08  5.44796173e-08]
   [-3.84867285e-08 -1.12340492e-08 -7.57868435e-09]]

  ...

  [[-1.27538517e-01  4.35521193e-02 -6.56065345e-02]
   [-6.04622252e-02  1.59887567e-01 -7.70695414e-03]
   [-9.42020267e-02  5.07500879e-02 -7.81538263e-02]]

  [[-3.33085768e-02  1.66313839e-03 -8.84967111e-03]
   [ 1.55527731e-02 -5.82766272e-02 -2.74369884e-02]
   [ 1.31257782e-02 -3.02675441e-02 -2.16605212e-03]]

  [[-4.23132395e-03  3.45170498e-02  3.81926261e-03]
   [ 5.43174483e-02 -1.24567775e-02  3.28997709e-02]
   [ 2.19999492e-04  1.60398185e-02  1.27641037e-01]]]


 [[[-3.52470055e-02  8.07478279e-03  2.03531682e-02]
   [ 1.73435695e-02 -2.43204460e-02 -1.55108617e-04]
   [-2.76335748e-04  2.80242078e-02 -2.37773149e-03]]

  [[-2.37414651e-02 -3.20574897e-03 -5.70589583e-03]
   [-1.15815243e-02  1.72002101e-03  2.10674610e-02]
   [ 4.36059060e-03 -4.64589261e-02 -7.29540512e-02]]

  [[ 3.10022159e-08  5.35681401e-08  3.18728759e-08]
   [-1.60628986e-08 -1.80720718e-08 -1.95075711e-09]
   [-5.83393955e-08 -4.53659688e-08 -1.23951072e-08]]

  ...

  [[-1.96886738e-03 -2.68087517e-02 -4.37603220e-02]
   [ 2.45175976e-02 -2.83960979e-02 -3.58955786e-02]
   [-1.78832444e-04 -2.46611312e-02 -2.00847611e-02]]

  [[ 2.15508994e-02  2.27886741e-03 -2.58232094e-02]
   [ 2.32718885e-02 -7.93330651e-03 -2.08138442e-03]
   [-5.70624322e-03 -2.69336477e-02 -1.44205485e-02]]

  [[-1.96738727e-02  2.79144645e-02 -2.00248566e-02]
   [ 6.32224455e-02 -3.90772782e-02 -3.32198548e-03]
   [-2.74335872e-02  1.13903694e-02 -3.16078938e-03]]]


 ...


 [[[ 4.34399117e-03 -7.69700622e-03 -6.49499148e-02]
   [ 1.38460509e-02 -2.28025801e-02 -4.64782715e-02]
   [ 2.77761873e-02  1.60796978e-02 -1.33631853e-02]]

  [[ 4.73786220e-02 -2.49820668e-02 -2.76052095e-02]
   [ 7.00908005e-02  4.20836080e-03 -1.08050577e-01]
   [ 1.75255090e-02  4.56471927e-02  7.88099319e-03]]

  [[ 2.66801137e-09  2.76706889e-08  2.47016558e-08]
   [ 6.39048370e-09  4.10204315e-08  3.36311494e-08]
   [ 5.83346305e-09  1.33336515e-08  9.66038449e-09]]

  ...

  [[ 4.58998326e-03  4.70841005e-02 -8.69490951e-03]
   [-6.30112877e-03  5.95853999e-02  5.86671848e-03]
   [-2.02546325e-02  4.32847589e-02  4.50942200e-03]]

  [[ 1.12528598e-03 -5.74606238e-03 -6.84112404e-03]
   [ 6.06155768e-03  7.32949004e-03 -1.17841410e-02]
   [-1.14546565e-03  5.18681621e-03 -1.98674556e-02]]

  [[ 1.75288059e-02  4.46060821e-02 -2.65954826e-02]
   [ 2.21016724e-02  4.58568260e-02  2.33466774e-02]
   [ 1.80522073e-02  5.96894585e-02  1.71294417e-02]]]


 [[[-2.91116126e-02  3.42418230e-03 -1.75231528e-02]
   [-2.36818045e-02  2.27158144e-02 -3.83010693e-02]
   [-1.03077013e-02 -4.38016327e-03 -2.35818252e-02]]

  [[-4.96070422e-02 -3.27243749e-03 -1.53454402e-02]
   [-1.35236755e-02  5.48424050e-02  1.11873783e-02]
   [-2.35492121e-02 -2.84945332e-02 -6.63710237e-02]]

  [[-4.98043029e-08 -2.82106889e-08 -2.05829149e-08]
   [-5.23889447e-08 -2.85222672e-08 -3.50993403e-08]
   [-3.21705080e-08 -3.41100090e-08 -4.31534026e-08]]

  ...

  [[ 3.44868121e-03  2.65324246e-02 -1.12018045e-02]
   [ 7.09245214e-03  3.79033349e-02 -3.24813202e-02]
   [ 4.13811244e-02  3.23288664e-02  2.83085159e-03]]

  [[-6.59551239e-03  1.64757036e-02  2.18104683e-02]
   [-1.22930901e-02  2.23104320e-02  1.26450686e-02]
   [-8.98966938e-03  1.19484053e-03 -5.23904013e-03]]

  [[-2.52945931e-03  7.26888031e-02 -7.80457165e-03]
   [-4.22206707e-02  7.97555521e-02 -2.77380086e-02]
   [ 4.67160717e-03 -5.65955602e-02 -8.22606757e-02]]]


 [[[ 5.22350371e-02  3.52311693e-03 -3.31309810e-02]
   [ 3.10481116e-02  1.61934365e-02  1.72833987e-02]
   [ 1.44464877e-02  2.43017264e-02 -1.96885457e-03]]

  [[-2.47167684e-02  8.30093026e-03 -6.13361746e-02]
   [-1.61339752e-02  5.53231612e-02 -6.50286525e-02]
   [-2.47147754e-02  1.00297097e-03  3.24372500e-02]]

  [[ 1.84964808e-08  5.27977262e-09  4.18195967e-08]
   [ 3.74893787e-08  2.54502535e-08  3.04191055e-08]
   [ 1.12459153e-08 -5.69558489e-09 -2.00075707e-08]]

  ...

  [[ 7.11944187e-03 -4.10515890e-02 -1.00023355e-02]
   [ 2.59236842e-02 -6.38194457e-02  1.33662801e-02]
   [ 2.97512002e-02 -7.94759672e-03  1.40068037e-02]]

  [[-2.51658610e-03  2.20513325e-02 -1.99667439e-02]
   [-5.94356619e-02  4.38717641e-02  2.68319361e-02]
   [-1.75090544e-02  2.46247463e-02  2.48224027e-02]]

  [[ 3.58318686e-02 -7.03570843e-02  3.94518441e-03]
   [-2.98352670e-02  9.27273035e-02  1.93355568e-02]
   [-2.91453805e-02 -9.70868766e-03 -7.33881891e-02]]]]"
layer1.0.bn1.weight,"(64,)","[0.30904347 0.21471116 0.23657668 0.4259314  0.51368606 0.21810919
 0.22044054 0.22995344 0.26400554 0.26945144 0.21377763 0.4601909
 0.2660884  0.23189785 0.39003223 0.23885475 0.2660451  0.36344817
 0.34741256 0.24770059 0.328453   0.5349346  0.6440201  0.22749355
 0.44818085 0.30781728 0.26041228 0.46506807 0.21794625 0.2858154
 0.34256172 0.44199678 0.44497675 0.45001867 0.5515507  0.5092067
 0.2564455  0.26341885 0.56635106 0.6409561  0.22275682 0.1986017
 0.24595416 0.22420111 0.21431126 0.19821618 0.6367656  0.31055483
 0.50492764 0.24027455 0.30649382 0.37598613 0.37938052 0.42806414
 0.29908192 0.33263206 0.2596467  0.3345328  0.200566   0.43505564
 0.16826025 0.5149379  0.26288274 0.32537037]"
layer1.0.bn1.bias,"(64,)","[ 0.16566068  0.24195947  0.1779647  -0.04313764 -0.20533106  0.15975054
  0.2929358   0.09117772  0.1116466   0.08837336  0.11041377 -0.2035236
  0.15392862  0.0857195  -0.10939843  0.06544987  0.07659455 -0.20668721
 -0.02118567  0.13963729  0.04012493 -0.2827498  -0.32570592 -0.00346554
 -0.43730137 -0.12484497  0.1282429  -0.08739348  0.11992205 -0.08292984
 -0.5315352  -0.078031   -0.38762727 -0.05465624 -0.18155491 -0.18884978
  0.13201167  0.00313513 -0.26971433 -0.29838964  0.13935222  0.2596566
  0.13724539  0.00526427  0.01315024  0.32945564 -0.27150694 -0.01867434
 -0.2466977   0.15794235  0.01646021 -0.08904935 -0.19027822 -0.07867438
  0.17001297 -0.48318288  0.06192143 -0.06770972  0.31246504 -0.50639576
  0.3138132  -0.26173487 -0.15449312  0.00628101]"
layer1.0.conv2.weight,"(64, 64, 3, 3)","[[[[ 2.59467717e-02 -1.04575627e-01 -4.77123726e-03]
   [-8.62231702e-02 -3.30207676e-01 -1.02752648e-01]
   [-5.74257113e-02 -1.90744564e-01 -5.46462275e-02]]

  [[-1.69512555e-02  2.13844236e-02 -2.10742443e-03]
   [-3.29830614e-03  4.50140722e-02 -1.15102641e-02]
   [-5.96018024e-02  6.49416959e-03  2.90800165e-03]]

  [[-4.49026702e-03  1.96369942e-02  1.31672472e-02]
   [ 1.30499694e-02 -7.74711277e-03  1.19314278e-02]
   [ 1.34536605e-02  1.11028189e-02  5.51453978e-03]]

  ...

  [[ 1.27056451e-03 -7.74378702e-03  2.07533874e-02]
   [-4.00239341e-02 -4.03826721e-02 -3.48209515e-02]
   [-2.02512927e-02 -9.51639097e-03  1.39543964e-02]]

  [[-2.34304299e-03  3.23028304e-02 -4.33415547e-03]
   [ 8.61938577e-03  1.05526615e-02  1.80736673e-03]
   [-1.27603440e-02 -1.02316812e-02  4.57114214e-03]]

  [[ 1.53017184e-02  2.13610530e-02 -7.09078414e-03]
   [-1.42206158e-02  4.59790155e-02  2.13693250e-02]
   [ 3.13123390e-02  6.64284006e-02  2.14647297e-02]]]


 [[[ 5.34219220e-02  4.05154414e-02  9.66800470e-03]
   [ 3.28842290e-02 -2.34740656e-02  3.46415453e-02]
   [-1.28612863e-02  5.00664264e-02  5.45791611e-02]]

  [[ 2.87642106e-02  4.34314050e-02  2.82576829e-02]
   [ 2.87340414e-02 -3.54590267e-02 -5.27884290e-02]
   [-5.51186018e-02 -7.18126222e-02 -8.29704776e-02]]

  [[ 9.52925086e-02  1.25490576e-01 -6.40014187e-02]
   [-4.11655568e-02 -9.04800021e-04  5.13866246e-02]
   [-1.13107197e-01 -7.98226669e-02  1.43725708e-01]]

  ...

  [[-7.69236265e-03  2.06471384e-02  1.95208881e-02]
   [-6.73518935e-03  1.26014173e-04  4.83091781e-03]
   [-6.24048710e-03 -9.21193976e-03 -2.58058019e-04]]

  [[-2.61533055e-02 -2.46412456e-02  4.09703851e-02]
   [-1.91640444e-02 -1.01598632e-02  3.31631787e-02]
   [ 5.42003894e-03  9.04853747e-04  6.77990087e-04]]

  [[ 7.77615886e-03  2.64470186e-02  6.36500642e-02]
   [-3.06077674e-02  2.49585751e-02  1.29514048e-02]
   [-2.09379140e-02 -7.73419440e-03 -3.87903862e-02]]]


 [[[ 1.08925672e-02 -1.44093717e-02  1.57304797e-02]
   [ 1.66548081e-02  4.45352904e-02  6.32117018e-02]
   [ 3.41209322e-02  7.31353015e-02  5.92034720e-02]]

  [[ 2.31952081e-03  7.75977457e-03  2.03079768e-02]
   [ 2.04574373e-02  4.00290824e-02  3.47440876e-02]
   [-4.73559424e-02 -3.72857787e-02  1.45422472e-02]]

  [[-2.27415357e-02 -1.89997461e-02 -8.43166001e-03]
   [-9.87588777e-04  2.15100534e-02  6.39589923e-03]
   [-9.45583731e-03  2.68325675e-03 -3.11357863e-02]]

  ...

  [[-7.57872732e-03 -1.60562210e-02 -6.42039406e-04]
   [-5.51038235e-03  1.42517667e-02  4.50001173e-02]
   [-9.27995052e-03  2.23512519e-02  4.17276099e-02]]

  [[ 2.57050376e-02  4.82073463e-02  7.91450068e-02]
   [-4.43504937e-03  3.88724450e-03  4.16942127e-02]
   [ 8.05362884e-04 -1.06011974e-02  9.27064195e-03]]

  [[-3.38924937e-02  9.35431756e-03  4.17457260e-02]
   [-1.64697785e-02  3.95419542e-03  6.24384582e-02]
   [-3.10552884e-02 -3.63015849e-03  7.08172768e-02]]]


 ...


 [[[-7.10444001e-05 -9.00198985e-03 -2.69975211e-03]
   [ 3.00724129e-03  1.15791298e-02  1.52142746e-02]
   [ 3.48324026e-03  1.13526166e-05  1.63195338e-02]]

  [[-2.63343696e-02  2.19668541e-02 -6.00390434e-02]
   [ 4.45185639e-02  1.32026941e-01 -9.11626406e-03]
   [ 5.42419516e-02  1.37260914e-01  2.74539124e-02]]

  [[ 1.71221197e-02  3.76459095e-03  1.48724150e-02]
   [ 1.20917149e-02  1.13192108e-02  3.46665904e-02]
   [ 8.17901641e-03 -2.08053365e-02  2.71427929e-02]]

  ...

  [[-1.01110451e-02 -1.05258264e-02  2.83936672e-02]
   [-2.51124371e-02 -2.21962519e-02  3.72285470e-02]
   [-3.82197537e-02 -4.66444120e-02  1.56597830e-02]]

  [[-2.59132264e-03 -2.43065916e-02  1.06110424e-02]
   [-2.17301305e-02 -4.39380072e-02 -7.15358509e-03]
   [-2.51707584e-02 -5.94669729e-02 -2.55767647e-02]]

  [[ 2.86522172e-02  2.58503045e-04  1.14162208e-03]
   [ 3.78116146e-02 -1.12705387e-03  9.60266497e-03]
   [ 3.93495522e-02  1.01341447e-02  1.04493750e-02]]]


 [[[-7.93051813e-03  7.08718458e-03  2.14120150e-02]
   [-6.00652881e-02  1.41469063e-03  9.72806290e-02]
   [-6.01298846e-02 -2.17252728e-02  3.68633568e-02]]

  [[ 2.80239414e-02  2.61832383e-02 -2.30269674e-02]
   [ 5.18998131e-02 -2.05878331e-03 -1.09397478e-01]
   [-3.27291861e-02 -6.27522729e-03  8.06295965e-03]]

  [[-1.80618502e-02 -1.95096117e-02  4.31628525e-02]
   [ 4.60795686e-02  2.94935964e-02  4.08444069e-02]
   [ 5.96066797e-03 -6.58908160e-03 -6.46234304e-03]]

  ...

  [[ 2.21925098e-02  8.46528634e-03  3.67642310e-03]
   [ 1.75487716e-02  2.19710730e-02 -4.51076962e-03]
   [ 2.11236775e-02  3.45911980e-02 -1.63103864e-02]]

  [[ 3.81440930e-02  4.83949631e-02 -9.55558345e-02]
   [ 1.89226195e-02  1.13413241e-02 -7.63107166e-02]
   [ 4.73582046e-03  3.21375690e-02 -7.47769624e-02]]

  [[-1.90314911e-02 -3.25683095e-02 -3.82511355e-02]
   [ 1.07046980e-02  2.31206091e-03 -7.50783756e-02]
   [ 3.33164372e-02  3.55147086e-02 -2.10228655e-03]]]


 [[[-1.33302331e-01  7.46826008e-02 -3.86243453e-03]
   [ 9.13766474e-02  8.24145898e-02  3.94686870e-02]
   [-1.82647649e-02 -5.99432215e-02  8.93536955e-02]]

  [[ 1.55662596e-02 -4.17162105e-02  1.06334938e-02]
   [ 7.26442179e-03  3.19340564e-02  1.27322064e-03]
   [-2.08505336e-02 -3.75925889e-03 -7.01703057e-02]]

  [[-6.61390275e-02  1.06270202e-01  1.95902418e-02]
   [ 5.49870431e-02 -1.55520961e-01 -1.88192669e-02]
   [-4.25536232e-03  4.49637584e-02 -2.46317387e-02]]

  ...

  [[-6.16907477e-02 -4.55308966e-02 -9.17205308e-03]
   [ 4.39951718e-02  4.57027853e-02 -7.01077506e-02]
   [ 1.13883736e-02  4.46777232e-02 -4.59532440e-02]]

  [[ 4.34323912e-03  2.31935941e-02 -2.18945704e-02]
   [-8.02163184e-02 -5.76057732e-02 -9.84551013e-03]
   [-3.32849994e-02 -1.14680499e-01 -2.37786751e-02]]

  [[-6.37848675e-02 -2.44848821e-02 -4.90608849e-02]
   [-6.15941547e-02  1.03279173e-01  5.96848316e-03]
   [ 8.18628445e-02 -3.03135738e-02 -4.63728700e-03]]]]"
layer1.0.bn2.weight,"(64,)","[0.24962443 0.21977882 0.27561602 0.60728943 0.26540643 0.29421857
 0.11362951 0.44246158 0.28682813 0.29739252 0.25059265 0.4103396
 0.48545083 0.33827242 0.46696287 0.17724787 0.21708544 0.5025082
 0.22633667 0.36666015 0.48673514 0.45863083 0.4652377  0.21996845
 0.15104659 0.27614838 0.3813259  0.28034535 0.23817824 0.39533582
 0.30321002 0.31632736 0.20247103 0.2322767  0.2002758  0.166101
 0.46897325 0.3476413  0.34138253 0.22736076 0.24853356 0.23555605
 0.27262878 0.46566454 0.34294528 0.2464682  0.46743453 0.28119284
 0.6240867  0.41518667 0.3402817  0.4217769  0.11519239 0.29845902
 0.5802253  0.27954382 0.47057164 0.4517106  0.43028098 0.27486524
 0.34268796 0.11366502 0.5068849  0.43700093]"
layer1.0.bn2.bias,"(64,)","[ 2.27522671e-01  8.67469795e-03 -6.73464313e-02 -6.87786564e-02
  3.59774530e-01 -2.01667324e-01 -4.84308875e-05  2.37350836e-02
  3.95493448e-01  3.70788015e-02  6.87929848e-03  2.75777489e-01
 -7.02722743e-02 -2.39701733e-01 -8.17527696e-02 -9.41319019e-02
 -1.45435572e-01  3.73011380e-02 -3.61738533e-01 -3.95613879e-01
 -4.07890201e-01  3.55588389e-03 -2.78779745e-01 -3.52994949e-02
 -7.02812076e-02  2.10054979e-01 -4.63622808e-03 -1.96648031e-01
 -2.80660778e-01 -1.65403821e-02  2.64518470e-01 -8.93588439e-02
 -2.10460007e-01 -1.30260944e-01  1.72146529e-01  5.34028858e-02
 -2.22954467e-01 -4.80333492e-02  2.45716020e-01  2.09495202e-01
  1.62200242e-01  1.13698438e-01  1.14566460e-01 -1.48700580e-01
 -3.21504213e-02 -3.05487990e-01  4.91246611e-01  1.08730264e-01
  1.27790421e-02  1.00441806e-01  4.15533394e-01 -1.47098340e-02
  2.39223391e-02  9.98120382e-02 -1.72731474e-01  1.00781716e-01
 -1.45635694e-01 -2.27353871e-01  1.36365175e-01  2.01265752e-01
 -5.74304350e-02  2.35301927e-01 -1.12987444e-01  3.09330553e-01]"
layer1.1.conv1.weight,"(64, 64, 3, 3)","[[[[ 1.97119806e-02 -5.25622768e-03 -3.76188639e-03]
   [-1.96348075e-02 -1.23363221e-02 -3.51960137e-02]
   [ 5.07613234e-02  7.56680742e-02  4.33441177e-02]]

  [[ 1.41602596e-02 -8.60938616e-03 -1.05412016e-02]
   [-4.25857231e-02 -2.38143578e-02 -5.46936244e-02]
   [-1.40175910e-03  4.67203110e-02  5.08979969e-02]]

  [[ 2.15586293e-02  4.16325498e-03 -9.71178804e-03]
   [-9.32009704e-03 -2.54323129e-02 -2.82736495e-02]
   [-3.01068425e-02 -4.82298099e-02 -2.60012485e-02]]

  ...

  [[ 5.43003436e-03  9.18749571e-02  3.19381477e-03]
   [-1.79445222e-02  5.72661087e-02 -8.40975717e-03]
   [-3.49607430e-02 -2.32963003e-02 -3.50888483e-02]]

  [[ 2.56027859e-02 -3.16885784e-02 -5.41600399e-02]
   [ 6.97356313e-02 -1.07162297e-02 -6.80342913e-02]
   [ 3.55779156e-02  3.47488299e-02 -1.93338394e-02]]

  [[-6.54204711e-02 -4.64271940e-03 -2.33620014e-02]
   [ 7.58329108e-02  9.11736488e-03 -4.97006513e-02]
   [ 6.29444048e-02 -9.87347513e-02  3.31575014e-02]]]


 [[[-9.05568991e-03 -3.07532083e-02  1.19531369e-02]
   [-3.25393490e-02 -6.28455449e-03 -2.02352181e-02]
   [ 4.79964353e-03 -2.14617532e-02 -4.15573921e-03]]

  [[ 1.71634406e-02 -2.33026943e-03  7.39715621e-02]
   [-3.21048386e-02 -7.75360316e-02 -1.26477843e-02]
   [ 3.89851891e-02 -4.31700535e-02  1.09043494e-02]]

  [[-2.96426397e-02 -5.85335307e-02 -5.97356968e-02]
   [-2.94372067e-02 -3.64414304e-02 -1.23799695e-02]
   [-2.27754302e-02 -2.44846195e-03 -1.61237072e-03]]

  ...

  [[ 2.68301815e-02  1.42667089e-02  6.26575127e-02]
   [ 3.05852242e-04 -5.32412110e-03  3.27856070e-03]
   [ 2.10969578e-02 -2.31894571e-02  1.21020796e-02]]

  [[-6.11824691e-02 -2.92267203e-02  2.00358052e-02]
   [-7.60885403e-02 -7.70567060e-02  8.65435451e-02]
   [-3.92282270e-02 -3.23605947e-02 -8.89703855e-02]]

  [[-1.33721396e-01  8.83623213e-02  8.38364512e-02]
   [-1.16882687e-02  4.31556731e-01 -3.36291408e-03]
   [-2.39247791e-02 -1.00915782e-01 -1.01835392e-01]]]


 [[[ 8.01652521e-02  4.30423766e-02  2.73249298e-03]
   [ 3.52689475e-02 -1.55039234e-02 -3.50108072e-02]
   [-1.71642154e-02 -2.68271435e-02 -3.39459553e-02]]

  [[ 4.54390720e-02  5.15851453e-02  1.83213819e-02]
   [-3.96473296e-02  2.39564013e-02 -2.66092718e-02]
   [-3.03578004e-02 -6.47293180e-02  2.58340817e-02]]

  [[ 3.81047167e-02  4.09863442e-02  4.10053693e-02]
   [ 1.75841767e-02 -1.64940264e-02 -3.27164829e-02]
   [ 5.58860647e-03 -1.70675348e-02 -3.06046214e-02]]

  ...

  [[-1.36938304e-01 -1.40741751e-01  5.14228530e-02]
   [-1.25212535e-01 -1.31283060e-01  7.57330135e-02]
   [-4.50320430e-02 -1.70814916e-02  7.12515190e-02]]

  [[ 6.33805841e-02  1.58740506e-02 -2.73219384e-02]
   [ 8.03560466e-02  3.61037254e-02 -2.85061039e-02]
   [ 2.66383439e-02  2.20210906e-02  3.23448256e-02]]

  [[-1.20678125e-03 -4.61786613e-02 -1.53507730e-02]
   [-1.12757031e-02  1.91997513e-02  3.43362056e-02]
   [ 1.65404547e-02 -7.85920862e-03 -2.53924932e-02]]]


 ...


 [[[ 3.33842039e-02  6.99628145e-02  1.07446453e-02]
   [-1.75179858e-02 -5.35235107e-02 -6.49598539e-02]
   [ 3.42475309e-04 -4.55566011e-02 -4.73359823e-02]]

  [[-5.10305725e-03  7.97844213e-03 -8.65532900e-04]
   [-1.65566732e-03  1.46611854e-02  5.33653004e-03]
   [-3.17838006e-02 -6.69395253e-02 -4.68893684e-02]]

  [[-1.17754415e-02  7.27591990e-03  7.66223948e-03]
   [-6.12880848e-02 -5.20775728e-02 -4.51523326e-02]
   [-8.65838155e-02 -9.73814428e-02 -1.04053959e-01]]

  ...

  [[ 2.12433282e-02  6.24557696e-02  2.51879934e-02]
   [-2.29113605e-02 -2.11001979e-03 -2.75729727e-02]
   [ 4.65566590e-02  6.49800450e-02  3.18785943e-02]]

  [[ 6.28667558e-03  2.42548995e-02  8.96737054e-02]
   [-7.77179934e-03 -5.43113463e-02 -4.68428433e-02]
   [-6.74989726e-03 -6.68567494e-02 -4.98424061e-02]]

  [[ 4.73259669e-03 -3.95330228e-02  1.15000247e-03]
   [-2.79570241e-02 -1.34659514e-01 -6.07531480e-02]
   [-3.20100784e-03  7.22133368e-02  1.10086039e-01]]]


 [[[ 2.37627830e-02 -1.78755037e-02 -7.48430239e-03]
   [ 1.62386056e-02  5.44791284e-04 -3.37353125e-02]
   [-2.28544921e-02 -1.43159344e-03  1.10098533e-02]]

  [[ 5.22772269e-03 -2.59412313e-03  5.95944514e-03]
   [-2.90584168e-03 -7.34089734e-03  3.06524020e-02]
   [ 7.55402967e-02  6.64454838e-03  2.55182548e-03]]

  [[-6.59703985e-02 -4.12863232e-02 -3.02778222e-02]
   [-3.51078659e-02 -3.90994884e-02 -1.68181211e-02]
   [-1.02236886e-02 -8.69945250e-03 -5.99387917e-04]]

  ...

  [[ 2.12327354e-02 -2.45590620e-02 -7.44357146e-03]
   [-4.37337533e-03 -3.28641683e-02 -3.34533602e-02]
   [ 8.92693270e-03 -1.76455081e-02  3.83751496e-04]]

  [[-7.89301097e-02 -7.29399845e-02 -6.79107159e-02]
   [-8.41463655e-02 -8.36574510e-02  5.36664836e-02]
   [-3.55769731e-02 -3.68347950e-02  5.89873223e-03]]

  [[ 8.37667063e-02  8.04759184e-05  7.21639469e-02]
   [-6.42188564e-02 -1.26608282e-01  4.60256785e-02]
   [ 9.30332094e-02 -4.75214347e-02  3.67773883e-02]]]


 [[[ 4.10121158e-02  1.33609655e-03 -5.86162843e-02]
   [ 4.24614102e-02  2.94372998e-03 -2.04454511e-02]
   [ 7.60967284e-02  5.25044575e-02 -5.56362327e-03]]

  [[ 2.20460799e-02  4.08884417e-03  1.46454377e-02]
   [-7.75319859e-02 -1.19119793e-01 -7.08915368e-02]
   [-1.06181707e-02 -3.21209058e-02 -2.39685606e-02]]

  [[-2.16121636e-02 -2.61104852e-03 -3.16642560e-02]
   [-3.28924395e-02 -3.97708155e-02 -5.14634028e-02]
   [-2.61495467e-02 -3.65537927e-02 -2.33150609e-02]]

  ...

  [[ 4.45995666e-03  8.41812119e-02  2.31985729e-02]
   [ 5.75946644e-02  1.30359530e-01  3.21717076e-02]
   [-2.27737776e-03  4.20645513e-02 -4.86185178e-02]]

  [[ 3.15334536e-02 -4.36553806e-02  2.03605052e-02]
   [ 3.99733428e-03 -5.14303856e-02 -6.38391525e-02]
   [ 6.40019216e-03  4.53472249e-02  4.73461822e-02]]

  [[-9.18179378e-02  1.02637028e-02  9.65652391e-02]
   [-2.16349214e-03 -2.34520379e-02 -5.90375625e-02]
   [ 1.94015112e-02  2.88538523e-02 -9.61132646e-02]]]]"
layer1.1.bn1.weight,"(64,)","[0.3910128  0.4374745  0.37457034 0.3989934  0.34042612 0.3502755
 0.26183203 0.27068645 0.28650984 0.43075007 0.1894637  0.30412513
 0.38369617 0.29435593 0.2105274  0.33040622 0.29427108 0.28874874
 0.2059884  0.46265012 0.23349617 0.18309999 0.4488704  0.28297257
 0.33890325 0.29965848 0.35025263 0.2735009  0.39075452 0.28168577
 0.26360655 0.4462336  0.32815683 0.37759426 0.44708404 0.38775334
 0.2515908  0.31719398 0.36608532 0.31658855 0.3817594  0.31283477
 0.2273671  0.36271617 0.29021838 0.23807554 0.2987517  0.24687195
 0.3839693  0.28862104 0.31968144 0.28793883 0.3217516  0.4558596
 0.35002613 0.24198338 0.33956435 0.35188755 0.3838807  0.38056785
 0.4039355  0.2825681  0.45943385 0.3341851 ]"
layer1.1.bn1.bias,"(64,)","[-0.09972578 -0.4755167  -0.04736076 -0.26980418 -0.08344091 -0.00720118
  0.04742274  0.10215531 -0.01698177 -0.14714757  0.23065789  0.14466375
 -0.17751954  0.02726829  0.15587834 -0.18363205  0.12377801 -0.15220541
  0.05544687 -0.2881124  -0.26061875  0.2316429  -0.32424048 -0.0218676
 -0.26446778  0.05760393 -0.24646688  0.04814807 -0.3529581   0.09499829
 -0.18622164 -0.17069665 -0.0160546  -0.2604132  -0.31448722 -0.10827467
  0.06594295 -0.14271732 -0.05698877 -0.00758156 -0.30059272 -0.07439341
 -0.06826875 -0.11038908  0.02526178  0.04892118 -0.25153667  0.11503775
 -0.37832335  0.08458952 -0.03684223  0.1438839  -0.04680404 -0.3087212
 -0.02400576  0.13967529 -0.09079376 -0.17946893 -0.11288852 -0.07925168
 -0.14906906  0.05944574 -0.44332635 -0.01377509]"
layer1.1.conv2.weight,"(64, 64, 3, 3)","[[[[-2.15736944e-02 -4.56877612e-03  4.54826839e-03]
   [-8.18700157e-03  4.17396091e-02  2.30097380e-02]
   [-8.92831944e-03  5.73524870e-02  2.98175104e-02]]

  [[ 5.86268455e-02  4.28643003e-02  4.49118093e-02]
   [ 2.22811848e-02 -1.29687358e-02  7.60985678e-03]
   [ 4.53731492e-02  3.07118278e-02  3.77001762e-02]]

  [[-1.54556390e-02 -3.86916474e-02 -4.60102297e-02]
   [-2.31234506e-02  2.82932185e-02  4.77903010e-03]
   [-2.03282852e-02  1.37558021e-02  2.58830898e-02]]

  ...

  [[ 5.13015799e-02  4.22913469e-02  5.78327626e-02]
   [ 4.52101678e-02  5.58501221e-02  1.43180275e-02]
   [ 1.42407212e-02  1.79684591e-02  1.43439155e-02]]

  [[ 4.60116006e-03  1.25661483e-02  4.89306077e-02]
   [-6.57537114e-03 -2.64313556e-02  1.58552732e-02]
   [ 1.31923566e-02  1.90108605e-02  1.38416048e-02]]

  [[ 6.19826950e-02  6.99194670e-02  6.10345379e-02]
   [ 6.12527691e-02  9.95568857e-02  5.90596944e-02]
   [ 5.82977608e-02  8.16516653e-02  8.14986601e-02]]]


 [[[-1.00882389e-02 -1.29594309e-02  9.77976713e-03]
   [ 5.54077029e-02  4.35009189e-02  5.69828972e-02]
   [ 5.34266829e-02  3.51176448e-02  3.67815904e-02]]

  [[ 2.44419929e-03 -3.02067101e-02 -1.03773158e-02]
   [-4.52973731e-02 -4.53179106e-02  5.46226650e-03]
   [-4.47618850e-02 -1.55076142e-02  6.97454531e-03]]

  [[ 3.96577977e-02  3.68383229e-02  5.87959774e-03]
   [ 2.32072473e-02  3.92395956e-03 -2.08873060e-02]
   [-1.48293991e-02  5.36059076e-03  1.74044562e-03]]

  ...

  [[ 3.21595334e-02  5.90418987e-02  4.84332666e-02]
   [-2.64637545e-02 -8.06667749e-03 -1.03585357e-02]
   [-2.66991407e-02 -9.54106450e-03 -2.89015062e-02]]

  [[-2.92346273e-02 -3.90779823e-02 -4.49554995e-02]
   [-2.03455053e-02 -4.48910519e-02 -3.74771729e-02]
   [ 1.96525194e-02 -1.55615679e-03 -5.82454912e-03]]

  [[-5.06963246e-02 -4.89020981e-02  9.16308444e-03]
   [ 5.16684214e-03  2.05085129e-02  6.68739602e-02]
   [ 2.89340820e-02  4.67170291e-02  2.13711765e-02]]]


 [[[ 2.17443109e-02 -2.83544362e-02 -3.25574465e-02]
   [ 3.05192173e-02  1.85358934e-02  1.52440295e-02]
   [ 1.38316234e-03  1.70506109e-02  3.20204869e-02]]

  [[-3.62925269e-02  1.09144943e-02  4.53710407e-02]
   [ 1.33992434e-02  6.42721578e-02  8.82097632e-02]
   [ 4.66971397e-02  9.96530801e-02  8.76064822e-02]]

  [[-2.43357327e-02 -2.96269469e-02  1.95370950e-02]
   [-3.34124006e-02 -2.22903620e-02 -2.88787466e-02]
   [ 1.47651229e-02  1.72341634e-02 -1.81852207e-02]]

  ...

  [[-3.98587063e-02 -7.10749254e-02 -5.85462600e-02]
   [ 2.29024682e-02  1.11844130e-02 -2.36537103e-02]
   [ 8.18974674e-02  1.19963631e-01  9.32420418e-02]]

  [[ 3.19838859e-02  7.49313533e-02  6.60201833e-02]
   [ 2.84895077e-02  1.19310170e-01  1.20999739e-01]
   [ 7.92593521e-04  4.38119546e-02  4.46482711e-02]]

  [[ 3.27477716e-02  4.14438359e-02 -8.19321256e-03]
   [ 4.55413312e-02  2.94258911e-02 -8.54396541e-03]
   [ 1.16337906e-04  1.80447986e-03  1.48258582e-02]]]


 ...


 [[[-4.41436172e-02 -8.31063390e-02 -5.30732870e-02]
   [ 3.21242027e-02  1.02863405e-02  2.44089961e-02]
   [ 6.16064901e-03 -1.94546003e-02  4.05340418e-02]]

  [[ 5.60257118e-04  9.69611946e-03  2.50103744e-03]
   [ 7.16793770e-03 -1.75346676e-02 -2.38573886e-02]
   [-9.87450313e-03 -1.85503773e-02  1.73006603e-03]]

  [[ 4.38816519e-03  4.20487635e-02  7.59503245e-02]
   [-6.56103045e-02 -3.61301675e-02 -1.94042865e-02]
   [-3.80912647e-02 -2.67490391e-02 -1.38649968e-02]]

  ...

  [[-4.55934554e-02 -4.60497960e-02 -2.28089262e-02]
   [-9.76477377e-03  2.49100081e-03  2.45031938e-02]
   [ 2.03807969e-02  5.23929708e-02  6.90193772e-02]]

  [[ 9.33062460e-04  1.24825938e-02 -1.18170073e-02]
   [-1.26268892e-02 -1.87562071e-02 -1.41441566e-03]
   [-5.24898572e-03 -4.61264141e-03 -1.32239247e-02]]

  [[ 7.46893871e-04 -1.01347370e-02 -7.82640465e-03]
   [ 1.24912113e-02 -2.58651320e-02  4.05143201e-02]
   [ 5.88545483e-03  4.59900573e-02  1.06507532e-01]]]


 [[[ 1.22619774e-02 -1.53782163e-02  1.38617598e-03]
   [ 4.11662273e-02 -2.49440316e-02 -2.66864449e-02]
   [-1.74228102e-02  5.26899332e-03 -2.18610354e-02]]

  [[-3.12073641e-02 -3.30253728e-02  2.21140534e-02]
   [-2.40086224e-02  1.29876249e-02  2.24304833e-02]
   [ 1.03317434e-02  4.36011702e-03  4.73213522e-03]]

  [[ 2.01817192e-02  6.15686625e-02 -2.87714135e-02]
   [ 5.82305565e-02  4.67674211e-02 -2.84169528e-05]
   [ 3.75453047e-02 -4.58861031e-02  1.58488620e-02]]

  ...

  [[ 7.04312185e-03 -3.60817881e-03  7.19862664e-03]
   [ 2.48948690e-02  6.16705604e-03 -3.24270278e-02]
   [ 7.23384786e-03  2.24061636e-03 -5.33299074e-02]]

  [[ 2.80715115e-02 -1.05711389e-02 -1.38542065e-02]
   [-1.08790481e-02  6.19294168e-03 -5.67133771e-03]
   [-2.60829329e-02  8.18613824e-03 -3.28732505e-02]]

  [[-3.10317818e-02 -6.04848824e-02 -2.55825706e-02]
   [-4.62385491e-02 -2.28049085e-02 -7.76777044e-03]
   [-9.46983602e-03  4.02473239e-03 -4.86368965e-03]]]


 [[[ 2.31281240e-02 -5.60384020e-02 -3.45715135e-02]
   [ 1.06378738e-03  5.79288378e-02 -7.69703370e-03]
   [-3.01025435e-02  3.55729870e-02 -1.81431845e-02]]

  [[ 9.68403295e-02 -1.11858897e-01 -7.87658617e-02]
   [-1.04441345e-01 -1.08509868e-01 -1.95527449e-01]
   [-1.19864844e-01 -7.14735165e-02  3.67498212e-02]]

  [[-2.21943669e-02  6.02984801e-03  5.69143333e-02]
   [-4.83419858e-02  7.88932368e-02 -5.10264002e-02]
   [-5.12943156e-02 -5.74344248e-02 -1.91778149e-02]]

  ...

  [[-4.48963083e-02 -8.12667608e-02  5.17936461e-02]
   [-8.39852840e-02 -5.77777475e-02  6.78914636e-02]
   [ 2.38365196e-02  3.89537401e-02  4.11406271e-02]]

  [[ 4.64462582e-03  2.73666661e-02 -2.31540017e-02]
   [ 2.06751153e-02  2.34294776e-02  6.43803272e-04]
   [-5.22218570e-02 -1.48544656e-02 -2.51499824e-02]]

  [[ 2.12909300e-02  1.27359526e-02  8.45527276e-03]
   [-8.29323605e-02  7.20673874e-02  1.31073490e-01]
   [ 8.54906999e-03  1.36772215e-01  3.98672707e-02]]]]"
layer1.1.bn2.weight,"(64,)","[0.2559703  0.56895137 0.40420592 0.51298946 0.2177551  0.4940483
 0.33148494 0.5510482  0.43542936 0.52913696 0.2080724  0.47349688
 0.59446985 0.5644731  0.27613497 0.25710684 0.4852844  0.6240256
 0.43695417 0.2307901  0.49702513 0.31571725 0.5705913  0.21620013
 0.1931863  0.14477392 0.22175102 0.23888399 0.587139   0.35005978
 0.41085196 0.3199291  0.5807583  0.32807478 0.27231324 0.19714576
 0.6139035  0.40750396 0.63037264 0.3873899  0.7605354  0.21107094
 0.3071389  0.4603255  0.30985507 0.19144587 0.4431337  0.25368413
 0.5745159  0.6458668  0.39135623 0.30897817 0.6781556  0.19374865
 0.5814269  0.25695893 0.3514007  0.21243045 0.5793966  0.34153003
 0.20506792 0.07152548 0.40898636 0.4415681 ]"
layer1.1.bn2.bias,"(64,)","[-0.17778967 -0.12870549  0.03487876 -0.14518961  0.1864341  -0.14127503
 -0.42014754 -0.13340235  0.21827647 -0.19118962  0.03108781 -0.0234616
 -0.17244413 -0.02742486 -0.02947773 -0.10314894  0.00471831  0.08279433
 -0.1521285   0.01829521 -0.2418264  -0.08314819 -0.04905857 -0.06880265
 -0.25596672  0.13805297 -0.01645527  0.20919012 -0.00282297 -0.02647441
 -0.02246176  0.02862697 -0.10653151 -0.369825    0.28615487 -0.10362352
  0.3080341  -0.08942971  0.27721488  0.11361444 -0.31568643  0.04226949
  0.05667151  0.23694964 -0.07272795  0.04647493 -0.05360766  0.13085383
  0.02820554 -0.13707179  0.14636217 -0.0716632  -0.32374647 -0.15827848
 -0.04240386 -0.12779109 -0.17025581  0.0412896   0.089118    0.07703973
 -0.07296374  0.06828406 -0.03905968  0.04760342]"
layer2.0.conv1.weight,"(128, 64, 3, 3)","[[[[-7.15549886e-02 -1.10313743e-01 -1.37111396e-01]
   [ 7.05926344e-02 -1.47818681e-02 -1.00530587e-01]
   [ 1.19383179e-01  8.73298720e-02 -8.22059438e-03]]

  [[-2.39994917e-02 -6.36824314e-03  2.43027136e-03]
   [ 6.18310412e-03  1.87808629e-02  2.53243763e-02]
   [ 2.36564153e-03 -4.00369568e-03 -1.19486162e-02]]

  [[ 6.03435514e-03  6.37842994e-03 -1.22473184e-02]
   [ 7.88540859e-03 -1.34642962e-02 -4.27018143e-02]
   [ 1.73795354e-02 -1.38620334e-02 -4.71449755e-02]]

  ...

  [[ 3.43240872e-02  3.22567150e-02  2.58186348e-02]
   [ 8.46760534e-03 -4.54126188e-04 -1.08321980e-02]
   [-6.71661366e-03 -1.50524238e-02 -2.69387458e-02]]

  [[-1.20891239e-02 -2.35884767e-02 -2.26885993e-02]
   [ 1.01349186e-02  1.82850063e-02 -1.56949218e-02]
   [ 2.13523563e-02  5.85682392e-02  4.28729393e-02]]

  [[ 1.44211547e-02 -2.82979887e-02 -7.07704248e-03]
   [ 3.02604083e-02 -6.62937015e-03 -1.69013254e-02]
   [ 3.90846319e-02  1.42222876e-02  2.22938731e-02]]]


 [[[-7.79108554e-02 -7.39293545e-02 -3.66714448e-02]
   [-3.49030606e-02 -6.23551570e-02 -3.77925001e-02]
   [-2.83787455e-02 -5.42913340e-02 -4.94109355e-02]]

  [[-1.29697109e-02 -2.18251236e-02 -2.87668838e-04]
   [ 7.64439674e-03  1.76532399e-02  1.66597832e-02]
   [ 3.83366048e-02  2.30059028e-02 -1.66204153e-03]]

  [[-8.75917077e-02 -8.47354010e-02 -5.58180362e-02]
   [-7.77314231e-02 -8.03111494e-02 -3.25542726e-02]
   [-5.63132949e-02 -4.20469679e-02  1.52466623e-02]]

  ...

  [[-3.23769376e-02 -4.00184803e-02 -2.95228735e-02]
   [-1.52936913e-02 -1.41652916e-02  2.70863622e-03]
   [ 1.16523858e-02  2.38858685e-02  2.44131181e-02]]

  [[ 2.08913395e-03 -3.04754470e-02 -3.38179134e-02]
   [ 6.78289775e-03  3.86806787e-04 -1.45404097e-02]
   [-3.13060754e-03  6.76892372e-03  8.45236797e-03]]

  [[ 3.05860359e-02  4.62808460e-02  3.83593986e-04]
   [ 5.30789755e-02  6.74883574e-02  3.05469707e-02]
   [ 2.33736467e-02  4.39927205e-02 -3.87126557e-03]]]


 [[[ 1.38781872e-02  3.27236205e-02  4.65840176e-02]
   [-8.06467701e-03  1.62094482e-03  1.51528809e-02]
   [-7.03415051e-02 -5.32990657e-02 -4.59204391e-02]]

  [[ 4.60348576e-02  3.54001001e-02  3.49412747e-02]
   [ 5.83511442e-02  5.46403341e-02  2.71624383e-02]
   [ 2.67992113e-02  4.50563654e-02  6.68855617e-03]]

  [[-3.37657407e-02 -3.86047512e-02 -2.41719410e-02]
   [-1.82848994e-03  1.08880047e-02  1.14253350e-02]
   [ 2.22820193e-02  1.40242632e-02  3.63317877e-03]]

  ...

  [[-1.63304582e-02 -6.95515573e-02 -8.97374526e-02]
   [ 3.97657044e-02  1.55005073e-02 -2.26949938e-02]
   [ 1.02901436e-01  1.22942768e-01  6.38674125e-02]]

  [[-4.23177565e-03  4.95106727e-02 -7.62885623e-03]
   [-2.77195964e-02  7.03980075e-03 -9.40519478e-03]
   [-6.70075342e-02 -6.05423227e-02 -2.59668678e-02]]

  [[-5.85600035e-03 -1.75730456e-02 -3.80162932e-02]
   [ 2.85794190e-03 -4.16028453e-03  1.01131387e-02]
   [ 2.62425207e-02  3.52004468e-02  3.11430879e-02]]]


 ...


 [[[-4.41933423e-02 -6.53216094e-02 -1.75944027e-02]
   [-9.39702243e-02 -5.82906008e-02  1.20925065e-02]
   [-2.29979772e-02  3.24634202e-02  7.17311651e-02]]

  [[-4.72196285e-03 -3.01245810e-03 -1.80754699e-02]
   [ 1.26674129e-02 -8.05090927e-03 -1.46046458e-02]
   [ 7.82201905e-03 -1.07201999e-02 -2.65151225e-02]]

  [[-2.52993386e-02 -4.93831150e-02 -1.27198026e-02]
   [-5.22064306e-02 -4.72326875e-02 -4.24703257e-03]
   [-4.86974344e-02 -2.53196955e-02  8.61777738e-03]]

  ...

  [[-3.76174925e-03  7.83979706e-03 -5.95251657e-03]
   [ 4.02774056e-03  7.35750515e-03 -1.16672358e-02]
   [-3.99969108e-02 -3.80375981e-02 -5.04691042e-02]]

  [[-3.89494374e-03 -6.89651258e-03  3.41019034e-02]
   [-6.98135514e-03 -4.97620329e-02  5.87107278e-02]
   [ 1.83609985e-02  2.58742962e-02  8.00280347e-02]]

  [[-3.30143385e-02 -2.15097610e-02 -2.15094839e-03]
   [-4.38944995e-02 -3.20093222e-02 -1.62645373e-02]
   [-1.10368161e-02  2.88719224e-04  3.09368949e-02]]]


 [[[-4.99073975e-02 -5.02224453e-02 -5.09852879e-02]
   [ 2.26438474e-02 -1.40975285e-02 -2.44264770e-02]
   [ 1.99597050e-02  9.64255333e-02  1.05798885e-01]]

  [[-3.68727893e-02  2.14127870e-03  8.34691804e-03]
   [-4.07959111e-02 -3.37670371e-02 -3.49554494e-02]
   [ 3.94657180e-02  7.05081671e-02  8.60651881e-02]]

  [[ 1.48417428e-02  6.69139996e-03  1.43240094e-02]
   [-3.26213427e-02 -4.40265499e-02 -2.22687870e-02]
   [ 7.19817961e-03 -1.91867724e-02 -4.93484922e-03]]

  ...

  [[-4.99381078e-03  1.60184465e-02  1.12416958e-02]
   [-4.76678740e-03  2.19212901e-02  2.26601996e-02]
   [-2.67531946e-02  2.69165699e-04 -5.68274315e-03]]

  [[-8.77252501e-03  1.07614947e-02  7.36032007e-03]
   [-1.80103343e-05 -1.79262273e-02  4.82294522e-03]
   [ 4.24313359e-02 -1.57641396e-02  2.35544704e-02]]

  [[-1.38296662e-02 -3.07928212e-03 -4.08543972e-03]
   [ 3.33633460e-02  4.29517776e-02  3.58668603e-02]
   [-3.96527722e-02 -3.08548734e-02 -4.31890674e-02]]]


 [[[-3.86166759e-02 -3.15493252e-03  2.57388968e-03]
   [-1.15922838e-02  9.87612549e-03  7.52348313e-03]
   [-1.93389803e-02 -9.87787731e-03  2.17549643e-03]]

  [[ 1.68888204e-04  1.83015072e-03 -8.95366631e-03]
   [ 5.83431171e-03  1.73603166e-02 -1.90288257e-02]
   [ 5.86417038e-03 -7.43070559e-04  1.46669068e-03]]

  [[-1.65058617e-02 -2.84010060e-02  1.39857512e-02]
   [-2.29217857e-02 -4.34844755e-02  1.04712602e-02]
   [-2.58014351e-03 -4.52580750e-02  7.97910150e-03]]

  ...

  [[-1.52595725e-03 -7.64689269e-03  1.35969855e-02]
   [ 5.53005200e-04 -2.91761314e-03  2.21471451e-02]
   [ 3.27628362e-03 -1.07752230e-05  1.31627088e-02]]

  [[ 5.17557934e-03  1.84945986e-02 -8.02681409e-03]
   [-3.50298174e-02  2.64029223e-02 -7.12200068e-03]
   [-5.23247533e-02 -1.11854179e-02  1.91455726e-02]]

  [[-6.88046068e-02  5.16176894e-02  1.97870955e-02]
   [ 2.55332496e-02 -6.19260259e-02  4.99238633e-02]
   [ 1.05321191e-01 -4.41362672e-02  4.99067307e-02]]]]"
layer2.0.bn1.weight,"(128,)","[0.32483432 0.36128575 0.2960013  0.29127175 0.34072435 0.34348553
 0.3049276  0.33082467 0.3447033  0.3860292  0.31962535 0.26220012
 0.29944193 0.21891916 0.23965771 0.37436303 0.3555024  0.1947822
 0.33494285 0.2159324  0.33494973 0.34542647 0.30940792 0.37688017
 0.3545552  0.32667717 0.3177719  0.32722342 0.38319913 0.25851673
 0.29727814 0.34810343 0.28267074 0.29954565 0.34513935 0.3470873
 0.34401906 0.3343519  0.32105273 0.31804657 0.2939641  0.33529696
 0.3253329  0.37334126 0.31977722 0.29867542 0.16203098 0.32620203
 0.32711956 0.34096232 0.36931214 0.3320406  0.33570433 0.29513398
 0.31153277 0.31851462 0.31385043 0.26327693 0.30889452 0.3601431
 0.2734001  0.34333974 0.3335022  0.32878637 0.27055365 0.28788537
 0.33176234 0.3309608  0.3170234  0.2976506  0.32996002 0.3216288
 0.32051313 0.32305676 0.34812725 0.31300506 0.28260827 0.28563723
 0.3279237  0.36659846 0.32882786 0.3574995  0.33771968 0.2903895
 0.32727405 0.32144195 0.33324194 0.34522903 0.18418817 0.39157706
 0.3337448  0.2325473  0.32852364 0.33579633 0.28852692 0.31488416
 0.32883686 0.22360285 0.31589842 0.29926562 0.34025216 0.3219514
 0.31707242 0.29502192 0.28467214 0.32237682 0.31186536 0.2613273
 0.337353   0.33331528 0.33300513 0.2959029  0.4086585  0.21916309
 0.29817343 0.40060988 0.3080628  0.3170748  0.28615287 0.2951792
 0.30696216 0.35830104 0.32321787 0.33450308 0.34534886 0.30431095
 0.33271053 0.33374003]"
layer2.0.bn1.bias,"(128,)","[-0.05891858 -0.16856174 -0.02055871  0.00272378 -0.09551602 -0.10484587
  0.03486173 -0.08846508 -0.20529374 -0.17644262 -0.12236647 -0.03638128
 -0.07853983  0.20881835 -0.04030243 -0.18200736 -0.10761231  0.2989053
 -0.05696733  0.20644377 -0.09213672 -0.13756329 -0.1303743  -0.11929223
 -0.10056937 -0.03803829 -0.11081119 -0.04766044 -0.10869531  0.15813254
 -0.11230503 -0.15844461  0.09757874 -0.04300018 -0.13492143 -0.11891651
 -0.09857914 -0.04789529 -0.08368784 -0.07203656 -0.08359703 -0.2442344
 -0.33756325 -0.2123842  -0.06925669 -0.06509303  0.4978704  -0.08114608
 -0.10211574 -0.0787647  -0.18022253 -0.10113344 -0.1090318  -0.06171615
 -0.08559897 -0.04951962 -0.03697563  0.00225842 -0.05078373 -0.24298748
  0.0009178  -0.15253259 -0.09634168 -0.05161009 -0.0472994   0.08836561
 -0.10275394 -0.09070019 -0.1086342  -0.03785266 -0.10302418 -0.16090694
 -0.09026938 -0.08975657 -0.12822731 -0.0830107  -0.01863404 -0.02317963
 -0.00453538 -0.2131158  -0.14308947 -0.13906972 -0.13034134 -0.05679168
 -0.18618818 -0.12091038 -0.03396671 -0.11814989  0.2298184  -0.20847434
 -0.13354039  0.14182433 -0.08908553 -0.12726717  0.01072084 -0.10292292
 -0.10254337  0.15624017 -0.09367271 -0.06572597 -0.12450535 -0.04513899
 -0.07073586 -0.04472939  0.07147739 -0.04838925 -0.03116316 -0.04370365
 -0.09270795 -0.14646639 -0.11512788 -0.0183306  -0.19268139  0.24905725
  0.02996517 -0.1309887  -0.04682342 -0.08513856 -0.04210853 -0.04129437
 -0.04570314 -0.14330024 -0.09811161 -0.10456659 -0.13152066 -0.12485858
 -0.09819215 -0.09606572]"
layer2.0.conv2.weight,"(128, 128, 3, 3)","[[[[-0.00743793 -0.00980909  0.00279759]
   [-0.0107797   0.02579373  0.04551706]
   [-0.02724061  0.00532056  0.01317695]]

  [[ 0.03543968  0.02510091  0.0078204 ]
   [ 0.00403118  0.01989404  0.02744864]
   [ 0.03532882  0.03545637  0.01331542]]

  [[ 0.01926979 -0.02133326 -0.03619924]
   [-0.01958999 -0.01887309 -0.05953756]
   [-0.02183848 -0.00768748  0.00394869]]

  ...

  [[-0.00680375  0.01084074 -0.0037045 ]
   [ 0.01347939  0.01136241 -0.00134309]
   [ 0.00814217  0.00019292  0.00055109]]

  [[ 0.00769385  0.00773064  0.00439601]
   [-0.01020226 -0.01169845 -0.00963429]
   [-0.00390491  0.01814652  0.01329709]]

  [[ 0.01243389 -0.02688887 -0.01197374]
   [ 0.02684582  0.02640895 -0.0214726 ]
   [ 0.01289168  0.00276315 -0.00542667]]]


 [[[ 0.01283995  0.01852874 -0.00267824]
   [-0.0167767  -0.01228104  0.03547095]
   [-0.00086486  0.02449777  0.01815201]]

  [[-0.00668703 -0.02070971 -0.01442118]
   [-0.00731351  0.04256766  0.00743385]
   [ 0.02763994  0.01599733  0.01593868]]

  [[-0.02290288 -0.02057652  0.02359308]
   [-0.02752375 -0.05607253 -0.06989878]
   [ 0.02050203  0.0513007   0.02198917]]

  ...

  [[-0.02718771 -0.03896891 -0.0395031 ]
   [-0.06211695 -0.07492258 -0.09564972]
   [-0.06046658 -0.07769696 -0.07461957]]

  [[ 0.02866299  0.02934141  0.0286884 ]
   [ 0.0079438   0.04710795  0.01458565]
   [-0.00181996  0.02203499  0.00736701]]

  [[ 0.00156254 -0.01681461 -0.00461036]
   [-0.00813466 -0.0254796  -0.05240764]
   [-0.00928232 -0.00096452 -0.03780436]]]


 [[[ 0.00474389  0.00605407 -0.00710739]
   [ 0.02358301 -0.09309413 -0.07931739]
   [-0.00789704 -0.05052602 -0.01046943]]

  [[ 0.01481032  0.01619912 -0.05145684]
   [ 0.0085937   0.0081354  -0.04286519]
   [ 0.09077966  0.06538188  0.04352976]]

  [[-0.01382661 -0.00639714  0.00849648]
   [ 0.01383201 -0.01241293  0.00538799]
   [ 0.02018901 -0.00352546  0.00799045]]

  ...

  [[-0.00092351  0.01847819 -0.03060311]
   [-0.01703437  0.00567562 -0.04906091]
   [-0.03277102 -0.03742207 -0.04593067]]

  [[-0.00463547  0.00692306 -0.00106275]
   [-0.00792915 -0.04990933  0.04210447]
   [-0.07515757 -0.00478259 -0.00580308]]

  [[ 0.01150252 -0.01463434  0.03788422]
   [ 0.01405624  0.04855323  0.02315746]
   [ 0.02149414 -0.01008986  0.03378236]]]


 ...


 [[[ 0.02644779  0.00402131  0.00753476]
   [ 0.06362578 -0.03198638 -0.00184326]
   [ 0.02621984  0.00755747  0.04946185]]

  [[-0.0287306  -0.02266901 -0.05126394]
   [-0.02599957 -0.04873992 -0.01400345]
   [-0.01726334 -0.04157434 -0.01166545]]

  [[-0.03497216  0.03563405  0.03470046]
   [ 0.01826516  0.04359385 -0.02630226]
   [ 0.01782595  0.03558476  0.01134013]]

  ...

  [[ 0.0097429  -0.01725291 -0.00016983]
   [-0.01988598  0.08199355  0.0129026 ]
   [-0.02378641 -0.00478125  0.04858419]]

  [[-0.02437331 -0.02583645 -0.03531682]
   [-0.02958154 -0.09662415 -0.05354555]
   [-0.01500899  0.0059241  -0.01971902]]

  [[ 0.00683662 -0.03677929 -0.02554054]
   [-0.01163436 -0.02364974 -0.00780047]
   [ 0.00864516  0.00789577 -0.0189256 ]]]


 [[[ 0.03289438  0.02968952  0.01107102]
   [ 0.0389893  -0.00898974  0.02263217]
   [ 0.00783738 -0.02795941 -0.0230052 ]]

  [[ 0.01366656  0.02288582 -0.01898902]
   [ 0.00271041  0.01123543  0.00742233]
   [ 0.02108937  0.04355701  0.01075178]]

  [[-0.02366241  0.02210958  0.00043471]
   [-0.03092525  0.06086824  0.01669119]
   [-0.08846723 -0.08344235 -0.03424727]]

  ...

  [[-0.00734184 -0.01969015  0.00179691]
   [ 0.00727275 -0.03432163 -0.02427009]
   [-0.01151201 -0.06047013 -0.05506976]]

  [[ 0.00302193  0.00262845  0.01711044]
   [-0.01341846 -0.00858592  0.00902843]
   [ 0.01950397  0.00943548  0.00451803]]

  [[ 0.00136738  0.00076213  0.01192539]
   [-0.002391   -0.01073314  0.01262479]
   [-0.00506131 -0.00577238 -0.01464311]]]


 [[[-0.00742128  0.01175362 -0.04272783]
   [ 0.00163094 -0.04569113 -0.13975836]
   [-0.00654193 -0.00205468 -0.04839199]]

  [[ 0.00750533  0.05265932  0.0388493 ]
   [-0.01248442  0.08468511  0.00622334]
   [ 0.00131358 -0.01965611 -0.08216714]]

  [[-0.02491599  0.01655051  0.01691393]
   [ 0.00865069  0.02144444  0.01169424]
   [-0.00090502  0.03059643  0.01359977]]

  ...

  [[-0.00781136  0.0220289  -0.0175448 ]
   [-0.00758885 -0.02114937 -0.00369844]
   [ 0.01262175 -0.02070905 -0.00538622]]

  [[ 0.03015221 -0.00822676 -0.06490967]
   [-0.02375156 -0.09537462 -0.05301943]
   [-0.01683485 -0.0110712   0.00099055]]

  [[-0.02453335 -0.08468456  0.02506522]
   [ 0.01063856  0.03869261  0.14004043]
   [ 0.01549651 -0.00950812  0.00409484]]]]"
layer2.0.bn2.weight,"(128,)","[0.1453597  0.3270341  0.31127247 0.25384387 0.40861103 0.39373517
 0.44002044 0.31080854 0.34060165 0.2167926  0.21700495 0.385689
 0.19705665 0.26921114 0.1663474  0.2453944  0.32322198 0.368608
 0.38933593 0.3264236  0.38750982 0.47066483 0.19583185 0.47170144
 0.16729133 0.3938346  0.3044374  0.19288507 0.21751767 0.21189079
 0.42299727 0.3682867  0.24545446 0.2228874  0.33701172 0.32286528
 0.26883295 0.35567158 0.25805548 0.40307724 0.4492471  0.36423445
 0.25993052 0.18814483 0.13585944 0.29579124 0.19127318 0.3064595
 0.3980544  0.41015232 0.18737471 0.45157388 0.33403125 0.16276398
 0.3599327  0.1624164  0.28861934 0.13580428 0.4491459  0.26938853
 0.4823278  0.33934742 0.47641018 0.315497   0.6005143  0.46535558
 0.52643806 0.29906765 0.29917306 0.46206722 0.26135507 0.42468616
 0.46624768 0.4249283  0.33450645 0.26550528 0.40476218 0.36048073
 0.17822504 0.3832552  0.28232455 0.3843053  0.33069944 0.21509348
 0.3317186  0.14578477 0.277083   0.49171773 0.31991652 0.42216858
 0.15585601 0.48835856 0.32666364 0.34399855 0.16079421 0.4855174
 0.26771218 0.16155365 0.3220516  0.42429313 0.36611277 0.18926185
 0.33999148 0.3648103  0.1778538  0.35437095 0.285221   0.24369602
 0.4472009  0.30111182 0.3996515  0.6172989  0.2793877  0.48673245
 0.15020454 0.6021344  0.36038685 0.46964192 0.37110317 0.23883039
 0.5346968  0.15088221 0.32134697 0.43941724 0.3229473  0.43289986
 0.148859   0.37020114]"
layer2.0.bn2.bias,"(128,)","[ 0.02456035  0.05933969  0.13474841 -0.10894797 -0.04695309 -0.13590436
 -0.05496425  0.05094618 -0.06132834  0.09155452  0.0031165  -0.02743886
 -0.05389107  0.01768008  0.04319572  0.00742708  0.0547731  -0.03212357
 -0.02235425  0.01415096 -0.21503761 -0.11595391  0.04859686 -0.11413831
  0.10656776  0.03547513  0.01395814  0.01772567  0.0781178   0.13305704
  0.01386563  0.04472082  0.10629895  0.05281628 -0.05385365 -0.11599465
  0.10548953 -0.15909326  0.00995701  0.11965974  0.01704845  0.09292416
 -0.06745337  0.09874473  0.10335696  0.05009346  0.02973103  0.02806582
 -0.00746941 -0.05765436 -0.01444717 -0.16401157  0.12546313  0.08169418
  0.06353134  0.09361131  0.02127517  0.0486351  -0.11739399  0.02374001
 -0.21773131  0.00985715 -0.18828894  0.04672458 -0.08286806  0.05849225
 -0.03057771  0.05094741  0.05405975 -0.16710615  0.01153772 -0.03024188
 -0.13932362  0.01147352  0.04284265  0.11887225 -0.12889358  0.04788357
  0.04740209 -0.06251909  0.00092667 -0.01444     0.0909243   0.13419244
 -0.03381545  0.05601413  0.0848183  -0.04668996  0.022831   -0.00970795
  0.1360161  -0.26247287  0.00875093 -0.05525783  0.03834431 -0.07201221
  0.09065586  0.16124238 -0.1075692   0.10107833 -0.05191983  0.08377667
 -0.07037976 -0.08063511 -0.02430993  0.05330338  0.12770502  0.14033602
 -0.05929971 -0.06388523 -0.07659045 -0.11626164  0.06614666 -0.16442432
  0.04216096 -0.2786121  -0.10063417 -0.06958819 -0.07613979  0.03711597
 -0.02469868  0.09158719 -0.01996049 -0.01760533  0.0297906  -0.03727932
  0.04659909 -0.13705422]"
layer2.0.downsample.0.weight,"(128, 64, 1, 1)","[[[[ 0.01591559]]

  [[-0.31089917]]

  [[ 0.01261547]]

  ...

  [[-0.16722535]]

  [[ 0.01269217]]

  [[ 0.01315153]]]


 [[[ 0.0035526 ]]

  [[-0.00108677]]

  [[-0.00828825]]

  ...

  [[-0.02344372]]

  [[-0.07559178]]

  [[-0.01262188]]]


 [[[-0.041898  ]]

  [[ 0.00794778]]

  [[-0.16622905]]

  ...

  [[ 0.03188727]]

  [[-0.01876594]]

  [[ 0.06450661]]]


 ...


 [[[-0.02872481]]

  [[ 0.0470265 ]]

  [[-0.05225123]]

  ...

  [[-0.04736516]]

  [[ 0.05863867]]

  [[ 0.05880801]]]


 [[[-0.00778838]]

  [[-0.02028793]]

  [[ 0.05639214]]

  ...

  [[ 0.78022724]]

  [[-0.00229166]]

  [[-0.02594095]]]


 [[[-0.0283163 ]]

  [[-0.0131936 ]]

  [[-0.05135581]]

  ...

  [[ 0.02355193]]

  [[-0.06766698]]

  [[ 0.02675375]]]]"
layer2.0.downsample.1.weight,"(128,)","[ 0.33343676  0.05814121  0.07145082  0.34415188  0.17564553  0.15094018
  0.15675296  0.30997914  0.1927347   0.1515858   0.30444336  0.2238256
  0.37064993  0.17388327  0.30509952  0.26100567  0.1574544   0.20152922
  0.29329368  0.10096876  0.58705163  0.06758112  0.24994272  0.09289945
  0.24433313  0.04947317  0.244866    0.2750165   0.3071215   0.3024558
  0.18176942  0.06881133  0.22230531  0.3765758   0.46612185  0.32842797
  0.10352223  0.3399948   0.23249494  0.15138559  0.1753106   0.2269324
  0.260599    0.18306987  0.28939128  0.25899503  0.22082973  0.13990302
  0.06434815  0.2833221   0.3450717   0.20166245  0.06957814  0.27224925
  0.11274925  0.29165447  0.23577945  0.27033824  0.09105575  0.2590505
  0.13015634  0.22613488  0.19673824  0.05390658  0.06965131  0.05244498
  0.10501242  0.08611148  0.11726139  0.09574613  0.18619154  0.16423589
  0.13358362  0.10645136  0.13123211  0.08879077  0.0792638   0.04752468
  0.30488846  0.23246664  0.29075634  0.12920043  0.07784397  0.2263142
  0.23791108  0.34052122  0.09142949  0.19359766  0.12230118  0.13997655
  0.29525018  0.23604368  0.16813283  0.13384192  0.2665744   0.14950567
  0.07609833  0.16736251  0.1783913   0.1719792   0.23179668  0.3752894
  0.21030205  0.1921554   0.4001925   0.17184676  0.05925161  0.07419207
  0.06856009  0.19307485  0.13858807  0.11113761  0.30545098  0.12050302
  0.34433874  0.16330524  0.36728004  0.1533787   0.07420614  0.208761
  0.03941832  0.2593987   0.13846652 -0.00507563  0.19046786  0.12752633
  0.30709994  0.1681795 ]"
layer2.0.downsample.1.bias,"(128,)","[ 0.02456035  0.05933969  0.13474841 -0.10894797 -0.04695309 -0.13590436
 -0.05496425  0.05094618 -0.06132834  0.09155452  0.0031165  -0.02743886
 -0.05389107  0.01768008  0.04319572  0.00742708  0.0547731  -0.03212357
 -0.02235425  0.01415096 -0.21503761 -0.11595391  0.04859686 -0.11413831
  0.10656776  0.03547513  0.01395814  0.01772567  0.0781178   0.13305704
  0.01386563  0.04472082  0.10629895  0.05281628 -0.05385365 -0.11599465
  0.10548953 -0.15909326  0.00995701  0.11965974  0.01704845  0.09292416
 -0.06745337  0.09874473  0.10335696  0.05009346  0.02973103  0.02806582
 -0.00746941 -0.05765436 -0.01444717 -0.16401157  0.12546313  0.08169418
  0.06353134  0.09361131  0.02127517  0.0486351  -0.11739399  0.02374001
 -0.21773131  0.00985715 -0.18828894  0.04672458 -0.08286806  0.05849225
 -0.03057771  0.05094741  0.05405975 -0.16710615  0.01153772 -0.03024188
 -0.13932362  0.01147352  0.04284265  0.11887225 -0.12889358  0.04788357
  0.04740209 -0.06251909  0.00092667 -0.01444     0.0909243   0.13419244
 -0.03381545  0.05601413  0.0848183  -0.04668996  0.022831   -0.00970795
  0.1360161  -0.26247287  0.00875093 -0.05525783  0.03834431 -0.07201221
  0.09065586  0.16124238 -0.1075692   0.10107833 -0.05191983  0.08377667
 -0.07037976 -0.08063511 -0.02430993  0.05330338  0.12770502  0.14033602
 -0.05929971 -0.06388523 -0.07659045 -0.11626164  0.06614666 -0.16442432
  0.04216096 -0.2786121  -0.10063417 -0.06958819 -0.07613979  0.03711597
 -0.02469868  0.09158719 -0.01996049 -0.01760533  0.0297906  -0.03727932
  0.04659909 -0.13705422]"
layer2.1.conv1.weight,"(128, 128, 3, 3)","[[[[-9.90232686e-04 -7.74289621e-03 -7.97404628e-03]
   [ 2.48436742e-02  1.86416402e-03  5.83522115e-03]
   [ 9.50890873e-03 -1.64756812e-02  3.91568989e-03]]

  [[-2.14880537e-02 -1.23298203e-03 -1.42811444e-02]
   [-1.70438737e-02  9.59219318e-03  7.04450859e-03]
   [ 1.07901953e-02 -7.23499525e-03 -1.13568539e-02]]

  [[-1.11256156e-03  3.03884968e-02  2.22465303e-02]
   [-6.11842573e-02 -2.37968918e-02  2.37468886e-03]
   [ 4.06775326e-02 -1.03557304e-01 -6.00114949e-02]]

  ...

  [[-8.58330633e-03  1.14382077e-02  2.08002608e-02]
   [-1.65651441e-02 -3.95874381e-02  1.25938775e-02]
   [-1.43139577e-03 -5.42572932e-03  3.67942117e-02]]

  [[-1.36866989e-02 -2.95135323e-02 -1.47445658e-02]
   [ 2.82994062e-02  2.20963061e-02  3.48385470e-03]
   [-4.35211090e-03 -2.67056236e-03  1.22580037e-04]]

  [[ 7.64034409e-03  2.06659213e-02  3.74288000e-02]
   [ 6.94776094e-03  4.39833403e-02  1.75383128e-02]
   [-9.77965724e-03 -2.47887336e-02 -1.13491470e-03]]]


 [[[ 8.44385102e-02  8.48272741e-02 -5.14779612e-02]
   [ 3.52531783e-02 -1.13753974e-03 -1.03311785e-01]
   [-6.40776604e-02 -1.26604900e-01 -1.29522979e-01]]

  [[ 1.06282090e-03 -1.40832020e-02  4.71088476e-03]
   [-2.10589916e-02 -2.87777390e-02  9.97079723e-03]
   [ 1.40736997e-02  1.86913554e-02  5.81923872e-02]]

  [[ 2.21392810e-02  8.90266243e-03  1.47897089e-02]
   [-1.74969267e-02 -5.39238052e-03  2.78344620e-02]
   [-1.38552831e-02 -1.33463563e-02  1.76681150e-02]]

  ...

  [[-3.80321220e-02 -2.30972227e-02 -7.17749912e-03]
   [-3.50886174e-02  1.08609255e-02  1.36402268e-02]
   [ 6.34491444e-04  9.74762812e-03  7.36699579e-03]]

  [[-4.41835038e-02 -1.61902308e-02  1.22432746e-02]
   [-4.03492227e-02 -1.78936440e-02  2.89114453e-02]
   [-6.51758909e-03 -1.04900012e-02  9.16579552e-03]]

  [[ 4.36213240e-03  1.31191984e-02  1.84415886e-03]
   [ 1.15551064e-02 -1.30307535e-02 -9.56568960e-03]
   [-2.33138166e-02  1.16089021e-03  2.67706788e-03]]]


 [[[-2.11796202e-02 -6.22125715e-03  1.76088081e-03]
   [-4.74241935e-03  1.11011378e-02  1.12960488e-02]
   [-1.45293083e-02  2.98426785e-02  2.43828632e-03]]

  [[ 6.91833254e-03  9.29370616e-03  3.00781261e-02]
   [-4.26119938e-03  4.95598651e-03 -4.73384559e-03]
   [ 3.13598402e-02  1.90349470e-03 -4.72422224e-03]]

  [[-3.67261730e-02  5.72851393e-03  1.39194459e-01]
   [-4.29923087e-02  9.40228230e-04  7.71407038e-02]
   [-5.00503443e-02 -4.94785840e-03  2.46931240e-02]]

  ...

  [[ 3.72031108e-02  7.47122290e-03 -4.26589698e-02]
   [-8.17290228e-03 -9.25360471e-02 -5.49342344e-03]
   [-2.59271096e-02  8.39931774e-04  7.46318921e-02]]

  [[ 1.80763304e-02  4.52719908e-03 -1.37570212e-02]
   [-1.89392995e-02 -3.27388234e-02 -2.96659786e-02]
   [-2.06078514e-02 -4.61672805e-03  1.30798144e-03]]

  [[-1.20778838e-02 -2.02851021e-03 -1.69975422e-02]
   [-3.48045565e-02 -4.91951816e-02 -3.19726169e-02]
   [-2.10209582e-02 -5.11641335e-03 -4.85222461e-03]]]


 ...


 [[[ 3.17910239e-02  2.29481515e-02  1.03900665e-02]
   [-1.26280310e-02 -2.93203280e-03  4.26447392e-03]
   [-2.17067096e-02 -1.08555071e-02  1.60936378e-02]]

  [[-1.45252305e-03 -1.01314774e-02 -4.68619692e-04]
   [ 2.21304819e-02  2.27358844e-02  5.01832413e-03]
   [-6.01248033e-02 -4.31501605e-02 -4.44802716e-02]]

  [[ 3.07610608e-03  3.43962386e-03  6.08767895e-03]
   [-1.36834010e-02  4.05758386e-03 -2.65442785e-02]
   [ 6.82310984e-02  6.34735376e-02 -9.36604943e-03]]

  ...

  [[ 1.87515933e-02  1.93995535e-02  4.16909158e-02]
   [ 8.77697486e-03  8.23940441e-04  1.86193287e-02]
   [ 1.87962055e-02  6.22384995e-02 -2.38013994e-02]]

  [[-2.97881532e-02 -3.45983468e-02 -2.52245273e-02]
   [ 8.42338055e-03 -2.32223645e-02 -9.46121942e-03]
   [ 6.90345420e-03  6.97366148e-02 -1.33588314e-02]]

  [[ 2.69808737e-03 -4.31823544e-02 -1.67309456e-02]
   [ 2.58116163e-02 -7.20252171e-02 -6.53990507e-02]
   [ 4.62567508e-02  2.94686742e-02 -1.58107262e-02]]]


 [[[-2.10793838e-02  3.82197648e-02  8.33053328e-03]
   [-5.99117763e-03  3.55844088e-02 -1.75335642e-03]
   [ 1.87346283e-02  7.08590169e-03 -3.51509079e-03]]

  [[-4.59366404e-02 -7.46954605e-02 -5.36076091e-02]
   [-8.62658955e-03  9.08938888e-03 -3.03452890e-02]
   [-2.81584170e-02 -2.12038178e-02 -8.47298093e-03]]

  [[-7.17723146e-02 -6.85815513e-02  2.55444180e-02]
   [ 5.03627546e-02  2.52691116e-02  5.66677526e-02]
   [ 2.62375083e-03  1.38712942e-03 -8.46918020e-03]]

  ...

  [[-2.96443403e-02  1.08964918e-02 -3.04023027e-02]
   [ 1.50951429e-03  5.04553281e-02  1.55968387e-02]
   [-2.10149009e-02 -1.07571250e-02 -3.49416025e-02]]

  [[-2.75728200e-02  2.97066290e-02 -2.94901747e-02]
   [ 2.33008340e-03 -3.90112847e-02  6.80097425e-03]
   [ 4.40056212e-02  3.53967026e-02  7.90868625e-02]]

  [[-2.74795219e-02  5.03373854e-02  1.42901773e-02]
   [-5.24824224e-02 -4.77481959e-03  1.29878847e-02]
   [-1.89346559e-02 -3.08079533e-02 -1.75834801e-02]]]


 [[[ 3.22800428e-02  4.74075824e-02  3.40537131e-02]
   [ 2.14445498e-02  3.89869162e-03  4.69848572e-04]
   [ 1.51590556e-02  8.20670649e-03  3.24258879e-02]]

  [[ 9.26532969e-03  2.36613229e-02  4.20888700e-02]
   [ 2.19764747e-02  4.61276993e-02  1.14018777e-02]
   [ 7.28427293e-03  5.22849597e-02  8.63400567e-03]]

  [[ 1.40222600e-02  1.27997519e-02  3.53982113e-02]
   [-4.43980694e-02  1.73993632e-02 -1.58378724e-02]
   [ 3.17123793e-02  5.86790629e-02 -9.32435784e-03]]

  ...

  [[-4.83987667e-03  7.86278583e-03 -5.61692810e-04]
   [ 8.04017670e-03  1.73918437e-02  7.87336566e-03]
   [-1.77131519e-02 -4.59573604e-02 -9.87618044e-03]]

  [[-9.75693576e-03 -7.57945096e-03 -2.46274099e-02]
   [-8.24538246e-03  6.30646795e-02 -3.29541718e-03]
   [-7.75485579e-03 -1.34044181e-04 -8.13365076e-03]]

  [[ 1.76644176e-02  1.01142665e-02  4.26873798e-03]
   [-3.79495835e-03  2.67148819e-02  2.01212484e-02]
   [ 1.68681480e-02 -6.65153842e-03 -1.11071113e-02]]]]"
layer2.1.bn1.weight,"(128,)","[0.33227947 0.29078898 0.3246038  0.34349918 0.30113298 0.30536652
 0.30413258 0.353912   0.2861916  0.36008918 0.29702953 0.33813095
 0.25652668 0.32759744 0.30304128 0.40848547 0.35192975 0.42181003
 0.30548903 0.25510874 0.3425491  0.32153103 0.3365986  0.27001897
 0.28492478 0.39536288 0.31658018 0.3286184  0.35151216 0.39528435
 0.2767682  0.36248595 0.19878557 0.27168748 0.3355246  0.2797139
 0.25096044 0.38315544 0.32661593 0.3262923  0.36809453 0.34006903
 0.3650789  0.33910218 0.30710852 0.32314834 0.36914587 0.24104151
 0.35362655 0.31885853 0.32381502 0.36105436 0.30859333 0.3308857
 0.38861737 0.43619245 0.4549952  0.2962146  0.30709547 0.33855012
 0.33168945 0.32282507 0.23933436 0.31473255 0.27382195 0.32180825
 0.31982312 0.3411492  0.3610584  0.28328538 0.303515   0.31829032
 0.314626   0.38902727 0.26068404 0.34791204 0.32357568 0.37089676
 0.25917357 0.37415314 0.25552794 0.2965783  0.35051903 0.3165163
 0.28076765 0.2660334  0.28174475 0.47953185 0.33722094 0.2723128
 0.29552004 0.3224535  0.24703412 0.31604558 0.3514531  0.31313822
 0.33720556 0.28373015 0.35403225 0.2896887  0.2490135  0.30190894
 0.31143108 0.35100242 0.30221063 0.36174452 0.28589797 0.2831144
 0.32434535 0.27686962 0.33142513 0.2394312  0.29324874 0.2788186
 0.2686194  0.31940123 0.3541745  0.26825514 0.2954703  0.29243207
 0.35381296 0.42561397 0.36029804 0.30126068 0.27631587 0.4354172
 0.39905772 0.26937455]"
layer2.1.bn1.bias,"(128,)","[-0.17349102 -0.23371    -0.33832905 -0.08057049 -0.19201079 -0.06205421
 -0.1885194  -0.28303593 -0.16803396 -0.17956685 -0.26453972 -0.19825372
 -0.11831585 -0.2431889  -0.17064399 -0.30897754 -0.26607853 -0.40398887
 -0.194935   -0.13922653 -0.24491675 -0.1241667  -0.2012195  -0.19012284
 -0.10136114 -0.34680378 -0.22445227 -0.32716316 -0.30565915 -0.32890853
 -0.15320764 -0.19674638 -0.06668986 -0.3280664  -0.14184703 -0.15269992
 -0.09870841 -0.3243098  -0.22515255 -0.34616455 -0.22839238 -0.22625612
 -0.18095574 -0.15639244 -0.17299816 -0.15066135 -0.29129177 -0.16430843
 -0.19982016 -0.15321045 -0.22107135 -0.22467102 -0.09133838 -0.15625018
 -0.24526326 -0.4853641  -0.44278684 -0.10214553 -0.16150823 -0.21253337
 -0.223903   -0.19517286 -0.04465478 -0.17325729 -0.11775103 -0.47745466
 -0.21102521 -0.23046817 -0.17949204 -0.15822037 -0.20077962 -0.20405287
 -0.19743879 -0.2749883  -0.0395209  -0.21606088 -0.27860424 -0.26257196
 -0.09966833 -0.29532441 -0.14310257 -0.1447575  -0.1893519  -0.12834597
 -0.18069795 -0.11441773 -0.13078389 -0.4153913  -0.23235503 -0.13763767
 -0.11544082 -0.20987122 -0.09662291 -0.16687126 -0.38348922 -0.25450343
 -0.16031235 -0.19037181 -0.24195541 -0.16575654 -0.11334959 -0.14978808
 -0.12128054 -0.23182464 -0.20170453 -0.38269168 -0.14908579 -0.11740977
 -0.1261186  -0.20311426 -0.18318662 -0.22741927 -0.12809394 -0.2556617
 -0.14003459 -0.07234729 -0.22119433 -0.14856339 -0.2913662  -0.11159967
 -0.21938914 -0.48979917 -0.36934876 -0.14366913 -0.12322833 -0.37233418
 -0.67938834 -0.15355565]"
layer2.1.conv2.weight,"(128, 128, 3, 3)","[[[[-1.61533598e-02  5.01339184e-03 -9.01860069e-04]
   [-8.83864053e-03 -1.93901844e-02 -2.41735838e-02]
   [ 6.30516978e-03  1.02453427e-02 -1.38156917e-02]]

  [[-1.09787947e-02  2.61639268e-03  2.36556381e-02]
   [-1.76871810e-02  1.98607985e-02  6.41495660e-02]
   [ 6.02242723e-03  7.63417780e-02  1.02146335e-01]]

  [[-8.11133534e-03  6.84142392e-03  2.54358537e-02]
   [-8.06957297e-03  9.29287821e-03  8.28993600e-03]
   [ 7.73058506e-03  1.21585503e-02  7.16249598e-03]]

  ...

  [[ 1.51749831e-02  6.21962827e-03  2.17982233e-02]
   [-1.51986917e-02 -8.54391828e-02 -2.47125924e-02]
   [-1.84602756e-02 -4.97672707e-02 -1.68184657e-03]]

  [[ 3.07276305e-02  3.99615280e-02  3.12531292e-02]
   [-1.87381357e-02 -6.75102472e-02 -2.76491996e-02]
   [ 2.84287836e-02  3.18539850e-02  1.05425753e-02]]

  [[-1.83203202e-02 -1.58535670e-02 -1.06852641e-02]
   [-2.74418425e-02 -3.06163635e-02 -1.04848454e-02]
   [-1.51218474e-02 -1.05946446e-02 -2.53217313e-02]]]


 [[[ 3.68683296e-03  3.09958439e-02  4.27630097e-02]
   [ 4.65370268e-02  4.86056767e-02  2.38000089e-03]
   [ 1.66544411e-02  1.28997881e-02 -1.82300191e-02]]

  [[-1.04412604e-02 -1.59337651e-03 -1.61283724e-02]
   [-1.27989501e-02  4.95704077e-03 -1.45854633e-02]
   [-2.35534851e-02 -3.70225986e-03 -1.43989874e-02]]

  [[ 1.03381164e-02 -1.75596010e-02 -3.30461934e-02]
   [-3.20904553e-02 -5.92583558e-03  2.02013366e-03]
   [-4.14281711e-02  4.91214823e-03  1.69061348e-02]]

  ...

  [[-4.95246314e-02 -4.64979336e-02 -5.99162541e-02]
   [-2.66697966e-02 -1.90786924e-02 -2.94186696e-02]
   [-3.96825653e-03  1.94050595e-02  7.33174756e-03]]

  [[ 1.42934276e-02  1.56426057e-02  5.81168453e-04]
   [ 5.14932210e-03  7.43321562e-03 -3.69277457e-03]
   [-1.35220569e-02 -8.55358969e-03 -2.12585670e-03]]

  [[-3.09082177e-02 -1.98385157e-02 -1.93752106e-02]
   [-1.03680715e-02 -2.42935866e-02  2.41034286e-04]
   [-1.92751326e-02 -2.97071617e-02 -1.56231336e-02]]]


 [[[-4.92120832e-02 -2.95879040e-02  8.80234689e-02]
   [ 4.74526826e-03  4.35638428e-02  9.31151584e-02]
   [ 7.40829334e-02  4.28678989e-02 -5.10330759e-02]]

  [[ 6.69923751e-03  2.16761120e-02 -5.42544352e-04]
   [ 1.92858838e-02  1.09203514e-02 -4.54397174e-03]
   [ 3.10749765e-02 -1.71683251e-03 -2.76029874e-02]]

  [[ 6.00956753e-02 -2.93587018e-02 -5.89112900e-02]
   [-1.91330556e-02 -8.16241652e-02 -2.25525815e-02]
   [ 1.15966247e-02  2.50924286e-02  1.21300835e-02]]

  ...

  [[ 5.43068908e-03 -2.31302492e-02  9.62325279e-03]
   [-4.37852964e-02 -2.67352946e-02  2.19925698e-02]
   [-3.59186418e-02 -4.10090052e-02 -2.18604654e-02]]

  [[ 3.37049253e-02  6.29377514e-02  4.35017124e-02]
   [ 1.11110695e-03  1.92429759e-02 -1.97074725e-03]
   [-1.14929546e-02 -5.34450859e-02 -9.66757443e-03]]

  [[-2.66644242e-03 -2.69536376e-02 -1.76666677e-02]
   [-8.33824091e-03  8.99203680e-03  8.12604500e-04]
   [-2.68315133e-02 -3.59912999e-02 -4.24950235e-02]]]


 ...


 [[[-1.88757840e-03 -2.27284469e-02 -4.29908605e-03]
   [-9.22308024e-03 -3.43333408e-02 -1.33923413e-02]
   [-1.27737373e-02 -1.14347078e-02  1.56170139e-02]]

  [[ 1.07027404e-02  1.27924150e-02  2.26623192e-02]
   [ 7.31848925e-03 -1.78467184e-02  1.06744133e-02]
   [-1.59359872e-02 -1.93180684e-02  2.17680745e-02]]

  [[-7.30085047e-03  3.02340705e-02 -1.18985148e-02]
   [-2.60987338e-02  3.74518451e-03  3.27762589e-02]
   [-3.31006013e-02 -7.19229504e-03  1.65588353e-02]]

  ...

  [[-3.28178629e-02 -1.00207731e-01 -4.70116548e-02]
   [ 2.82929395e-03  4.14097831e-02 -1.13914572e-02]
   [-1.11519611e-02 -5.58611657e-03  1.99681185e-02]]

  [[-2.39315480e-02 -3.06866895e-02 -1.17561896e-03]
   [ 1.53111608e-03 -3.50019895e-02 -2.44137309e-02]
   [-8.75749998e-03 -7.78422579e-02 -3.88415456e-02]]

  [[ 2.61071716e-02  1.54056959e-02  1.75694935e-02]
   [-1.51299499e-02 -4.86866664e-03  3.07729817e-03]
   [-1.34704364e-02 -9.32012405e-03 -4.89815790e-03]]]


 [[[-2.02276036e-02 -3.00062168e-02 -9.84193757e-03]
   [-3.86755988e-02 -3.34808528e-02 -7.42645701e-03]
   [-2.89350543e-02 -3.20366547e-02  2.92448327e-03]]

  [[-1.28997145e-02  3.80461849e-03  1.59396697e-02]
   [-2.40304600e-02  2.06662854e-03  5.72497025e-03]
   [ 6.99890684e-03  1.21924179e-02  1.54061774e-02]]

  [[-1.50183672e-02 -9.09883343e-03  2.44496502e-02]
   [ 1.00393472e-02  1.25612849e-02  2.69973613e-02]
   [ 2.95558777e-02  1.94627549e-02 -2.65841605e-03]]

  ...

  [[-1.84809659e-02  3.94168426e-04  9.97683778e-03]
   [-4.54472098e-03  1.23067927e-02  3.55066508e-02]
   [-1.18734129e-03 -2.61847698e-03  1.15470327e-02]]

  [[ 4.62916307e-03 -1.36900805e-02 -1.01706171e-02]
   [ 1.21037057e-02  1.67930815e-02  1.30034499e-02]
   [ 1.33279362e-03  3.47007369e-03  1.73228160e-02]]

  [[-8.73316167e-05  5.86458528e-03 -3.51171126e-03]
   [ 3.81121063e-03 -7.18277646e-03 -1.14072589e-02]
   [ 1.97053179e-02  2.05559935e-02  5.70840063e-03]]]


 [[[ 3.69979218e-02  3.26155238e-02 -9.45346954e-04]
   [-2.94841994e-02 -2.34405752e-02 -2.80847624e-02]
   [-2.54507847e-02  3.90476175e-02  3.66861522e-02]]

  [[-1.87320970e-02 -1.53518980e-02  1.11491671e-02]
   [-2.13239901e-03 -2.31768172e-02  1.76282264e-02]
   [-4.00124444e-03  1.54631026e-02  9.24955402e-03]]

  [[-2.93456726e-02  7.70711992e-03 -5.65204490e-03]
   [-2.36108005e-02 -1.93895248e-03  2.02209856e-02]
   [ 8.09547771e-03 -2.32680403e-02 -2.88272984e-02]]

  ...

  [[-3.35324667e-02 -2.90923156e-02 -4.00450081e-02]
   [ 2.65303394e-03 -2.05676313e-02  1.30754644e-02]
   [ 1.60614885e-02 -5.57248481e-02 -4.91673313e-02]]

  [[-7.91317876e-03  2.14660931e-02  2.09131949e-02]
   [-1.72587279e-02 -2.58509852e-02  2.71770987e-03]
   [-4.65315618e-02 -2.48459578e-02 -1.99106392e-02]]

  [[-5.03499843e-02 -2.55737137e-02  1.77632738e-02]
   [-3.44741866e-02  5.52471401e-03 -2.77540702e-02]
   [-2.07430422e-02 -2.23321170e-02 -4.35120724e-02]]]]"
layer2.1.bn2.weight,"(128,)","[0.1193893  0.16245109 0.30839208 0.2930601  0.29573682 0.5263034
 0.40384483 0.202352   0.3400559  0.19821522 0.25591016 0.23112112
 0.16304359 0.28908366 0.22484487 0.23105119 0.24168062 0.21868931
 0.19215783 0.31032386 0.20145953 0.4802434  0.24813175 0.38980767
 0.3203908  0.40348464 0.26174435 0.15511955 0.22561504 0.2117357
 0.2707508  0.35366637 0.25045806 0.18427834 0.2464808  0.6501015
 0.38976017 0.42893812 0.17994376 0.16035305 0.1775242  0.35995325
 0.269352   0.12825294 0.16616924 0.1716292  0.1836735  0.17101999
 0.417839   0.32485315 0.17589505 0.4717092  0.41149256 0.19948924
 0.20250343 0.14915164 0.2860272  0.10724967 0.3648801  0.19061168
 0.53686184 0.2400428  0.4410931  0.1702339  0.1993192  0.20447424
 0.19721247 0.4041375  0.30340374 0.6167746  0.22844608 0.32283866
 0.45472527 0.4369608  0.1570128  0.40571576 0.57912904 0.23375064
 0.15855204 0.31303233 0.22011271 0.3195442  0.11659968 0.25171226
 0.21837364 0.09890559 0.3116229  0.26128307 0.32768643 0.17778853
 0.27177766 0.41742307 0.51399684 0.21360286 0.19053432 0.2897748
 0.24716541 0.13408276 0.6212243  0.18104063 0.23935467 0.14170949
 0.17594567 0.28268373 0.19870709 0.37747452 0.37488964 0.12735775
 0.36560106 0.43048865 0.42117742 0.2672556  0.20161569 0.5097743
 0.14494571 0.44083685 0.3583217  0.25029546 0.5682024  0.25175288
 0.13924083 0.0616608  0.34057307 0.13126306 0.45860344 0.29137436
 0.13260359 0.39147717]"
layer2.1.bn2.bias,"(128,)","[-0.14032778 -0.08894531 -0.41469085 -0.22640489 -0.07373474 -0.35344964
 -0.33790693 -0.07521196 -0.17912294  0.04482559 -0.28419286 -0.1764551
 -0.1590668  -0.06754464 -0.15427032 -0.10609996 -0.23343885 -0.09812825
 -0.09077431 -0.0566651  -0.19082847 -0.20547315 -0.27041823 -0.18826382
 -0.35695714 -0.11252353 -0.16316101 -0.0210774  -0.1687454  -0.21243277
 -0.17131962 -0.08719256 -0.2193586  -0.18875942 -0.29541472 -0.4570194
 -0.02260104 -0.05266348  0.0405544  -0.06093444 -0.0455775  -0.11763712
 -0.01448101  0.03181774 -0.204581   -0.09533597 -0.04964646 -0.10511655
 -0.07930891 -0.19327427 -0.14674404 -0.32147512 -0.32569858 -0.22870062
 -0.0355797  -0.18688497 -0.19317493 -0.07706796  0.27676588 -0.06563185
 -0.08950278 -0.25480816 -0.23653251  0.00214107 -0.09865154 -0.31778482
  0.16127147  0.0005583  -0.23471054 -0.41495287 -0.13103706 -0.31417617
 -0.258199   -0.5399538   0.07723791 -0.25457138 -0.4454356  -0.02617936
 -0.09366712 -0.22011456 -0.2043583  -0.01554353 -0.08931884 -0.2166549
  0.11115827 -0.06188284 -0.12169912 -0.15931001 -0.13170585 -0.1716912
 -0.3729228  -0.33535177 -0.3414183   0.03578251 -0.20671892 -0.10873519
  0.01414789 -0.0338181  -0.21288447 -0.11221191 -0.16266473 -0.19995518
  0.09077406 -0.00411298 -0.13134836 -0.29418918  0.01602822 -0.10647213
 -0.1288829  -0.16993897 -0.17212778 -0.18088926 -0.22946702 -0.36110774
 -0.17460269 -0.3539519  -0.1554324  -0.27085498 -0.2607114   0.00843287
 -0.03106271 -0.00223071 -0.08313873  0.03803056 -0.48925057 -0.27491626
  0.12451781 -0.1271545 ]"
layer3.0.conv1.weight,"(256, 128, 3, 3)","[[[[-0.01590557 -0.01661805 -0.01593779]
   [-0.00527442  0.01510259  0.00988049]
   [-0.01485007  0.00036254 -0.01137808]]

  [[-0.00949711 -0.01856799 -0.00606051]
   [ 0.00976218 -0.01229421 -0.00529776]
   [ 0.00705183 -0.01606257 -0.00714451]]

  [[-0.0226929  -0.03766871 -0.03369458]
   [-0.03156892 -0.05802177 -0.03910545]
   [-0.03461605 -0.03880626 -0.01569548]]

  ...

  [[ 0.00487129  0.00795388  0.014374  ]
   [-0.00152418  0.0242001   0.00564404]
   [-0.00443549  0.00624544  0.00685608]]

  [[ 0.0160282  -0.0120358  -0.00131007]
   [ 0.00958041  0.00572716  0.00160911]
   [-0.00991727 -0.01359338 -0.00636786]]

  [[ 0.05344956  0.04644113  0.0248241 ]
   [ 0.03406498 -0.00286563 -0.00412072]
   [-0.0140005  -0.00460925 -0.0141517 ]]]


 [[[-0.00115673 -0.01863841 -0.03445298]
   [ 0.00498887 -0.0116945  -0.03332122]
   [ 0.0059653  -0.0161541  -0.01745167]]

  [[ 0.01072936  0.01396432 -0.01917059]
   [ 0.00288538  0.01257325  0.00727667]
   [-0.01681541 -0.01874037 -0.00137844]]

  [[-0.02185204  0.00629004  0.01593106]
   [-0.00352717  0.00569975  0.03107707]
   [ 0.00231686  0.00323893  0.01749034]]

  ...

  [[-0.01624581 -0.00776881  0.0077471 ]
   [-0.001487   -0.01222643 -0.00933889]
   [ 0.00086164 -0.00220712  0.00737691]]

  [[ 0.00293099 -0.02359212  0.00584612]
   [ 0.01434372 -0.01692444 -0.0061749 ]
   [-0.00771909 -0.03230453 -0.03368804]]

  [[ 0.00869001  0.01397564  0.00807602]
   [-0.0033662   0.01051587  0.01495205]
   [ 0.01894438  0.03094762  0.02564692]]]


 [[[-0.03579723 -0.02256493 -0.01443953]
   [-0.00753716 -0.02214233  0.01114961]
   [-0.00363855 -0.01482103 -0.01642661]]

  [[-0.0146199  -0.03065709 -0.02043443]
   [-0.02846225 -0.04532825 -0.05791491]
   [ 0.02877417 -0.01517209 -0.02454116]]

  [[ 0.01740344  0.01992036 -0.00462495]
   [ 0.01781276  0.02364816  0.01363809]
   [ 0.02934704  0.04344946  0.01859428]]

  ...

  [[ 0.00792578 -0.01218322 -0.01581099]
   [-0.01071961 -0.03140434 -0.00752786]
   [-0.00702989 -0.01734178 -0.03078343]]

  [[-0.01025789 -0.01179576 -0.01714121]
   [-0.02642261 -0.00150357  0.02795942]
   [-0.0089306   0.00535105  0.00966315]]

  [[ 0.01448056 -0.03153074 -0.01970747]
   [-0.01494396 -0.01770921  0.0076966 ]
   [ 0.01246541  0.00710349 -0.00615958]]]


 ...


 [[[ 0.00531201  0.02551187  0.00710529]
   [ 0.01966551  0.02698987  0.0420429 ]
   [ 0.04119113  0.02228294  0.03500332]]

  [[ 0.00259676  0.00406854  0.010626  ]
   [ 0.00464737  0.02033696  0.00808467]
   [ 0.01447517 -0.00300702 -0.01965552]]

  [[-0.0040235   0.02551044  0.00228746]
   [-0.01518215  0.02603109  0.0082526 ]
   [-0.00210653  0.02692845  0.00322957]]

  ...

  [[ 0.00550633 -0.00486313  0.01834609]
   [ 0.00854993  0.00230021  0.00772015]
   [ 0.00822801  0.00958182  0.02150997]]

  [[-0.01770207  0.00992028 -0.01293361]
   [-0.01267004  0.00955057 -0.01243782]
   [ 0.00898105  0.04934274  0.03623819]]

  [[ 0.01233325  0.01840803 -0.01779443]
   [ 0.00576759 -0.00578444 -0.01170617]
   [ 0.00344621 -0.01029891 -0.042529  ]]]


 [[[ 0.03163378  0.07651439  0.04430011]
   [ 0.09396327  0.14797884  0.15103841]
   [ 0.06648291  0.13855715  0.1132265 ]]

  [[-0.02820521 -0.00407305 -0.01996671]
   [-0.01928324 -0.00123304  0.01072765]
   [-0.01648727 -0.00275397  0.00077751]]

  [[-0.01215587 -0.03218283 -0.01529901]
   [-0.00091752 -0.01234991 -0.00385315]
   [-0.01934247 -0.01073529 -0.02105108]]

  ...

  [[-0.00304568  0.00656866 -0.00032163]
   [ 0.01462784 -0.01666203  0.01421626]
   [ 0.02273798  0.01201603  0.0071802 ]]

  [[ 0.00391505 -0.01973876  0.01105817]
   [-0.02510531 -0.03843939 -0.04472184]
   [-0.03586159 -0.09811963 -0.06844702]]

  [[-0.00848528  0.00229052  0.00307574]
   [ 0.00384839  0.01815624  0.00690248]
   [ 0.00894561  0.00800093  0.01257933]]]


 [[[-0.01300648 -0.00902621  0.00105744]
   [-0.02597883 -0.01948419 -0.00936372]
   [ 0.00484385  0.00237417  0.01057448]]

  [[-0.00247822 -0.01404948 -0.02862088]
   [-0.00238224  0.00114629 -0.02332074]
   [ 0.01227486  0.00083306  0.00143047]]

  [[-0.04895834 -0.04385975 -0.05790076]
   [-0.03592044 -0.03650286 -0.03857389]
   [-0.04102284 -0.03333655 -0.01367287]]

  ...

  [[-0.01177202 -0.00810424 -0.01580323]
   [-0.02718983 -0.0285499   0.00750422]
   [-0.02436251  0.01394258  0.00606155]]

  [[-0.02731744  0.01970393  0.02218295]
   [-0.0375565   0.020815    0.01868176]
   [-0.04455702 -0.00435291 -0.01677943]]

  [[ 0.01993938  0.02680161  0.01199625]
   [ 0.02026026  0.02153968  0.00250026]
   [ 0.00018079 -0.00763146 -0.01958171]]]]"
layer3.0.bn1.weight,"(256,)","[0.28555888 0.24251293 0.30318534 0.31684265 0.3011119  0.3474536
 0.30756092 0.310476   0.36459932 0.32549155 0.21947213 0.31673127
 0.26743257 0.3103773  0.3025667  0.34434307 0.29154667 0.33787835
 0.28873238 0.29963785 0.3588176  0.31642136 0.2882087  0.29174066
 0.3492479  0.37490103 0.358705   0.3166257  0.2755552  0.29777348
 0.3363775  0.28926605 0.3106451  0.250589   0.34603834 0.3621155
 0.25702062 0.36953557 0.29352576 0.32855454 0.3243426  0.31881747
 0.30933854 0.3313685  0.35498026 0.29780614 0.27372715 0.3022757
 0.31794798 0.2831428  0.30646193 0.3389744  0.30529413 0.30990505
 0.3016511  0.34718472 0.30335644 0.2934534  0.3352372  0.3676266
 0.31628576 0.34037206 0.30777344 0.28192848 0.37939715 0.30828416
 0.27779597 0.33633387 0.22844386 0.32585797 0.27900058 0.30722594
 0.29752004 0.38472492 0.33720443 0.22526504 0.28274775 0.37371647
 0.27958858 0.34849808 0.3878779  0.32878253 0.33403492 0.33346134
 0.27559885 0.35003126 0.28966835 0.27984563 0.29073432 0.32197413
 0.38236222 0.35224473 0.32781932 0.36893252 0.31471753 0.36001933
 0.31229344 0.25185883 0.2355099  0.32111305 0.32031626 0.33446106
 0.276752   0.33405295 0.31525412 0.3175466  0.22237784 0.29557073
 0.3206103  0.26578078 0.3662406  0.27152514 0.36547446 0.3427135
 0.2819721  0.27539584 0.46692708 0.309017   0.34677127 0.314426
 0.32197046 0.2765432  0.33011043 0.32185823 0.31521556 0.28128004
 0.24970855 0.351405   0.3264159  0.30138177 0.27342567 0.35219294
 0.38308206 0.30277485 0.29403248 0.28246993 0.30991873 0.23733808
 0.2705375  0.4188706  0.29849538 0.38407192 0.27539027 0.3091129
 0.31694356 0.28237697 0.27491918 0.3493221  0.40184966 0.310825
 0.21762387 0.28213432 0.31988403 0.3358097  0.2468353  0.33323526
 0.287557   0.29644218 0.23854241 0.3450851  0.30811915 0.27603328
 0.25331813 0.25757614 0.3091892  0.29496735 0.30887398 0.3112624
 0.347532   0.31715533 0.24742845 0.33707026 0.3450419  0.31891808
 0.31495833 0.3007861  0.26942647 0.3730292  0.32351226 0.29883
 0.28117564 0.3244574  0.363002   0.2842703  0.35328403 0.34513128
 0.32435426 0.35244972 0.3117963  0.34288192 0.3214816  0.27475154
 0.3287266  0.36555165 0.29005584 0.25225976 0.32835868 0.25231257
 0.3425661  0.2851462  0.29177648 0.2496898  0.51586825 0.30260485
 0.27427265 0.23794352 0.35238537 0.3393841  0.22639702 0.26523378
 0.37585813 0.3776729  0.24592052 0.3046221  0.30669194 0.3774703
 0.297616   0.35523123 0.26959723 0.2649114  0.2871635  0.29852164
 0.28670442 0.36755696 0.34943143 0.3822808  0.3245985  0.35671046
 0.26620236 0.3357329  0.29351833 0.29870683 0.26642606 0.30189493
 0.3174894  0.24358365 0.3274373  0.27637848 0.24661922 0.2875551
 0.3059697  0.31574365 0.3328848  0.29838613 0.29608625 0.330902
 0.37289244 0.3237768  0.34906796 0.3342373  0.30365872 0.35781553
 0.28485513 0.2826609  0.28087956 0.32487923]"
layer3.0.bn1.bias,"(256,)","[-0.09154078  0.01889828 -0.12345635 -0.06132653 -0.10026336 -0.13059099
 -0.14726667 -0.10788449 -0.24378397 -0.11125087  0.13608639 -0.14769588
  0.03874028 -0.09068101  0.03524973 -0.18514138 -0.13186333 -0.17456585
 -0.08150757 -0.10039688 -0.3393566  -0.1712015  -0.08069386 -0.1227558
 -0.22634771 -0.15031299 -0.23135239 -0.23273225 -0.08538927 -0.08015219
 -0.07163272 -0.08390269 -0.05916796  0.03575762 -0.0321761  -0.21969262
  0.0026861  -0.14711985 -0.02640415 -0.18858565 -0.24166484 -0.14937852
 -0.19043946 -0.10891255 -0.26568496 -0.13622516 -0.04870504 -0.1340403
 -0.09295271 -0.00640622 -0.17213713 -0.1475991  -0.17143896  0.03360408
 -0.10109083 -0.1761116  -0.11836129 -0.04823631 -0.32596996 -0.15553296
 -0.01689656 -0.23728529 -0.10152171 -0.10509824 -0.27381223 -0.19171937
 -0.05034588 -0.10982186  0.1484402  -0.22824666 -0.06997345 -0.14268248
 -0.1416987  -0.30959916 -0.2042786   0.02686858 -0.07786123 -0.08422429
 -0.04644189 -0.14294133 -0.39169884  0.0257085  -0.17787395 -0.09933057
 -0.0507109  -0.22219355 -0.09507889 -0.08613526 -0.07427605 -0.16658367
 -0.20537975 -0.17815633 -0.11504829 -0.25251678 -0.0694159  -0.05363324
 -0.04987537 -0.03110457  0.12121279 -0.09881429 -0.15704486 -0.30929956
 -0.07965934 -0.0994156  -0.17744713 -0.05052317  0.07656059 -0.04798578
 -0.12778938 -0.06505194 -0.17371611  0.03026597 -0.13339882 -0.24351205
 -0.07456214 -0.03647075 -0.18434994 -0.0887069  -0.19241382 -0.11100183
 -0.14578848 -0.08951057 -0.09559263 -0.20419808 -0.13381305 -0.0636856
 -0.06992569 -0.1656496  -0.15209924 -0.13171126 -0.08257174 -0.24704264
 -0.11742812 -0.14747559 -0.08403058 -0.0681373  -0.17894287  0.02884018
 -0.03617286 -0.3005225  -0.14410734 -0.08124746 -0.04917308 -0.0656796
 -0.12487341 -0.11042405  0.0187339  -0.13513029 -0.1944339  -0.09087273
  0.206699   -0.108119   -0.2498682  -0.09991913  0.05071144 -0.18990146
 -0.03694467 -0.14324437  0.12787265 -0.17817493 -0.11723298 -0.00990288
  0.07847692 -0.06808802 -0.03649183 -0.15956184 -0.16058564 -0.09223526
 -0.17734957 -0.1788069   0.03062668 -0.11006006 -0.13546926 -0.22440237
 -0.08599211 -0.12324105 -0.09266146 -0.16661668 -0.13934082 -0.08981177
 -0.06138116 -0.17399228 -0.25027755 -0.05925312 -0.1271838  -0.14220083
 -0.0742512  -0.22076236 -0.22068238 -0.2742049  -0.1301612  -0.0916414
 -0.1696426  -0.24806997 -0.1523743   0.0410312  -0.10768296  0.04080063
 -0.19151579 -0.06965306 -0.10492181 -0.01104582 -0.32568002 -0.13363415
 -0.10210671  0.0128189  -0.27168912 -0.12454602  0.02878337 -0.1025359
 -0.2405123  -0.14758372  0.10082713 -0.0219869  -0.09826721 -0.4416956
 -0.07740282 -0.320662   -0.02724987 -0.07261278 -0.06076329 -0.04300105
 -0.08717418 -0.12803005 -0.16084471 -0.15292351 -0.174502   -0.17017631
 -0.04859402 -0.14587688 -0.0552203  -0.08078603 -0.02636991 -0.09516902
 -0.11255532 -0.04516898 -0.08366148 -0.03306998  0.01268272 -0.08646631
 -0.14463103 -0.07316735 -0.21599436 -0.09524214 -0.12968431 -0.20076804
 -0.21346895 -0.22043699 -0.2380957  -0.17869237 -0.1385721  -0.19008894
 -0.09809553 -0.08501466 -0.07610251 -0.05864526]"
layer3.0.conv2.weight,"(256, 256, 3, 3)","[[[[-0.00927748 -0.03389666 -0.01192718]
   [-0.0245953  -0.07976136 -0.0487088 ]
   [-0.04348981 -0.08011817 -0.06525239]]

  [[-0.02891848  0.00023763 -0.0285608 ]
   [ 0.00985568  0.01025315 -0.01767705]
   [-0.01068373  0.00280711 -0.01248319]]

  [[-0.01473009  0.02262223  0.00443143]
   [ 0.01551182  0.01090127 -0.00402943]
   [-0.02075623 -0.01804823 -0.0172577 ]]

  ...

  [[ 0.00031821 -0.00409243 -0.00079885]
   [-0.02166355 -0.02233882 -0.02987048]
   [ 0.01045251  0.00347071 -0.01142569]]

  [[ 0.00965162  0.01836123  0.03703543]
   [ 0.00371474  0.010427    0.01516239]
   [ 0.00843248  0.01834277  0.03015864]]

  [[ 0.00138592  0.00841808  0.00971854]
   [ 0.02645526  0.04147378  0.05529184]
   [ 0.01690501  0.06102712  0.05629587]]]


 [[[ 0.01174311  0.01650843  0.00512322]
   [ 0.02944132  0.02044097  0.02162411]
   [ 0.00788515  0.01328989  0.0116644 ]]

  [[-0.01531496 -0.02131926 -0.00897025]
   [-0.02917056 -0.05159972 -0.04360519]
   [-0.00454865 -0.03723893 -0.04201278]]

  [[ 0.00030217  0.03978082 -0.00014889]
   [ 0.0128597   0.03315638  0.01625358]
   [-0.00958857 -0.00565289 -0.01696618]]

  ...

  [[ 0.04466157  0.00819821  0.01686704]
   [-0.00661903 -0.03707987 -0.00593463]
   [-0.02391268 -0.06069928 -0.02894678]]

  [[-0.00570196 -0.04226239 -0.02194653]
   [-0.02278022 -0.03142766 -0.05832174]
   [-0.01959751 -0.05299511 -0.04850229]]

  [[ 0.00649484  0.00326659  0.00934421]
   [ 0.00104661 -0.0049306  -0.01100252]
   [-0.01598058 -0.01011868 -0.01455476]]]


 [[[-0.00611495 -0.00668487 -0.00692557]
   [-0.00516922 -0.00890644 -0.01431334]
   [-0.01145031 -0.01712527 -0.02372852]]

  [[ 0.03989852  0.01668386  0.02099059]
   [ 0.01649779 -0.02623628 -0.01162997]
   [ 0.00590302 -0.02059718 -0.01528005]]

  [[ 0.00602278  0.02419959  0.02071614]
   [ 0.00495506 -0.00615901  0.01478995]
   [ 0.00985951 -0.02793089 -0.00542606]]

  ...

  [[-0.00974264 -0.00169894 -0.01010627]
   [-0.00061351  0.04335535  0.03814301]
   [ 0.00379435  0.0449796   0.03916546]]

  [[ 0.013395    0.00691874  0.01963126]
   [ 0.00675327  0.02502672  0.01516238]
   [ 0.00178568 -0.00439715  0.00370159]]

  [[-0.01743957 -0.01626005 -0.02400016]
   [-0.01971555 -0.01736406 -0.01782826]
   [-0.03000957 -0.0136969  -0.0210679 ]]]


 ...


 [[[ 0.00656243  0.00608365  0.02844582]
   [-0.01296664 -0.05091    -0.02043504]
   [-0.01541875 -0.01489855 -0.01805612]]

  [[ 0.01234104  0.03247917  0.0226504 ]
   [-0.0042432  -0.01811253  0.00222237]
   [ 0.00290122 -0.01740547  0.00318687]]

  [[-0.01099225  0.01107976 -0.01419842]
   [ 0.00822582  0.03013481  0.0416011 ]
   [ 0.00060791  0.00016776  0.02132769]]

  ...

  [[-0.00075068  0.02656518  0.01182046]
   [-0.01591585 -0.00742426 -0.00512141]
   [ 0.00417323 -0.00685479 -0.00731909]]

  [[-0.00697666  0.00097686  0.00189346]
   [ 0.00606305  0.05098302 -0.00349373]
   [-0.00814957 -0.03033939 -0.01740904]]

  [[-0.01004812  0.00032093 -0.00114347]
   [-0.00154354 -0.02968913 -0.01953932]
   [-0.00096     0.00489478  0.01511732]]]


 [[[ 0.01608047  0.01259353  0.00547672]
   [-0.01324128 -0.01956448 -0.0208069 ]
   [-0.00772611 -0.02304027 -0.02019713]]

  [[-0.00189471  0.0530249   0.01342088]
   [ 0.00273443  0.0249081   0.01672605]
   [-0.01919599 -0.01876775 -0.01995419]]

  [[ 0.00807027  0.0299868   0.00057642]
   [ 0.00359377  0.02540845 -0.01044354]
   [-0.00096803 -0.01931652 -0.01208534]]

  ...

  [[ 0.01629508  0.02505993  0.0289503 ]
   [-0.00731879 -0.00141001  0.01237765]
   [-0.02114351 -0.0346734  -0.01950723]]

  [[ 0.01646871  0.05192967  0.0493638 ]
   [ 0.00582845  0.01986769  0.03629193]
   [-0.00493203 -0.01647029 -0.01296685]]

  [[-0.01021391 -0.03080236 -0.03400372]
   [ 0.00552736 -0.01092457  0.00046995]
   [ 0.03821245  0.02093601  0.03256552]]]


 [[[ 0.01836366 -0.00306992  0.01034814]
   [-0.00723509 -0.00127421 -0.00695274]
   [ 0.02168597  0.00114903 -0.00327068]]

  [[-0.01659388  0.00015176 -0.00917761]
   [ 0.01503588  0.05840839  0.02184025]
   [-0.01360612  0.01812575  0.01635351]]

  [[ 0.02187193  0.0315811   0.01828862]
   [-0.00210278 -0.0156329   0.02026528]
   [ 0.00529237  0.00048438  0.01570068]]

  ...

  [[ 0.00447124 -0.00247571  0.00172672]
   [-0.00523387 -0.00880007  0.01373808]
   [-0.01069454  0.00103475  0.01696174]]

  [[-0.00599338 -0.03680348  0.00309961]
   [ 0.01022394  0.02911707 -0.00073036]
   [ 0.00990512  0.05997353  0.02724214]]

  [[-0.0091759  -0.01829731  0.00624105]
   [-0.0318706  -0.0293504  -0.01488324]
   [-0.01480755 -0.01234833 -0.02360872]]]]"
layer3.0.bn2.weight,"(256,)","[0.32121417 0.21239911 0.26607153 0.35944885 0.27846855 0.25819722
 0.31078047 0.3096141  0.33483315 0.29921165 0.2545393  0.24575116
 0.313275   0.41588345 0.29970196 0.3069939  0.31354412 0.44177195
 0.37427643 0.2570425  0.29429364 0.30782875 0.27383894 0.39483193
 0.29283115 0.3572218  0.34352332 0.5379346  0.4243474  0.39076644
 0.27445552 0.27975866 0.32171935 0.19559275 0.2751255  0.3187198
 0.35066023 0.27507785 0.19191861 0.33073357 0.28503847 0.30375677
 0.21793485 0.2651861  0.29441345 0.2137697  0.21842463 0.2947653
 0.3262436  0.3758741  0.2557238  0.37964374 0.29495502 0.33857736
 0.3242635  0.30702773 0.33307013 0.23019381 0.3035764  0.33765537
 0.2922319  0.22043945 0.32670313 0.31977957 0.40234485 0.2986875
 0.48604727 0.28541628 0.27163675 0.43413112 0.2834329  0.22956428
 0.2507303  0.31196564 0.36727512 0.32443663 0.33804896 0.32720768
 0.2867575  0.28767318 0.32099548 0.2332157  0.33785984 0.2766702
 0.2941901  0.26724318 0.44011036 0.29080003 0.3770556  0.2788621
 0.30561927 0.32756636 0.38712355 0.245329   0.25587225 0.27829576
 0.31676182 0.34097186 0.23181643 0.3576845  0.5036313  0.3556896
 0.24753192 0.18520747 0.22733176 0.36015734 0.29189482 0.39282694
 0.44231814 0.20522884 0.25242978 0.21888614 0.41133818 0.3610801
 0.42841566 0.23332967 0.35043857 0.70014876 0.37536228 0.2874191
 0.3702207  0.31736615 0.36395687 0.2888914  0.4154999  0.24790986
 0.28984943 0.37399623 0.49259305 0.28080678 0.23879118 0.3472822
 0.18681107 0.28367338 0.30899575 0.36143407 0.2797428  0.6870775
 0.28540212 0.29368085 0.3128088  0.48625347 0.21928257 0.28713644
 0.25544935 0.4175357  0.30443776 0.32299244 0.33426154 0.49471256
 0.3923554  0.22638863 0.2657195  0.41929027 0.34832057 0.3551258
 0.28766295 0.255942   0.24586758 0.27746874 0.38419464 0.2949261
 0.35095498 0.19260032 0.31013045 0.34167126 0.39307988 0.39178056
 0.3238677  0.2850953  0.458256   0.26686305 0.26630333 0.44333765
 0.32212466 0.36548108 0.3335814  0.4393207  0.39696065 0.37266076
 0.3523429  0.35855728 0.32861108 0.41813773 0.2955268  0.30499482
 0.2987933  0.43201125 0.23088355 0.38263255 0.22700839 0.22281161
 0.32058015 0.32731396 0.2627479  0.3087421  0.29202163 0.23283648
